J48 pruned tree
------------------

pixel23 <= 0.964706
|   pixel492 <= 0.286275
|   |   pixel368 <= 0.631373
|   |   |   pixel424 <= 0.523529
|   |   |   |   pixel563 <= 0.321569
|   |   |   |   |   pixel468 <= 0.106863
|   |   |   |   |   |   pixel569 <= 0.234314
|   |   |   |   |   |   |   pixel554 <= 0.952941
|   |   |   |   |   |   |   |   pixel37 <= 0.594118
|   |   |   |   |   |   |   |   |   pixel294 <= 0.005882
|   |   |   |   |   |   |   |   |   |   pixel351 <= 0.189216: angry (13.0/4.0)
|   |   |   |   |   |   |   |   |   |   pixel351 > 0.189216: neutral (4.0/1.0)
|   |   |   |   |   |   |   |   |   pixel294 > 0.005882
|   |   |   |   |   |   |   |   |   |   pixel376 <= 0.378431
|   |   |   |   |   |   |   |   |   |   |   pixel384 <= 0.019608
|   |   |   |   |   |   |   |   |   |   |   |   pixel455 <= 0.019608
|   |   |   |   |   |   |   |   |   |   |   |   |   pixel24 <= 0.19902: happy (3.0)
|   |   |   |   |   |   |   |   |   |   |   |   |   pixel24 > 0.19902: sad (4.0)
|   |   |   |   |   |   |   |   |   |   |   |   pixel455 > 0.019608: sad (12.0/2.0)
|   |   |   |   |   |   |   |   |   |   |   pixel384 > 0.019608
|   |   |   |   |   |   |   |   |   |   |   |   pixel47 <= 0.009804
|   |   |   |   |   |   |   |   |   |   |   |   |   pixel455 <= 0.003922: neutral (3.0/1.0)
|   |   |   |   |   |   |   |   |   |   |   |   |   pixel455 > 0.003922: angry (7.0/1.0)
|   |   |   |   |   |   |   |   |   |   |   |   pixel47 > 0.009804
|   |   |   |   |   |   |   |   |   |   |   |   |   pixel468 <= 0.017647
|   |   |   |   |   |   |   |   |   |   |   |   |   |   pixel550 <= 0.228431: angry (7.0/1.0)
|   |   |   |   |   |   |   |   |   |   |   |   |   |   pixel550 > 0.228431: suprise (3.0/1.0)
|   |   |   |   |   |   |   |   |   |   |   |   |   pixel468 > 0.017647
|   |   |   |   |   |   |   |   |   |   |   |   |   |   pixel468 <= 0.102941
|   |   |   |   |   |   |   |   |   |   |   |   |   |   |   pixel444 <= 0.304902
|   |   |   |   |   |   |   |   |   |   |   |   |   |   |   |   pixel47 <= 0.097059
|   |   |   |   |   |   |   |   |   |   |   |   |   |   |   |   |   pixel37 <= 0.382353
|   |   |   |   |   |   |   |   |   |   |   |   |   |   |   |   |   |   pixel566 <= 0.079412
|   |   |   |   |   |   |   |   |   |   |   |   |   |   |   |   |   |   |   pixel227 <= 0.096078: happy (4.0/2.0)
|   |   |   |   |   |   |   |   |   |   |   |   |   |   |   |   |   |   |   pixel227 > 0.096078: neutral (6.0/1.0)
|   |   |   |   |   |   |   |   |   |   |   |   |   |   |   |   |   |   pixel566 > 0.079412
|   |   |   |   |   |   |   |   |   |   |   |   |   |   |   |   |   |   |   pixel320 <= 0.185294: neutral (3.0)
|   |   |   |   |   |   |   |   |   |   |   |   |   |   |   |   |   |   |   pixel320 > 0.185294
|   |   |   |   |   |   |   |   |   |   |   |   |   |   |   |   |   |   |   |   pixel252 <= 0.366667: sad (13.0)
|   |   |   |   |   |   |   |   |   |   |   |   |   |   |   |   |   |   |   |   pixel252 > 0.366667: neutral (5.0/2.0)
|   |   |   |   |   |   |   |   |   |   |   |   |   |   |   |   |   pixel37 > 0.382353
|   |   |   |   |   |   |   |   |   |   |   |   |   |   |   |   |   |   pixel252 <= 0.356863: sad (5.0)
|   |   |   |   |   |   |   |   |   |   |   |   |   |   |   |   |   |   pixel252 > 0.356863: fear (4.0/1.0)
|   |   |   |   |   |   |   |   |   |   |   |   |   |   |   |   pixel47 > 0.097059
|   |   |   |   |   |   |   |   |   |   |   |   |   |   |   |   |   pixel225 <= 0.070588
|   |   |   |   |   |   |   |   |   |   |   |   |   |   |   |   |   |   pixel131 <= 0.153922: neutral (3.0/1.0)
|   |   |   |   |   |   |   |   |   |   |   |   |   |   |   |   |   |   pixel131 > 0.153922: happy (4.0/1.0)
|   |   |   |   |   |   |   |   |   |   |   |   |   |   |   |   |   pixel225 > 0.070588
|   |   |   |   |   |   |   |   |   |   |   |   |   |   |   |   |   |   pixel569 <= 0.205882
|   |   |   |   |   |   |   |   |   |   |   |   |   |   |   |   |   |   |   pixel401 <= 0.346078
|   |   |   |   |   |   |   |   |   |   |   |   |   |   |   |   |   |   |   |   pixel119 <= 0.254902
|   |   |   |   |   |   |   |   |   |   |   |   |   |   |   |   |   |   |   |   |   pixel368 <= 0.162745: sad (3.0)
|   |   |   |   |   |   |   |   |   |   |   |   |   |   |   |   |   |   |   |   |   pixel368 > 0.162745
|   |   |   |   |   |   |   |   |   |   |   |   |   |   |   |   |   |   |   |   |   |   pixel204 <= 0.367647
|   |   |   |   |   |   |   |   |   |   |   |   |   |   |   |   |   |   |   |   |   |   |   pixel37 <= 0.452941: angry (8.0)
|   |   |   |   |   |   |   |   |   |   |   |   |   |   |   |   |   |   |   |   |   |   |   pixel37 > 0.452941: sad (3.0/1.0)
|   |   |   |   |   |   |   |   |   |   |   |   |   |   |   |   |   |   |   |   |   |   pixel204 > 0.367647: happy (3.0/1.0)
|   |   |   |   |   |   |   |   |   |   |   |   |   |   |   |   |   |   |   |   pixel119 > 0.254902
|   |   |   |   |   |   |   |   |   |   |   |   |   |   |   |   |   |   |   |   |   pixel400 <= 0.237255: sad (18.0/2.0)
|   |   |   |   |   |   |   |   |   |   |   |   |   |   |   |   |   |   |   |   |   pixel400 > 0.237255
|   |   |   |   |   |   |   |   |   |   |   |   |   |   |   |   |   |   |   |   |   |   pixel37 <= 0.196078: angry (4.0)
|   |   |   |   |   |   |   |   |   |   |   |   |   |   |   |   |   |   |   |   |   |   pixel37 > 0.196078: sad (6.0/1.0)
|   |   |   |   |   |   |   |   |   |   |   |   |   |   |   |   |   |   |   pixel401 > 0.346078
|   |   |   |   |   |   |   |   |   |   |   |   |   |   |   |   |   |   |   |   pixel4 <= 0.464706: fear (3.0)
|   |   |   |   |   |   |   |   |   |   |   |   |   |   |   |   |   |   |   |   pixel4 > 0.464706: happy (4.0/2.0)
|   |   |   |   |   |   |   |   |   |   |   |   |   |   |   |   |   |   pixel569 > 0.205882: fear (4.0/2.0)
|   |   |   |   |   |   |   |   |   |   |   |   |   |   |   pixel444 > 0.304902: happy (5.0/3.0)
|   |   |   |   |   |   |   |   |   |   |   |   |   |   pixel468 > 0.102941
|   |   |   |   |   |   |   |   |   |   |   |   |   |   |   pixel0 <= 0.155882: angry (3.0/2.0)
|   |   |   |   |   |   |   |   |   |   |   |   |   |   |   pixel0 > 0.155882: suprise (3.0/1.0)
|   |   |   |   |   |   |   |   |   |   pixel376 > 0.378431
|   |   |   |   |   |   |   |   |   |   |   pixel180 <= 0.17451: neutral (6.0/2.0)
|   |   |   |   |   |   |   |   |   |   |   pixel180 > 0.17451: sad (20.0/2.0)
|   |   |   |   |   |   |   |   pixel37 > 0.594118
|   |   |   |   |   |   |   |   |   pixel554 <= 0.013725: fear (7.0/1.0)
|   |   |   |   |   |   |   |   |   pixel554 > 0.013725
|   |   |   |   |   |   |   |   |   |   pixel119 <= 0.55098
|   |   |   |   |   |   |   |   |   |   |   pixel23 <= 0.038235: fear (4.0/2.0)
|   |   |   |   |   |   |   |   |   |   |   pixel23 > 0.038235: angry (18.0/2.0)
|   |   |   |   |   |   |   |   |   |   pixel119 > 0.55098: sad (4.0/1.0)
|   |   |   |   |   |   |   pixel554 > 0.952941: angry (7.0)
|   |   |   |   |   |   pixel569 > 0.234314
|   |   |   |   |   |   |   pixel468 <= 0.005882
|   |   |   |   |   |   |   |   pixel131 <= 0.367647
|   |   |   |   |   |   |   |   |   pixel0 <= 0.041176: fear (3.0)
|   |   |   |   |   |   |   |   |   pixel0 > 0.041176: suprise (3.0/1.0)
|   |   |   |   |   |   |   |   pixel131 > 0.367647: angry (12.0/1.0)
|   |   |   |   |   |   |   pixel468 > 0.005882
|   |   |   |   |   |   |   |   pixel544 <= 0.163725
|   |   |   |   |   |   |   |   |   pixel131 <= 0.233333: neutral (5.0/2.0)
|   |   |   |   |   |   |   |   |   pixel131 > 0.233333
|   |   |   |   |   |   |   |   |   |   pixel481 <= 0.235294: fear (3.0/1.0)
|   |   |   |   |   |   |   |   |   |   pixel481 > 0.235294
|   |   |   |   |   |   |   |   |   |   |   pixel4 <= 0.442157: angry (5.0)
|   |   |   |   |   |   |   |   |   |   |   pixel4 > 0.442157: happy (3.0/1.0)
|   |   |   |   |   |   |   |   pixel544 > 0.163725
|   |   |   |   |   |   |   |   |   pixel1 <= 0.688235
|   |   |   |   |   |   |   |   |   |   pixel383 <= 0.040196: sad (7.0/2.0)
|   |   |   |   |   |   |   |   |   |   pixel383 > 0.040196
|   |   |   |   |   |   |   |   |   |   |   pixel468 <= 0.071569
|   |   |   |   |   |   |   |   |   |   |   |   pixel424 <= 0.132353: sad (5.0)
|   |   |   |   |   |   |   |   |   |   |   |   pixel424 > 0.132353
|   |   |   |   |   |   |   |   |   |   |   |   |   pixel569 <= 0.412745
|   |   |   |   |   |   |   |   |   |   |   |   |   |   pixel401 <= 0.418627
|   |   |   |   |   |   |   |   |   |   |   |   |   |   |   pixel552 <= 0.72451
|   |   |   |   |   |   |   |   |   |   |   |   |   |   |   |   pixel22 <= 0.563725: suprise (15.0/1.0)
|   |   |   |   |   |   |   |   |   |   |   |   |   |   |   |   pixel22 > 0.563725: happy (3.0/1.0)
|   |   |   |   |   |   |   |   |   |   |   |   |   |   |   pixel552 > 0.72451: happy (5.0/2.0)
|   |   |   |   |   |   |   |   |   |   |   |   |   |   pixel401 > 0.418627: sad (4.0/1.0)
|   |   |   |   |   |   |   |   |   |   |   |   |   pixel569 > 0.412745
|   |   |   |   |   |   |   |   |   |   |   |   |   |   pixel453 <= 0.6: fear (8.0/1.0)
|   |   |   |   |   |   |   |   |   |   |   |   |   |   pixel453 > 0.6: sad (4.0)
|   |   |   |   |   |   |   |   |   |   |   pixel468 > 0.071569
|   |   |   |   |   |   |   |   |   |   |   |   pixel294 <= 0.441176
|   |   |   |   |   |   |   |   |   |   |   |   |   pixel192 <= 0.152941: fear (9.0/3.0)
|   |   |   |   |   |   |   |   |   |   |   |   |   pixel192 > 0.152941
|   |   |   |   |   |   |   |   |   |   |   |   |   |   pixel292 <= 0.285294: happy (7.0/2.0)
|   |   |   |   |   |   |   |   |   |   |   |   |   |   pixel292 > 0.285294: sad (7.0)
|   |   |   |   |   |   |   |   |   |   |   |   pixel294 > 0.441176
|   |   |   |   |   |   |   |   |   |   |   |   |   pixel535 <= 0.388235: angry (7.0/1.0)
|   |   |   |   |   |   |   |   |   |   |   |   |   pixel535 > 0.388235: fear (8.0/2.0)
|   |   |   |   |   |   |   |   |   pixel1 > 0.688235: suprise (11.0/3.0)
|   |   |   |   |   pixel468 > 0.106863
|   |   |   |   |   |   pixel552 <= 0.937255
|   |   |   |   |   |   |   pixel292 <= 0.848039
|   |   |   |   |   |   |   |   pixel400 <= 0.185294
|   |   |   |   |   |   |   |   |   pixel344 <= 0.688235
|   |   |   |   |   |   |   |   |   |   pixel466 <= 0.067647
|   |   |   |   |   |   |   |   |   |   |   pixel491 <= 0.145098
|   |   |   |   |   |   |   |   |   |   |   |   pixel192 <= 0.088235: angry (4.0)
|   |   |   |   |   |   |   |   |   |   |   |   pixel192 > 0.088235: sad (6.0/2.0)
|   |   |   |   |   |   |   |   |   |   |   pixel491 > 0.145098: suprise (3.0/1.0)
|   |   |   |   |   |   |   |   |   |   pixel466 > 0.067647
|   |   |   |   |   |   |   |   |   |   |   pixel424 <= 0.008824
|   |   |   |   |   |   |   |   |   |   |   |   pixel220 <= 0.378431: sad (3.0)
|   |   |   |   |   |   |   |   |   |   |   |   pixel220 > 0.378431: neutral (6.0)
|   |   |   |   |   |   |   |   |   |   |   pixel424 > 0.008824
|   |   |   |   |   |   |   |   |   |   |   |   pixel453 <= 0.001961: angry (6.0/1.0)
|   |   |   |   |   |   |   |   |   |   |   |   pixel453 > 0.001961
|   |   |   |   |   |   |   |   |   |   |   |   |   pixel444 <= 0.05098: sad (7.0/1.0)
|   |   |   |   |   |   |   |   |   |   |   |   |   pixel444 > 0.05098
|   |   |   |   |   |   |   |   |   |   |   |   |   |   pixel415 <= 0.121569
|   |   |   |   |   |   |   |   |   |   |   |   |   |   |   pixel503 <= 0.011765: sad (3.0)
|   |   |   |   |   |   |   |   |   |   |   |   |   |   |   pixel503 > 0.011765
|   |   |   |   |   |   |   |   |   |   |   |   |   |   |   |   pixel220 <= 0.331373
|   |   |   |   |   |   |   |   |   |   |   |   |   |   |   |   |   pixel356 <= 0.445098
|   |   |   |   |   |   |   |   |   |   |   |   |   |   |   |   |   |   pixel344 <= 0.171569: happy (17.0/1.0)
|   |   |   |   |   |   |   |   |   |   |   |   |   |   |   |   |   |   pixel344 > 0.171569
|   |   |   |   |   |   |   |   |   |   |   |   |   |   |   |   |   |   |   pixel131 <= 0.201961: fear (3.0)
|   |   |   |   |   |   |   |   |   |   |   |   |   |   |   |   |   |   |   pixel131 > 0.201961: happy (4.0)
|   |   |   |   |   |   |   |   |   |   |   |   |   |   |   |   |   pixel356 > 0.445098: sad (3.0/1.0)
|   |   |   |   |   |   |   |   |   |   |   |   |   |   |   |   pixel220 > 0.331373
|   |   |   |   |   |   |   |   |   |   |   |   |   |   |   |   |   pixel252 <= 0.306863: angry (4.0/2.0)
|   |   |   |   |   |   |   |   |   |   |   |   |   |   |   |   |   pixel252 > 0.306863: fear (3.0)
|   |   |   |   |   |   |   |   |   |   |   |   |   |   pixel415 > 0.121569
|   |   |   |   |   |   |   |   |   |   |   |   |   |   |   pixel356 <= 0.058824
|   |   |   |   |   |   |   |   |   |   |   |   |   |   |   |   pixel544 <= 0.10098
|   |   |   |   |   |   |   |   |   |   |   |   |   |   |   |   |   pixel467 <= 0.222549
|   |   |   |   |   |   |   |   |   |   |   |   |   |   |   |   |   |   pixel179 <= 0.252941: fear (5.0/1.0)
|   |   |   |   |   |   |   |   |   |   |   |   |   |   |   |   |   |   pixel179 > 0.252941: angry (4.0/1.0)
|   |   |   |   |   |   |   |   |   |   |   |   |   |   |   |   |   pixel467 > 0.222549: happy (6.0)
|   |   |   |   |   |   |   |   |   |   |   |   |   |   |   |   pixel544 > 0.10098: neutral (4.0/1.0)
|   |   |   |   |   |   |   |   |   |   |   |   |   |   |   pixel356 > 0.058824
|   |   |   |   |   |   |   |   |   |   |   |   |   |   |   |   pixel384 <= 0.05
|   |   |   |   |   |   |   |   |   |   |   |   |   |   |   |   |   pixel4 <= 0.07451: happy (6.0/2.0)
|   |   |   |   |   |   |   |   |   |   |   |   |   |   |   |   |   pixel4 > 0.07451
|   |   |   |   |   |   |   |   |   |   |   |   |   |   |   |   |   |   pixel343 <= 0.365686
|   |   |   |   |   |   |   |   |   |   |   |   |   |   |   |   |   |   |   pixel344 <= 0.268627: fear (5.0/1.0)
|   |   |   |   |   |   |   |   |   |   |   |   |   |   |   |   |   |   |   pixel344 > 0.268627: neutral (5.0)
|   |   |   |   |   |   |   |   |   |   |   |   |   |   |   |   |   |   pixel343 > 0.365686: angry (3.0/1.0)
|   |   |   |   |   |   |   |   |   |   |   |   |   |   |   |   pixel384 > 0.05
|   |   |   |   |   |   |   |   |   |   |   |   |   |   |   |   |   pixel468 <= 0.386275
|   |   |   |   |   |   |   |   |   |   |   |   |   |   |   |   |   |   pixel490 <= 0.118627
|   |   |   |   |   |   |   |   |   |   |   |   |   |   |   |   |   |   |   pixel544 <= 0.088235: neutral (5.0/2.0)
|   |   |   |   |   |   |   |   |   |   |   |   |   |   |   |   |   |   |   pixel544 > 0.088235
|   |   |   |   |   |   |   |   |   |   |   |   |   |   |   |   |   |   |   |   pixel307 <= 0.101961: neutral (3.0/1.0)
|   |   |   |   |   |   |   |   |   |   |   |   |   |   |   |   |   |   |   |   pixel307 > 0.101961: sad (13.0)
|   |   |   |   |   |   |   |   |   |   |   |   |   |   |   |   |   |   pixel490 > 0.118627
|   |   |   |   |   |   |   |   |   |   |   |   |   |   |   |   |   |   |   pixel0 <= 0.85098
|   |   |   |   |   |   |   |   |   |   |   |   |   |   |   |   |   |   |   |   pixel492 <= 0.27549
|   |   |   |   |   |   |   |   |   |   |   |   |   |   |   |   |   |   |   |   |   pixel522 <= 0.060784
|   |   |   |   |   |   |   |   |   |   |   |   |   |   |   |   |   |   |   |   |   |   pixel558 <= 0.141176: sad (6.0/1.0)
|   |   |   |   |   |   |   |   |   |   |   |   |   |   |   |   |   |   |   |   |   |   pixel558 > 0.141176: neutral (8.0/2.0)
|   |   |   |   |   |   |   |   |   |   |   |   |   |   |   |   |   |   |   |   |   pixel522 > 0.060784
|   |   |   |   |   |   |   |   |   |   |   |   |   |   |   |   |   |   |   |   |   |   pixel367 <= 0.483333
|   |   |   |   |   |   |   |   |   |   |   |   |   |   |   |   |   |   |   |   |   |   |   pixel467 <= 0.115686
|   |   |   |   |   |   |   |   |   |   |   |   |   |   |   |   |   |   |   |   |   |   |   |   pixel155 <= 0.207843: happy (3.0)
|   |   |   |   |   |   |   |   |   |   |   |   |   |   |   |   |   |   |   |   |   |   |   |   pixel155 > 0.207843: neutral (3.0/1.0)
|   |   |   |   |   |   |   |   |   |   |   |   |   |   |   |   |   |   |   |   |   |   |   pixel467 > 0.115686
|   |   |   |   |   |   |   |   |   |   |   |   |   |   |   |   |   |   |   |   |   |   |   |   pixel351 <= 0.194118
|   |   |   |   |   |   |   |   |   |   |   |   |   |   |   |   |   |   |   |   |   |   |   |   |   pixel356 <= 0.143137
|   |   |   |   |   |   |   |   |   |   |   |   |   |   |   |   |   |   |   |   |   |   |   |   |   |   pixel550 <= 0.110784: happy (3.0/1.0)
|   |   |   |   |   |   |   |   |   |   |   |   |   |   |   |   |   |   |   |   |   |   |   |   |   |   pixel550 > 0.110784
|   |   |   |   |   |   |   |   |   |   |   |   |   |   |   |   |   |   |   |   |   |   |   |   |   |   |   pixel4 <= 0.508824: neutral (3.0)
|   |   |   |   |   |   |   |   |   |   |   |   |   |   |   |   |   |   |   |   |   |   |   |   |   |   |   pixel4 > 0.508824: sad (3.0/1.0)
|   |   |   |   |   |   |   |   |   |   |   |   |   |   |   |   |   |   |   |   |   |   |   |   |   pixel356 > 0.143137
|   |   |   |   |   |   |   |   |   |   |   |   |   |   |   |   |   |   |   |   |   |   |   |   |   |   pixel468 <= 0.195098
|   |   |   |   |   |   |   |   |   |   |   |   |   |   |   |   |   |   |   |   |   |   |   |   |   |   |   pixel292 <= 0.144118: happy (3.0)
|   |   |   |   |   |   |   |   |   |   |   |   |   |   |   |   |   |   |   |   |   |   |   |   |   |   |   pixel292 > 0.144118: angry (13.0/1.0)
|   |   |   |   |   |   |   |   |   |   |   |   |   |   |   |   |   |   |   |   |   |   |   |   |   |   pixel468 > 0.195098
|   |   |   |   |   |   |   |   |   |   |   |   |   |   |   |   |   |   |   |   |   |   |   |   |   |   |   pixel344 <= 0.327451: neutral (8.0/1.0)
|   |   |   |   |   |   |   |   |   |   |   |   |   |   |   |   |   |   |   |   |   |   |   |   |   |   |   pixel344 > 0.327451
|   |   |   |   |   |   |   |   |   |   |   |   |   |   |   |   |   |   |   |   |   |   |   |   |   |   |   |   pixel455 <= 0.291176: angry (5.0/2.0)
|   |   |   |   |   |   |   |   |   |   |   |   |   |   |   |   |   |   |   |   |   |   |   |   |   |   |   |   pixel455 > 0.291176: fear (3.0)
|   |   |   |   |   |   |   |   |   |   |   |   |   |   |   |   |   |   |   |   |   |   |   |   pixel351 > 0.194118
|   |   |   |   |   |   |   |   |   |   |   |   |   |   |   |   |   |   |   |   |   |   |   |   |   pixel203 <= 0.105882: fear (5.0/3.0)
|   |   |   |   |   |   |   |   |   |   |   |   |   |   |   |   |   |   |   |   |   |   |   |   |   pixel203 > 0.105882
|   |   |   |   |   |   |   |   |   |   |   |   |   |   |   |   |   |   |   |   |   |   |   |   |   |   pixel312 <= 0.566667
|   |   |   |   |   |   |   |   |   |   |   |   |   |   |   |   |   |   |   |   |   |   |   |   |   |   |   pixel401 <= 0.269608
|   |   |   |   |   |   |   |   |   |   |   |   |   |   |   |   |   |   |   |   |   |   |   |   |   |   |   |   pixel351 <= 0.365686
|   |   |   |   |   |   |   |   |   |   |   |   |   |   |   |   |   |   |   |   |   |   |   |   |   |   |   |   |   pixel544 <= 0.07451: happy (5.0/2.0)
|   |   |   |   |   |   |   |   |   |   |   |   |   |   |   |   |   |   |   |   |   |   |   |   |   |   |   |   |   pixel544 > 0.07451
|   |   |   |   |   |   |   |   |   |   |   |   |   |   |   |   |   |   |   |   |   |   |   |   |   |   |   |   |   |   pixel490 <= 0.156863
|   |   |   |   |   |   |   |   |   |   |   |   |   |   |   |   |   |   |   |   |   |   |   |   |   |   |   |   |   |   |   pixel344 <= 0.281373: sad (7.0/1.0)
|   |   |   |   |   |   |   |   |   |   |   |   |   |   |   |   |   |   |   |   |   |   |   |   |   |   |   |   |   |   |   pixel344 > 0.281373: neutral (3.0)
|   |   |   |   |   |   |   |   |   |   |   |   |   |   |   |   |   |   |   |   |   |   |   |   |   |   |   |   |   |   pixel490 > 0.156863
|   |   |   |   |   |   |   |   |   |   |   |   |   |   |   |   |   |   |   |   |   |   |   |   |   |   |   |   |   |   |   pixel71 <= 0.348039
|   |   |   |   |   |   |   |   |   |   |   |   |   |   |   |   |   |   |   |   |   |   |   |   |   |   |   |   |   |   |   |   pixel453 <= 0.144118
|   |   |   |   |   |   |   |   |   |   |   |   |   |   |   |   |   |   |   |   |   |   |   |   |   |   |   |   |   |   |   |   |   pixel544 <= 0.143137: neutral (3.0/1.0)
|   |   |   |   |   |   |   |   |   |   |   |   |   |   |   |   |   |   |   |   |   |   |   |   |   |   |   |   |   |   |   |   |   pixel544 > 0.143137: happy (6.0)
|   |   |   |   |   |   |   |   |   |   |   |   |   |   |   |   |   |   |   |   |   |   |   |   |   |   |   |   |   |   |   |   pixel453 > 0.144118
|   |   |   |   |   |   |   |   |   |   |   |   |   |   |   |   |   |   |   |   |   |   |   |   |   |   |   |   |   |   |   |   |   pixel492 <= 0.248039: sad (12.0/1.0)
|   |   |   |   |   |   |   |   |   |   |   |   |   |   |   |   |   |   |   |   |   |   |   |   |   |   |   |   |   |   |   |   |   pixel492 > 0.248039: neutral (3.0/1.0)
|   |   |   |   |   |   |   |   |   |   |   |   |   |   |   |   |   |   |   |   |   |   |   |   |   |   |   |   |   |   |   pixel71 > 0.348039
|   |   |   |   |   |   |   |   |   |   |   |   |   |   |   |   |   |   |   |   |   |   |   |   |   |   |   |   |   |   |   |   pixel294 <= 0.246078: neutral (3.0/1.0)
|   |   |   |   |   |   |   |   |   |   |   |   |   |   |   |   |   |   |   |   |   |   |   |   |   |   |   |   |   |   |   |   pixel294 > 0.246078: happy (10.0)
|   |   |   |   |   |   |   |   |   |   |   |   |   |   |   |   |   |   |   |   |   |   |   |   |   |   |   |   pixel351 > 0.365686
|   |   |   |   |   |   |   |   |   |   |   |   |   |   |   |   |   |   |   |   |   |   |   |   |   |   |   |   |   pixel181 <= 0.265686: sad (5.0)
|   |   |   |   |   |   |   |   |   |   |   |   |   |   |   |   |   |   |   |   |   |   |   |   |   |   |   |   |   pixel181 > 0.265686: angry (4.0/1.0)
|   |   |   |   |   |   |   |   |   |   |   |   |   |   |   |   |   |   |   |   |   |   |   |   |   |   |   pixel401 > 0.269608
|   |   |   |   |   |   |   |   |   |   |   |   |   |   |   |   |   |   |   |   |   |   |   |   |   |   |   |   pixel351 <= 0.290196: angry (5.0)
|   |   |   |   |   |   |   |   |   |   |   |   |   |   |   |   |   |   |   |   |   |   |   |   |   |   |   |   pixel351 > 0.290196: sad (4.0/1.0)
|   |   |   |   |   |   |   |   |   |   |   |   |   |   |   |   |   |   |   |   |   |   |   |   |   |   pixel312 > 0.566667
|   |   |   |   |   |   |   |   |   |   |   |   |   |   |   |   |   |   |   |   |   |   |   |   |   |   |   pixel383 <= 0.765686: happy (12.0/1.0)
|   |   |   |   |   |   |   |   |   |   |   |   |   |   |   |   |   |   |   |   |   |   |   |   |   |   |   pixel383 > 0.765686: angry (4.0)
|   |   |   |   |   |   |   |   |   |   |   |   |   |   |   |   |   |   |   |   |   |   pixel367 > 0.483333
|   |   |   |   |   |   |   |   |   |   |   |   |   |   |   |   |   |   |   |   |   |   |   pixel400 <= 0.159804
|   |   |   |   |   |   |   |   |   |   |   |   |   |   |   |   |   |   |   |   |   |   |   |   pixel481 <= 0.273529: neutral (3.0/1.0)
|   |   |   |   |   |   |   |   |   |   |   |   |   |   |   |   |   |   |   |   |   |   |   |   pixel481 > 0.273529: sad (10.0)
|   |   |   |   |   |   |   |   |   |   |   |   |   |   |   |   |   |   |   |   |   |   |   pixel400 > 0.159804: angry (3.0/2.0)
|   |   |   |   |   |   |   |   |   |   |   |   |   |   |   |   |   |   |   |   pixel492 > 0.27549
|   |   |   |   |   |   |   |   |   |   |   |   |   |   |   |   |   |   |   |   |   pixel320 <= 0.304902: sad (4.0)
|   |   |   |   |   |   |   |   |   |   |   |   |   |   |   |   |   |   |   |   |   pixel320 > 0.304902: fear (5.0/3.0)
|   |   |   |   |   |   |   |   |   |   |   |   |   |   |   |   |   |   |   pixel0 > 0.85098
|   |   |   |   |   |   |   |   |   |   |   |   |   |   |   |   |   |   |   |   pixel503 <= 0.222549: angry (4.0)
|   |   |   |   |   |   |   |   |   |   |   |   |   |   |   |   |   |   |   |   pixel503 > 0.222549: happy (8.0)
|   |   |   |   |   |   |   |   |   |   |   |   |   |   |   |   |   pixel468 > 0.386275
|   |   |   |   |   |   |   |   |   |   |   |   |   |   |   |   |   |   pixel131 <= 0.196078: angry (4.0/2.0)
|   |   |   |   |   |   |   |   |   |   |   |   |   |   |   |   |   |   pixel131 > 0.196078
|   |   |   |   |   |   |   |   |   |   |   |   |   |   |   |   |   |   |   pixel320 <= 0.482353: happy (10.0/2.0)
|   |   |   |   |   |   |   |   |   |   |   |   |   |   |   |   |   |   |   pixel320 > 0.482353
|   |   |   |   |   |   |   |   |   |   |   |   |   |   |   |   |   |   |   |   pixel455 <= 0.682353: angry (8.0)
|   |   |   |   |   |   |   |   |   |   |   |   |   |   |   |   |   |   |   |   pixel455 > 0.682353: happy (3.0/1.0)
|   |   |   |   |   |   |   |   |   pixel344 > 0.688235: sad (7.0/3.0)
|   |   |   |   |   |   |   |   pixel400 > 0.185294
|   |   |   |   |   |   |   |   |   pixel566 <= 0.036275
|   |   |   |   |   |   |   |   |   |   pixel292 <= 0.729412
|   |   |   |   |   |   |   |   |   |   |   pixel244 <= 0.058824: happy (6.0/2.0)
|   |   |   |   |   |   |   |   |   |   |   pixel244 > 0.058824
|   |   |   |   |   |   |   |   |   |   |   |   pixel356 <= 0.227451
|   |   |   |   |   |   |   |   |   |   |   |   |   pixel504 <= 0.096078: sad (10.0)
|   |   |   |   |   |   |   |   |   |   |   |   |   pixel504 > 0.096078
|   |   |   |   |   |   |   |   |   |   |   |   |   |   pixel522 <= 0.036275: angry (4.0)
|   |   |   |   |   |   |   |   |   |   |   |   |   |   pixel522 > 0.036275: sad (4.0)
|   |   |   |   |   |   |   |   |   |   |   |   pixel356 > 0.227451
|   |   |   |   |   |   |   |   |   |   |   |   |   pixel515 <= 0.008824: angry (3.0/1.0)
|   |   |   |   |   |   |   |   |   |   |   |   |   pixel515 > 0.008824
|   |   |   |   |   |   |   |   |   |   |   |   |   |   pixel37 <= 0.057843: suprise (3.0/1.0)
|   |   |   |   |   |   |   |   |   |   |   |   |   |   pixel37 > 0.057843
|   |   |   |   |   |   |   |   |   |   |   |   |   |   |   pixel312 <= 0.211765: fear (9.0)
|   |   |   |   |   |   |   |   |   |   |   |   |   |   |   pixel312 > 0.211765
|   |   |   |   |   |   |   |   |   |   |   |   |   |   |   |   pixel490 <= 0.295098
|   |   |   |   |   |   |   |   |   |   |   |   |   |   |   |   |   pixel351 <= 0.35098: fear (4.0/1.0)
|   |   |   |   |   |   |   |   |   |   |   |   |   |   |   |   |   pixel351 > 0.35098: sad (6.0)
|   |   |   |   |   |   |   |   |   |   |   |   |   |   |   |   pixel490 > 0.295098: angry (3.0/1.0)
|   |   |   |   |   |   |   |   |   |   pixel292 > 0.729412: happy (3.0/1.0)
|   |   |   |   |   |   |   |   |   pixel566 > 0.036275
|   |   |   |   |   |   |   |   |   |   pixel444 <= 0.070588
|   |   |   |   |   |   |   |   |   |   |   pixel491 <= 0.201961
|   |   |   |   |   |   |   |   |   |   |   |   pixel71 <= 0.25
|   |   |   |   |   |   |   |   |   |   |   |   |   pixel1 <= 0.010784: angry (3.0)
|   |   |   |   |   |   |   |   |   |   |   |   |   pixel1 > 0.010784: sad (7.0/1.0)
|   |   |   |   |   |   |   |   |   |   |   |   pixel71 > 0.25
|   |   |   |   |   |   |   |   |   |   |   |   |   pixel515 <= 0.104902: fear (4.0/1.0)
|   |   |   |   |   |   |   |   |   |   |   |   |   pixel515 > 0.104902: angry (5.0)
|   |   |   |   |   |   |   |   |   |   |   pixel491 > 0.201961: suprise (6.0/2.0)
|   |   |   |   |   |   |   |   |   |   pixel444 > 0.070588
|   |   |   |   |   |   |   |   |   |   |   pixel468 <= 0.473529
|   |   |   |   |   |   |   |   |   |   |   |   pixel401 <= 0.162745
|   |   |   |   |   |   |   |   |   |   |   |   |   pixel551 <= 0.729412
|   |   |   |   |   |   |   |   |   |   |   |   |   |   pixel376 <= 0.32451
|   |   |   |   |   |   |   |   |   |   |   |   |   |   |   pixel119 <= 0.285294
|   |   |   |   |   |   |   |   |   |   |   |   |   |   |   |   pixel391 <= 0.241176
|   |   |   |   |   |   |   |   |   |   |   |   |   |   |   |   |   pixel4 <= 0.137255: angry (4.0/2.0)
|   |   |   |   |   |   |   |   |   |   |   |   |   |   |   |   |   pixel4 > 0.137255: happy (3.0)
|   |   |   |   |   |   |   |   |   |   |   |   |   |   |   |   pixel391 > 0.241176
|   |   |   |   |   |   |   |   |   |   |   |   |   |   |   |   |   pixel23 <= 0.216667
|   |   |   |   |   |   |   |   |   |   |   |   |   |   |   |   |   |   pixel0 <= 0.173529: angry (3.0/1.0)
|   |   |   |   |   |   |   |   |   |   |   |   |   |   |   |   |   |   pixel0 > 0.173529: sad (3.0)
|   |   |   |   |   |   |   |   |   |   |   |   |   |   |   |   |   pixel23 > 0.216667: angry (6.0)
|   |   |   |   |   |   |   |   |   |   |   |   |   |   |   pixel119 > 0.285294
|   |   |   |   |   |   |   |   |   |   |   |   |   |   |   |   pixel252 <= 0.512745
|   |   |   |   |   |   |   |   |   |   |   |   |   |   |   |   |   pixel416 <= 0.351961: sad (7.0/1.0)
|   |   |   |   |   |   |   |   |   |   |   |   |   |   |   |   |   pixel416 > 0.351961: happy (3.0)
|   |   |   |   |   |   |   |   |   |   |   |   |   |   |   |   pixel252 > 0.512745: fear (6.0/1.0)
|   |   |   |   |   |   |   |   |   |   |   |   |   |   pixel376 > 0.32451: sad (14.0/1.0)
|   |   |   |   |   |   |   |   |   |   |   |   |   pixel551 > 0.729412: happy (4.0/1.0)
|   |   |   |   |   |   |   |   |   |   |   |   pixel401 > 0.162745
|   |   |   |   |   |   |   |   |   |   |   |   |   pixel220 <= 0.503922
|   |   |   |   |   |   |   |   |   |   |   |   |   |   pixel227 <= 0.610784
|   |   |   |   |   |   |   |   |   |   |   |   |   |   |   pixel569 <= 0.285294
|   |   |   |   |   |   |   |   |   |   |   |   |   |   |   |   pixel131 <= 0.252941
|   |   |   |   |   |   |   |   |   |   |   |   |   |   |   |   |   pixel192 <= 0: fear (3.0)
|   |   |   |   |   |   |   |   |   |   |   |   |   |   |   |   |   pixel192 > 0
|   |   |   |   |   |   |   |   |   |   |   |   |   |   |   |   |   |   pixel252 <= 0.212745
|   |   |   |   |   |   |   |   |   |   |   |   |   |   |   |   |   |   |   pixel312 <= 0.352941
|   |   |   |   |   |   |   |   |   |   |   |   |   |   |   |   |   |   |   |   pixel515 <= 0.25098: sad (16.0/1.0)
|   |   |   |   |   |   |   |   |   |   |   |   |   |   |   |   |   |   |   |   pixel515 > 0.25098: suprise (3.0)
|   |   |   |   |   |   |   |   |   |   |   |   |   |   |   |   |   |   |   pixel312 > 0.352941
|   |   |   |   |   |   |   |   |   |   |   |   |   |   |   |   |   |   |   |   pixel200 <= 0.153922: happy (4.0)
|   |   |   |   |   |   |   |   |   |   |   |   |   |   |   |   |   |   |   |   pixel200 > 0.153922: fear (4.0/2.0)
|   |   |   |   |   |   |   |   |   |   |   |   |   |   |   |   |   |   pixel252 > 0.212745
|   |   |   |   |   |   |   |   |   |   |   |   |   |   |   |   |   |   |   pixel535 <= 0.471569
|   |   |   |   |   |   |   |   |   |   |   |   |   |   |   |   |   |   |   |   pixel22 <= 0.40098
|   |   |   |   |   |   |   |   |   |   |   |   |   |   |   |   |   |   |   |   |   pixel48 <= 0.035294
|   |   |   |   |   |   |   |   |   |   |   |   |   |   |   |   |   |   |   |   |   |   pixel550 <= 0.180392: neutral (5.0/3.0)
|   |   |   |   |   |   |   |   |   |   |   |   |   |   |   |   |   |   |   |   |   |   pixel550 > 0.180392: sad (4.0)
|   |   |   |   |   |   |   |   |   |   |   |   |   |   |   |   |   |   |   |   |   pixel48 > 0.035294
|   |   |   |   |   |   |   |   |   |   |   |   |   |   |   |   |   |   |   |   |   |   pixel23 <= 0.023529
|   |   |   |   |   |   |   |   |   |   |   |   |   |   |   |   |   |   |   |   |   |   |   pixel23 <= 0.009804: neutral (4.0/1.0)
|   |   |   |   |   |   |   |   |   |   |   |   |   |   |   |   |   |   |   |   |   |   |   pixel23 > 0.009804: happy (4.0)
|   |   |   |   |   |   |   |   |   |   |   |   |   |   |   |   |   |   |   |   |   |   pixel23 > 0.023529
|   |   |   |   |   |   |   |   |   |   |   |   |   |   |   |   |   |   |   |   |   |   |   pixel343 <= 0.133333: angry (5.0/2.0)
|   |   |   |   |   |   |   |   |   |   |   |   |   |   |   |   |   |   |   |   |   |   |   pixel343 > 0.133333
|   |   |   |   |   |   |   |   |   |   |   |   |   |   |   |   |   |   |   |   |   |   |   |   pixel547 <= 0.257843
|   |   |   |   |   |   |   |   |   |   |   |   |   |   |   |   |   |   |   |   |   |   |   |   |   pixel204 <= 0.251961
|   |   |   |   |   |   |   |   |   |   |   |   |   |   |   |   |   |   |   |   |   |   |   |   |   |   pixel307 <= 0.22549: sad (5.0)
|   |   |   |   |   |   |   |   |   |   |   |   |   |   |   |   |   |   |   |   |   |   |   |   |   |   pixel307 > 0.22549
|   |   |   |   |   |   |   |   |   |   |   |   |   |   |   |   |   |   |   |   |   |   |   |   |   |   |   pixel4 <= 0.263725
|   |   |   |   |   |   |   |   |   |   |   |   |   |   |   |   |   |   |   |   |   |   |   |   |   |   |   |   pixel131 <= 0.215686: neutral (8.0)
|   |   |   |   |   |   |   |   |   |   |   |   |   |   |   |   |   |   |   |   |   |   |   |   |   |   |   |   pixel131 > 0.215686: angry (4.0/2.0)
|   |   |   |   |   |   |   |   |   |   |   |   |   |   |   |   |   |   |   |   |   |   |   |   |   |   |   pixel4 > 0.263725: sad (4.0/2.0)
|   |   |   |   |   |   |   |   |   |   |   |   |   |   |   |   |   |   |   |   |   |   |   |   |   pixel204 > 0.251961
|   |   |   |   |   |   |   |   |   |   |   |   |   |   |   |   |   |   |   |   |   |   |   |   |   |   pixel492 <= 0.238235: sad (12.0/1.0)
|   |   |   |   |   |   |   |   |   |   |   |   |   |   |   |   |   |   |   |   |   |   |   |   |   |   pixel492 > 0.238235: angry (6.0/1.0)
|   |   |   |   |   |   |   |   |   |   |   |   |   |   |   |   |   |   |   |   |   |   |   |   pixel547 > 0.257843: angry (8.0/1.0)
|   |   |   |   |   |   |   |   |   |   |   |   |   |   |   |   |   |   |   |   pixel22 > 0.40098
|   |   |   |   |   |   |   |   |   |   |   |   |   |   |   |   |   |   |   |   |   pixel343 <= 0.281373
|   |   |   |   |   |   |   |   |   |   |   |   |   |   |   |   |   |   |   |   |   |   pixel119 <= 0.55098: happy (5.0)
|   |   |   |   |   |   |   |   |   |   |   |   |   |   |   |   |   |   |   |   |   |   pixel119 > 0.55098: neutral (3.0/1.0)
|   |   |   |   |   |   |   |   |   |   |   |   |   |   |   |   |   |   |   |   |   pixel343 > 0.281373
|   |   |   |   |   |   |   |   |   |   |   |   |   |   |   |   |   |   |   |   |   |   pixel432 <= 0.547059: sad (4.0)
|   |   |   |   |   |   |   |   |   |   |   |   |   |   |   |   |   |   |   |   |   |   pixel432 > 0.547059: neutral (4.0/2.0)
|   |   |   |   |   |   |   |   |   |   |   |   |   |   |   |   |   |   |   pixel535 > 0.471569
|   |   |   |   |   |   |   |   |   |   |   |   |   |   |   |   |   |   |   |   pixel131 <= 0.183333: happy (3.0/2.0)
|   |   |   |   |   |   |   |   |   |   |   |   |   |   |   |   |   |   |   |   pixel131 > 0.183333: fear (3.0)
|   |   |   |   |   |   |   |   |   |   |   |   |   |   |   |   pixel131 > 0.252941
|   |   |   |   |   |   |   |   |   |   |   |   |   |   |   |   |   pixel432 <= 0.318627
|   |   |   |   |   |   |   |   |   |   |   |   |   |   |   |   |   |   pixel37 <= 0.082353: neutral (15.0/1.0)
|   |   |   |   |   |   |   |   |   |   |   |   |   |   |   |   |   |   pixel37 > 0.082353
|   |   |   |   |   |   |   |   |   |   |   |   |   |   |   |   |   |   |   pixel344 <= 0.614706
|   |   |   |   |   |   |   |   |   |   |   |   |   |   |   |   |   |   |   |   pixel244 <= 0.467647
|   |   |   |   |   |   |   |   |   |   |   |   |   |   |   |   |   |   |   |   |   pixel490 <= 0.357843
|   |   |   |   |   |   |   |   |   |   |   |   |   |   |   |   |   |   |   |   |   |   pixel515 <= 0.313725
|   |   |   |   |   |   |   |   |   |   |   |   |   |   |   |   |   |   |   |   |   |   |   pixel0 <= 0.573529
|   |   |   |   |   |   |   |   |   |   |   |   |   |   |   |   |   |   |   |   |   |   |   |   pixel4 <= 0.57549
|   |   |   |   |   |   |   |   |   |   |   |   |   |   |   |   |   |   |   |   |   |   |   |   |   pixel469 <= 0.407843
|   |   |   |   |   |   |   |   |   |   |   |   |   |   |   |   |   |   |   |   |   |   |   |   |   |   pixel192 <= 0.417647
|   |   |   |   |   |   |   |   |   |   |   |   |   |   |   |   |   |   |   |   |   |   |   |   |   |   |   pixel547 <= 0.37549
|   |   |   |   |   |   |   |   |   |   |   |   |   |   |   |   |   |   |   |   |   |   |   |   |   |   |   |   pixel4 <= 0.219608
|   |   |   |   |   |   |   |   |   |   |   |   |   |   |   |   |   |   |   |   |   |   |   |   |   |   |   |   |   pixel244 <= 0.27549
|   |   |   |   |   |   |   |   |   |   |   |   |   |   |   |   |   |   |   |   |   |   |   |   |   |   |   |   |   |   pixel567 <= 0.122549
|   |   |   |   |   |   |   |   |   |   |   |   |   |   |   |   |   |   |   |   |   |   |   |   |   |   |   |   |   |   |   pixel4 <= 0.055882
|   |   |   |   |   |   |   |   |   |   |   |   |   |   |   |   |   |   |   |   |   |   |   |   |   |   |   |   |   |   |   |   pixel173 <= 0.090196: neutral (5.0)
|   |   |   |   |   |   |   |   |   |   |   |   |   |   |   |   |   |   |   |   |   |   |   |   |   |   |   |   |   |   |   |   pixel173 > 0.090196: happy (3.0/1.0)
|   |   |   |   |   |   |   |   |   |   |   |   |   |   |   |   |   |   |   |   |   |   |   |   |   |   |   |   |   |   |   pixel4 > 0.055882: sad (6.0/1.0)
|   |   |   |   |   |   |   |   |   |   |   |   |   |   |   |   |   |   |   |   |   |   |   |   |   |   |   |   |   |   pixel567 > 0.122549
|   |   |   |   |   |   |   |   |   |   |   |   |   |   |   |   |   |   |   |   |   |   |   |   |   |   |   |   |   |   |   pixel47 <= 0.452941
|   |   |   |   |   |   |   |   |   |   |   |   |   |   |   |   |   |   |   |   |   |   |   |   |   |   |   |   |   |   |   |   pixel228 <= 0.241176
|   |   |   |   |   |   |   |   |   |   |   |   |   |   |   |   |   |   |   |   |   |   |   |   |   |   |   |   |   |   |   |   |   pixel23 <= 0.102941: sad (6.0)
|   |   |   |   |   |   |   |   |   |   |   |   |   |   |   |   |   |   |   |   |   |   |   |   |   |   |   |   |   |   |   |   |   pixel23 > 0.102941: suprise (5.0)
|   |   |   |   |   |   |   |   |   |   |   |   |   |   |   |   |   |   |   |   |   |   |   |   |   |   |   |   |   |   |   |   pixel228 > 0.241176
|   |   |   |   |   |   |   |   |   |   |   |   |   |   |   |   |   |   |   |   |   |   |   |   |   |   |   |   |   |   |   |   |   pixel563 <= 0.295098
|   |   |   |   |   |   |   |   |   |   |   |   |   |   |   |   |   |   |   |   |   |   |   |   |   |   |   |   |   |   |   |   |   |   pixel47 <= 0.045098: fear (4.0/1.0)
|   |   |   |   |   |   |   |   |   |   |   |   |   |   |   |   |   |   |   |   |   |   |   |   |   |   |   |   |   |   |   |   |   |   pixel47 > 0.045098
|   |   |   |   |   |   |   |   |   |   |   |   |   |   |   |   |   |   |   |   |   |   |   |   |   |   |   |   |   |   |   |   |   |   |   pixel481 <= 0.177451
|   |   |   |   |   |   |   |   |   |   |   |   |   |   |   |   |   |   |   |   |   |   |   |   |   |   |   |   |   |   |   |   |   |   |   |   pixel351 <= 0.356863: sad (15.0)
|   |   |   |   |   |   |   |   |   |   |   |   |   |   |   |   |   |   |   |   |   |   |   |   |   |   |   |   |   |   |   |   |   |   |   |   pixel351 > 0.356863
|   |   |   |   |   |   |   |   |   |   |   |   |   |   |   |   |   |   |   |   |   |   |   |   |   |   |   |   |   |   |   |   |   |   |   |   |   pixel466 <= 0.256863: angry (4.0/2.0)
|   |   |   |   |   |   |   |   |   |   |   |   |   |   |   |   |   |   |   |   |   |   |   |   |   |   |   |   |   |   |   |   |   |   |   |   |   pixel466 > 0.256863: sad (4.0)
|   |   |   |   |   |   |   |   |   |   |   |   |   |   |   |   |   |   |   |   |   |   |   |   |   |   |   |   |   |   |   |   |   |   |   pixel481 > 0.177451: neutral (4.0/2.0)
|   |   |   |   |   |   |   |   |   |   |   |   |   |   |   |   |   |   |   |   |   |   |   |   |   |   |   |   |   |   |   |   |   pixel563 > 0.295098: fear (4.0/2.0)
|   |   |   |   |   |   |   |   |   |   |   |   |   |   |   |   |   |   |   |   |   |   |   |   |   |   |   |   |   |   |   pixel47 > 0.452941: angry (4.0/1.0)
|   |   |   |   |   |   |   |   |   |   |   |   |   |   |   |   |   |   |   |   |   |   |   |   |   |   |   |   |   pixel244 > 0.27549
|   |   |   |   |   |   |   |   |   |   |   |   |   |   |   |   |   |   |   |   |   |   |   |   |   |   |   |   |   |   pixel424 <= 0.277451: fear (6.0/2.0)
|   |   |   |   |   |   |   |   |   |   |   |   |   |   |   |   |   |   |   |   |   |   |   |   |   |   |   |   |   |   pixel424 > 0.277451
|   |   |   |   |   |   |   |   |   |   |   |   |   |   |   |   |   |   |   |   |   |   |   |   |   |   |   |   |   |   |   pixel203 <= 0.37549
|   |   |   |   |   |   |   |   |   |   |   |   |   |   |   |   |   |   |   |   |   |   |   |   |   |   |   |   |   |   |   |   pixel47 <= 0.235294: neutral (4.0)
|   |   |   |   |   |   |   |   |   |   |   |   |   |   |   |   |   |   |   |   |   |   |   |   |   |   |   |   |   |   |   |   pixel47 > 0.235294: happy (4.0/2.0)
|   |   |   |   |   |   |   |   |   |   |   |   |   |   |   |   |   |   |   |   |   |   |   |   |   |   |   |   |   |   |   pixel203 > 0.37549: angry (3.0/1.0)
|   |   |   |   |   |   |   |   |   |   |   |   |   |   |   |   |   |   |   |   |   |   |   |   |   |   |   |   pixel4 > 0.219608
|   |   |   |   |   |   |   |   |   |   |   |   |   |   |   |   |   |   |   |   |   |   |   |   |   |   |   |   |   pixel22 <= 0.580392
|   |   |   |   |   |   |   |   |   |   |   |   |   |   |   |   |   |   |   |   |   |   |   |   |   |   |   |   |   |   pixel204 <= 0.45098
|   |   |   |   |   |   |   |   |   |   |   |   |   |   |   |   |   |   |   |   |   |   |   |   |   |   |   |   |   |   |   pixel376 <= 0.310784
|   |   |   |   |   |   |   |   |   |   |   |   |   |   |   |   |   |   |   |   |   |   |   |   |   |   |   |   |   |   |   |   pixel400 <= 0.277451
|   |   |   |   |   |   |   |   |   |   |   |   |   |   |   |   |   |   |   |   |   |   |   |   |   |   |   |   |   |   |   |   |   pixel317 <= 0.223529: neutral (3.0/1.0)
|   |   |   |   |   |   |   |   |   |   |   |   |   |   |   |   |   |   |   |   |   |   |   |   |   |   |   |   |   |   |   |   |   pixel317 > 0.223529: sad (7.0)
|   |   |   |   |   |   |   |   |   |   |   |   |   |   |   |   |   |   |   |   |   |   |   |   |   |   |   |   |   |   |   |   pixel400 > 0.277451: happy (6.0/2.0)
|   |   |   |   |   |   |   |   |   |   |   |   |   |   |   |   |   |   |   |   |   |   |   |   |   |   |   |   |   |   |   pixel376 > 0.310784
|   |   |   |   |   |   |   |   |   |   |   |   |   |   |   |   |   |   |   |   |   |   |   |   |   |   |   |   |   |   |   |   pixel22 <= 0.188235: sad (3.0/1.0)
|   |   |   |   |   |   |   |   |   |   |   |   |   |   |   |   |   |   |   |   |   |   |   |   |   |   |   |   |   |   |   |   pixel22 > 0.188235: angry (8.0)
|   |   |   |   |   |   |   |   |   |   |   |   |   |   |   |   |   |   |   |   |   |   |   |   |   |   |   |   |   |   pixel204 > 0.45098
|   |   |   |   |   |   |   |   |   |   |   |   |   |   |   |   |   |   |   |   |   |   |   |   |   |   |   |   |   |   |   pixel4 <= 0.407843: happy (4.0)
|   |   |   |   |   |   |   |   |   |   |   |   |   |   |   |   |   |   |   |   |   |   |   |   |   |   |   |   |   |   |   pixel4 > 0.407843: neutral (4.0/1.0)
|   |   |   |   |   |   |   |   |   |   |   |   |   |   |   |   |   |   |   |   |   |   |   |   |   |   |   |   |   pixel22 > 0.580392: sad (8.0)
|   |   |   |   |   |   |   |   |   |   |   |   |   |   |   |   |   |   |   |   |   |   |   |   |   |   |   pixel547 > 0.37549
|   |   |   |   |   |   |   |   |   |   |   |   |   |   |   |   |   |   |   |   |   |   |   |   |   |   |   |   pixel491 <= 0.211765: neutral (4.0)
|   |   |   |   |   |   |   |   |   |   |   |   |   |   |   |   |   |   |   |   |   |   |   |   |   |   |   |   pixel491 > 0.211765: happy (4.0)
|   |   |   |   |   |   |   |   |   |   |   |   |   |   |   |   |   |   |   |   |   |   |   |   |   |   pixel192 > 0.417647
|   |   |   |   |   |   |   |   |   |   |   |   |   |   |   |   |   |   |   |   |   |   |   |   |   |   |   pixel22 <= 0.336275: fear (3.0/1.0)
|   |   |   |   |   |   |   |   |   |   |   |   |   |   |   |   |   |   |   |   |   |   |   |   |   |   |   pixel22 > 0.336275: sad (10.0)
|   |   |   |   |   |   |   |   |   |   |   |   |   |   |   |   |   |   |   |   |   |   |   |   |   pixel469 > 0.407843: neutral (7.0/2.0)
|   |   |   |   |   |   |   |   |   |   |   |   |   |   |   |   |   |   |   |   |   |   |   |   pixel4 > 0.57549: fear (4.0)
|   |   |   |   |   |   |   |   |   |   |   |   |   |   |   |   |   |   |   |   |   |   |   pixel0 > 0.573529
|   |   |   |   |   |   |   |   |   |   |   |   |   |   |   |   |   |   |   |   |   |   |   |   pixel227 <= 0.297059: neutral (13.0/1.0)
|   |   |   |   |   |   |   |   |   |   |   |   |   |   |   |   |   |   |   |   |   |   |   |   pixel227 > 0.297059
|   |   |   |   |   |   |   |   |   |   |   |   |   |   |   |   |   |   |   |   |   |   |   |   |   pixel401 <= 0.287255: happy (6.0/1.0)
|   |   |   |   |   |   |   |   |   |   |   |   |   |   |   |   |   |   |   |   |   |   |   |   |   pixel401 > 0.287255: sad (4.0)
|   |   |   |   |   |   |   |   |   |   |   |   |   |   |   |   |   |   |   |   |   |   pixel515 > 0.313725
|   |   |   |   |   |   |   |   |   |   |   |   |   |   |   |   |   |   |   |   |   |   |   pixel37 <= 0.235294: happy (4.0/1.0)
|   |   |   |   |   |   |   |   |   |   |   |   |   |   |   |   |   |   |   |   |   |   |   pixel37 > 0.235294
|   |   |   |   |   |   |   |   |   |   |   |   |   |   |   |   |   |   |   |   |   |   |   |   pixel466 <= 0.177451: sad (5.0)
|   |   |   |   |   |   |   |   |   |   |   |   |   |   |   |   |   |   |   |   |   |   |   |   pixel466 > 0.177451
|   |   |   |   |   |   |   |   |   |   |   |   |   |   |   |   |   |   |   |   |   |   |   |   |   pixel37 <= 0.670588
|   |   |   |   |   |   |   |   |   |   |   |   |   |   |   |   |   |   |   |   |   |   |   |   |   |   pixel200 <= 0.110784: sad (4.0/1.0)
|   |   |   |   |   |   |   |   |   |   |   |   |   |   |   |   |   |   |   |   |   |   |   |   |   |   pixel200 > 0.110784
|   |   |   |   |   |   |   |   |   |   |   |   |   |   |   |   |   |   |   |   |   |   |   |   |   |   |   pixel4 <= 0.430392: neutral (27.0/1.0)
|   |   |   |   |   |   |   |   |   |   |   |   |   |   |   |   |   |   |   |   |   |   |   |   |   |   |   pixel4 > 0.430392: sad (3.0/1.0)
|   |   |   |   |   |   |   |   |   |   |   |   |   |   |   |   |   |   |   |   |   |   |   |   |   pixel37 > 0.670588: sad (3.0/1.0)
|   |   |   |   |   |   |   |   |   |   |   |   |   |   |   |   |   |   |   |   |   pixel490 > 0.357843
|   |   |   |   |   |   |   |   |   |   |   |   |   |   |   |   |   |   |   |   |   |   pixel179 <= 0.323529: disgust (3.0/1.0)
|   |   |   |   |   |   |   |   |   |   |   |   |   |   |   |   |   |   |   |   |   |   pixel179 > 0.323529: neutral (4.0/1.0)
|   |   |   |   |   |   |   |   |   |   |   |   |   |   |   |   |   |   |   |   pixel244 > 0.467647
|   |   |   |   |   |   |   |   |   |   |   |   |   |   |   |   |   |   |   |   |   pixel312 <= 0.467647
|   |   |   |   |   |   |   |   |   |   |   |   |   |   |   |   |   |   |   |   |   |   pixel131 <= 0.369608: angry (3.0/1.0)
|   |   |   |   |   |   |   |   |   |   |   |   |   |   |   |   |   |   |   |   |   |   pixel131 > 0.369608
|   |   |   |   |   |   |   |   |   |   |   |   |   |   |   |   |   |   |   |   |   |   |   pixel4 <= 0.15098: angry (3.0/1.0)
|   |   |   |   |   |   |   |   |   |   |   |   |   |   |   |   |   |   |   |   |   |   |   pixel4 > 0.15098: sad (9.0)
|   |   |   |   |   |   |   |   |   |   |   |   |   |   |   |   |   |   |   |   |   pixel312 > 0.467647: fear (5.0/2.0)
|   |   |   |   |   |   |   |   |   |   |   |   |   |   |   |   |   |   |   pixel344 > 0.614706: sad (10.0)
|   |   |   |   |   |   |   |   |   |   |   |   |   |   |   |   |   pixel432 > 0.318627
|   |   |   |   |   |   |   |   |   |   |   |   |   |   |   |   |   |   pixel490 <= 0.459804
|   |   |   |   |   |   |   |   |   |   |   |   |   |   |   |   |   |   |   pixel351 <= 0.610784
|   |   |   |   |   |   |   |   |   |   |   |   |   |   |   |   |   |   |   |   pixel481 <= 0.915686
|   |   |   |   |   |   |   |   |   |   |   |   |   |   |   |   |   |   |   |   |   pixel307 <= 0.559804
|   |   |   |   |   |   |   |   |   |   |   |   |   |   |   |   |   |   |   |   |   |   pixel455 <= 0.152941
|   |   |   |   |   |   |   |   |   |   |   |   |   |   |   |   |   |   |   |   |   |   |   pixel493 <= 0.255882
|   |   |   |   |   |   |   |   |   |   |   |   |   |   |   |   |   |   |   |   |   |   |   |   pixel467 <= 0.167647: happy (3.0/1.0)
|   |   |   |   |   |   |   |   |   |   |   |   |   |   |   |   |   |   |   |   |   |   |   |   pixel467 > 0.167647
|   |   |   |   |   |   |   |   |   |   |   |   |   |   |   |   |   |   |   |   |   |   |   |   |   pixel312 <= 0.62549
|   |   |   |   |   |   |   |   |   |   |   |   |   |   |   |   |   |   |   |   |   |   |   |   |   |   pixel244 <= 0.383333
|   |   |   |   |   |   |   |   |   |   |   |   |   |   |   |   |   |   |   |   |   |   |   |   |   |   |   pixel119 <= 0.110784: neutral (3.0/1.0)
|   |   |   |   |   |   |   |   |   |   |   |   |   |   |   |   |   |   |   |   |   |   |   |   |   |   |   pixel119 > 0.110784: sad (3.0)
|   |   |   |   |   |   |   |   |   |   |   |   |   |   |   |   |   |   |   |   |   |   |   |   |   |   pixel244 > 0.383333: neutral (8.0)
|   |   |   |   |   |   |   |   |   |   |   |   |   |   |   |   |   |   |   |   |   |   |   |   |   pixel312 > 0.62549: sad (5.0)
|   |   |   |   |   |   |   |   |   |   |   |   |   |   |   |   |   |   |   |   |   |   |   pixel493 > 0.255882
|   |   |   |   |   |   |   |   |   |   |   |   |   |   |   |   |   |   |   |   |   |   |   |   pixel131 <= 0.484314: suprise (3.0/1.0)
|   |   |   |   |   |   |   |   |   |   |   |   |   |   |   |   |   |   |   |   |   |   |   |   pixel131 > 0.484314: angry (3.0/2.0)
|   |   |   |   |   |   |   |   |   |   |   |   |   |   |   |   |   |   |   |   |   |   pixel455 > 0.152941
|   |   |   |   |   |   |   |   |   |   |   |   |   |   |   |   |   |   |   |   |   |   |   pixel391 <= 0.180392
|   |   |   |   |   |   |   |   |   |   |   |   |   |   |   |   |   |   |   |   |   |   |   |   pixel383 <= 0.393137
|   |   |   |   |   |   |   |   |   |   |   |   |   |   |   |   |   |   |   |   |   |   |   |   |   pixel24 <= 0.385294: happy (3.0)
|   |   |   |   |   |   |   |   |   |   |   |   |   |   |   |   |   |   |   |   |   |   |   |   |   pixel24 > 0.385294: angry (4.0/1.0)
|   |   |   |   |   |   |   |   |   |   |   |   |   |   |   |   |   |   |   |   |   |   |   |   pixel383 > 0.393137: neutral (6.0/2.0)
|   |   |   |   |   |   |   |   |   |   |   |   |   |   |   |   |   |   |   |   |   |   |   pixel391 > 0.180392
|   |   |   |   |   |   |   |   |   |   |   |   |   |   |   |   |   |   |   |   |   |   |   |   pixel344 <= 0.60098
|   |   |   |   |   |   |   |   |   |   |   |   |   |   |   |   |   |   |   |   |   |   |   |   |   pixel515 <= 0.307843
|   |   |   |   |   |   |   |   |   |   |   |   |   |   |   |   |   |   |   |   |   |   |   |   |   |   pixel292 <= 0.338235
|   |   |   |   |   |   |   |   |   |   |   |   |   |   |   |   |   |   |   |   |   |   |   |   |   |   |   pixel554 <= 0.443137: neutral (29.0)
|   |   |   |   |   |   |   |   |   |   |   |   |   |   |   |   |   |   |   |   |   |   |   |   |   |   |   pixel554 > 0.443137
|   |   |   |   |   |   |   |   |   |   |   |   |   |   |   |   |   |   |   |   |   |   |   |   |   |   |   |   pixel22 <= 0.568627
|   |   |   |   |   |   |   |   |   |   |   |   |   |   |   |   |   |   |   |   |   |   |   |   |   |   |   |   |   pixel312 <= 0.563725: neutral (11.0/1.0)
|   |   |   |   |   |   |   |   |   |   |   |   |   |   |   |   |   |   |   |   |   |   |   |   |   |   |   |   |   pixel312 > 0.563725: disgust (3.0/1.0)
|   |   |   |   |   |   |   |   |   |   |   |   |   |   |   |   |   |   |   |   |   |   |   |   |   |   |   |   pixel22 > 0.568627: angry (4.0)
|   |   |   |   |   |   |   |   |   |   |   |   |   |   |   |   |   |   |   |   |   |   |   |   |   |   pixel292 > 0.338235
|   |   |   |   |   |   |   |   |   |   |   |   |   |   |   |   |   |   |   |   |   |   |   |   |   |   |   pixel343 <= 0.233333: happy (3.0/1.0)
|   |   |   |   |   |   |   |   |   |   |   |   |   |   |   |   |   |   |   |   |   |   |   |   |   |   |   pixel343 > 0.233333
|   |   |   |   |   |   |   |   |   |   |   |   |   |   |   |   |   |   |   |   |   |   |   |   |   |   |   |   pixel59 <= 0.192157: angry (4.0)
|   |   |   |   |   |   |   |   |   |   |   |   |   |   |   |   |   |   |   |   |   |   |   |   |   |   |   |   pixel59 > 0.192157
|   |   |   |   |   |   |   |   |   |   |   |   |   |   |   |   |   |   |   |   |   |   |   |   |   |   |   |   |   pixel23 <= 0.168627: sad (6.0/1.0)
|   |   |   |   |   |   |   |   |   |   |   |   |   |   |   |   |   |   |   |   |   |   |   |   |   |   |   |   |   pixel23 > 0.168627
|   |   |   |   |   |   |   |   |   |   |   |   |   |   |   |   |   |   |   |   |   |   |   |   |   |   |   |   |   |   pixel444 <= 0.341176
|   |   |   |   |   |   |   |   |   |   |   |   |   |   |   |   |   |   |   |   |   |   |   |   |   |   |   |   |   |   |   pixel416 <= 0.296078
|   |   |   |   |   |   |   |   |   |   |   |   |   |   |   |   |   |   |   |   |   |   |   |   |   |   |   |   |   |   |   |   pixel225 <= 0.181373: angry (3.0)
|   |   |   |   |   |   |   |   |   |   |   |   |   |   |   |   |   |   |   |   |   |   |   |   |   |   |   |   |   |   |   |   pixel225 > 0.181373: neutral (4.0/1.0)
|   |   |   |   |   |   |   |   |   |   |   |   |   |   |   |   |   |   |   |   |   |   |   |   |   |   |   |   |   |   |   pixel416 > 0.296078
|   |   |   |   |   |   |   |   |   |   |   |   |   |   |   |   |   |   |   |   |   |   |   |   |   |   |   |   |   |   |   |   pixel566 <= 0.293137: neutral (16.0)
|   |   |   |   |   |   |   |   |   |   |   |   |   |   |   |   |   |   |   |   |   |   |   |   |   |   |   |   |   |   |   |   pixel566 > 0.293137: sad (3.0/1.0)
|   |   |   |   |   |   |   |   |   |   |   |   |   |   |   |   |   |   |   |   |   |   |   |   |   |   |   |   |   |   pixel444 > 0.341176: angry (4.0/1.0)
|   |   |   |   |   |   |   |   |   |   |   |   |   |   |   |   |   |   |   |   |   |   |   |   |   pixel515 > 0.307843
|   |   |   |   |   |   |   |   |   |   |   |   |   |   |   |   |   |   |   |   |   |   |   |   |   |   pixel491 <= 0.310784: neutral (38.0/1.0)
|   |   |   |   |   |   |   |   |   |   |   |   |   |   |   |   |   |   |   |   |   |   |   |   |   |   pixel491 > 0.310784: happy (3.0/1.0)
|   |   |   |   |   |   |   |   |   |   |   |   |   |   |   |   |   |   |   |   |   |   |   |   pixel344 > 0.60098: sad (3.0/1.0)
|   |   |   |   |   |   |   |   |   |   |   |   |   |   |   |   |   |   |   |   |   pixel307 > 0.559804
|   |   |   |   |   |   |   |   |   |   |   |   |   |   |   |   |   |   |   |   |   |   pixel550 <= 0.470588
|   |   |   |   |   |   |   |   |   |   |   |   |   |   |   |   |   |   |   |   |   |   |   pixel200 <= 0.352941: fear (4.0)
|   |   |   |   |   |   |   |   |   |   |   |   |   |   |   |   |   |   |   |   |   |   |   pixel200 > 0.352941: sad (5.0/2.0)
|   |   |   |   |   |   |   |   |   |   |   |   |   |   |   |   |   |   |   |   |   |   pixel550 > 0.470588
|   |   |   |   |   |   |   |   |   |   |   |   |   |   |   |   |   |   |   |   |   |   |   pixel0 <= 0.534314: neutral (3.0)
|   |   |   |   |   |   |   |   |   |   |   |   |   |   |   |   |   |   |   |   |   |   |   pixel0 > 0.534314: angry (3.0)
|   |   |   |   |   |   |   |   |   |   |   |   |   |   |   |   |   |   |   |   pixel481 > 0.915686
|   |   |   |   |   |   |   |   |   |   |   |   |   |   |   |   |   |   |   |   |   pixel22 <= 0.154902: angry (4.0)
|   |   |   |   |   |   |   |   |   |   |   |   |   |   |   |   |   |   |   |   |   pixel22 > 0.154902: sad (4.0/1.0)
|   |   |   |   |   |   |   |   |   |   |   |   |   |   |   |   |   |   |   pixel351 > 0.610784
|   |   |   |   |   |   |   |   |   |   |   |   |   |   |   |   |   |   |   |   pixel200 <= 0.257843: sad (3.0/1.0)
|   |   |   |   |   |   |   |   |   |   |   |   |   |   |   |   |   |   |   |   pixel200 > 0.257843: suprise (5.0/2.0)
|   |   |   |   |   |   |   |   |   |   |   |   |   |   |   |   |   |   pixel490 > 0.459804: happy (5.0/1.0)
|   |   |   |   |   |   |   |   |   |   |   |   |   |   |   pixel569 > 0.285294
|   |   |   |   |   |   |   |   |   |   |   |   |   |   |   |   pixel292 <= 0.077451
|   |   |   |   |   |   |   |   |   |   |   |   |   |   |   |   |   pixel522 <= 0.42451
|   |   |   |   |   |   |   |   |   |   |   |   |   |   |   |   |   |   pixel4 <= 0.234314: angry (3.0/1.0)
|   |   |   |   |   |   |   |   |   |   |   |   |   |   |   |   |   |   pixel4 > 0.234314: disgust (4.0)
|   |   |   |   |   |   |   |   |   |   |   |   |   |   |   |   |   pixel522 > 0.42451: neutral (6.0/1.0)
|   |   |   |   |   |   |   |   |   |   |   |   |   |   |   |   pixel292 > 0.077451
|   |   |   |   |   |   |   |   |   |   |   |   |   |   |   |   |   pixel24 <= 0.916667
|   |   |   |   |   |   |   |   |   |   |   |   |   |   |   |   |   |   pixel179 <= 0.127451
|   |   |   |   |   |   |   |   |   |   |   |   |   |   |   |   |   |   |   pixel180 <= 0.190196: sad (9.0)
|   |   |   |   |   |   |   |   |   |   |   |   |   |   |   |   |   |   |   pixel180 > 0.190196: neutral (5.0/3.0)
|   |   |   |   |   |   |   |   |   |   |   |   |   |   |   |   |   |   pixel179 > 0.127451
|   |   |   |   |   |   |   |   |   |   |   |   |   |   |   |   |   |   |   pixel244 <= 0.064706
|   |   |   |   |   |   |   |   |   |   |   |   |   |   |   |   |   |   |   |   pixel179 <= 0.329412
|   |   |   |   |   |   |   |   |   |   |   |   |   |   |   |   |   |   |   |   |   pixel351 <= 0.423529: fear (3.0)
|   |   |   |   |   |   |   |   |   |   |   |   |   |   |   |   |   |   |   |   |   pixel351 > 0.423529: neutral (5.0)
|   |   |   |   |   |   |   |   |   |   |   |   |   |   |   |   |   |   |   |   pixel179 > 0.329412: angry (5.0)
|   |   |   |   |   |   |   |   |   |   |   |   |   |   |   |   |   |   |   pixel244 > 0.064706
|   |   |   |   |   |   |   |   |   |   |   |   |   |   |   |   |   |   |   |   pixel225 <= 0.107843
|   |   |   |   |   |   |   |   |   |   |   |   |   |   |   |   |   |   |   |   |   pixel0 <= 0.24902
|   |   |   |   |   |   |   |   |   |   |   |   |   |   |   |   |   |   |   |   |   |   pixel48 <= 0.045098: angry (5.0/2.0)
|   |   |   |   |   |   |   |   |   |   |   |   |   |   |   |   |   |   |   |   |   |   pixel48 > 0.045098: sad (6.0)
|   |   |   |   |   |   |   |   |   |   |   |   |   |   |   |   |   |   |   |   |   pixel0 > 0.24902: angry (6.0/2.0)
|   |   |   |   |   |   |   |   |   |   |   |   |   |   |   |   |   |   |   |   pixel225 > 0.107843
|   |   |   |   |   |   |   |   |   |   |   |   |   |   |   |   |   |   |   |   |   pixel200 <= 0.098039
|   |   |   |   |   |   |   |   |   |   |   |   |   |   |   |   |   |   |   |   |   |   pixel356 <= 0.287255: fear (5.0/1.0)
|   |   |   |   |   |   |   |   |   |   |   |   |   |   |   |   |   |   |   |   |   |   pixel356 > 0.287255: sad (11.0/1.0)
|   |   |   |   |   |   |   |   |   |   |   |   |   |   |   |   |   |   |   |   |   pixel200 > 0.098039
|   |   |   |   |   |   |   |   |   |   |   |   |   |   |   |   |   |   |   |   |   |   pixel400 <= 0.222549
|   |   |   |   |   |   |   |   |   |   |   |   |   |   |   |   |   |   |   |   |   |   |   pixel200 <= 0.290196: happy (7.0/1.0)
|   |   |   |   |   |   |   |   |   |   |   |   |   |   |   |   |   |   |   |   |   |   |   pixel200 > 0.290196: angry (4.0)
|   |   |   |   |   |   |   |   |   |   |   |   |   |   |   |   |   |   |   |   |   |   pixel400 > 0.222549
|   |   |   |   |   |   |   |   |   |   |   |   |   |   |   |   |   |   |   |   |   |   |   pixel490 <= 0.046078: happy (4.0/1.0)
|   |   |   |   |   |   |   |   |   |   |   |   |   |   |   |   |   |   |   |   |   |   |   pixel490 > 0.046078
|   |   |   |   |   |   |   |   |   |   |   |   |   |   |   |   |   |   |   |   |   |   |   |   pixel432 <= 0.035294
|   |   |   |   |   |   |   |   |   |   |   |   |   |   |   |   |   |   |   |   |   |   |   |   |   pixel515 <= 0.252941
|   |   |   |   |   |   |   |   |   |   |   |   |   |   |   |   |   |   |   |   |   |   |   |   |   |   pixel558 <= 0.15098: angry (8.0)
|   |   |   |   |   |   |   |   |   |   |   |   |   |   |   |   |   |   |   |   |   |   |   |   |   |   pixel558 > 0.15098: sad (3.0)
|   |   |   |   |   |   |   |   |   |   |   |   |   |   |   |   |   |   |   |   |   |   |   |   |   pixel515 > 0.252941: happy (4.0/2.0)
|   |   |   |   |   |   |   |   |   |   |   |   |   |   |   |   |   |   |   |   |   |   |   |   pixel432 > 0.035294
|   |   |   |   |   |   |   |   |   |   |   |   |   |   |   |   |   |   |   |   |   |   |   |   |   pixel467 <= 0.120588
|   |   |   |   |   |   |   |   |   |   |   |   |   |   |   |   |   |   |   |   |   |   |   |   |   |   pixel544 <= 0.315686: happy (4.0/2.0)
|   |   |   |   |   |   |   |   |   |   |   |   |   |   |   |   |   |   |   |   |   |   |   |   |   |   pixel544 > 0.315686: fear (9.0/1.0)
|   |   |   |   |   |   |   |   |   |   |   |   |   |   |   |   |   |   |   |   |   |   |   |   |   pixel467 > 0.120588
|   |   |   |   |   |   |   |   |   |   |   |   |   |   |   |   |   |   |   |   |   |   |   |   |   |   pixel367 <= 0.140196
|   |   |   |   |   |   |   |   |   |   |   |   |   |   |   |   |   |   |   |   |   |   |   |   |   |   |   pixel200 <= 0.287255: happy (3.0)
|   |   |   |   |   |   |   |   |   |   |   |   |   |   |   |   |   |   |   |   |   |   |   |   |   |   |   pixel200 > 0.287255: angry (4.0/2.0)
|   |   |   |   |   |   |   |   |   |   |   |   |   |   |   |   |   |   |   |   |   |   |   |   |   |   pixel367 > 0.140196
|   |   |   |   |   |   |   |   |   |   |   |   |   |   |   |   |   |   |   |   |   |   |   |   |   |   |   pixel294 <= 0.17549
|   |   |   |   |   |   |   |   |   |   |   |   |   |   |   |   |   |   |   |   |   |   |   |   |   |   |   |   pixel569 <= 0.411765: fear (7.0)
|   |   |   |   |   |   |   |   |   |   |   |   |   |   |   |   |   |   |   |   |   |   |   |   |   |   |   |   pixel569 > 0.411765: neutral (7.0/2.0)
|   |   |   |   |   |   |   |   |   |   |   |   |   |   |   |   |   |   |   |   |   |   |   |   |   |   |   pixel294 > 0.17549
|   |   |   |   |   |   |   |   |   |   |   |   |   |   |   |   |   |   |   |   |   |   |   |   |   |   |   |   pixel119 <= 0.138235
|   |   |   |   |   |   |   |   |   |   |   |   |   |   |   |   |   |   |   |   |   |   |   |   |   |   |   |   |   pixel312 <= 0.09902: happy (4.0)
|   |   |   |   |   |   |   |   |   |   |   |   |   |   |   |   |   |   |   |   |   |   |   |   |   |   |   |   |   pixel312 > 0.09902
|   |   |   |   |   |   |   |   |   |   |   |   |   |   |   |   |   |   |   |   |   |   |   |   |   |   |   |   |   |   pixel552 <= 0.520588
|   |   |   |   |   |   |   |   |   |   |   |   |   |   |   |   |   |   |   |   |   |   |   |   |   |   |   |   |   |   |   pixel569 <= 0.664706
|   |   |   |   |   |   |   |   |   |   |   |   |   |   |   |   |   |   |   |   |   |   |   |   |   |   |   |   |   |   |   |   pixel71 <= 0.112745: sad (14.0/2.0)
|   |   |   |   |   |   |   |   |   |   |   |   |   |   |   |   |   |   |   |   |   |   |   |   |   |   |   |   |   |   |   |   pixel71 > 0.112745
|   |   |   |   |   |   |   |   |   |   |   |   |   |   |   |   |   |   |   |   |   |   |   |   |   |   |   |   |   |   |   |   |   pixel515 <= 0.257843: suprise (5.0)
|   |   |   |   |   |   |   |   |   |   |   |   |   |   |   |   |   |   |   |   |   |   |   |   |   |   |   |   |   |   |   |   |   pixel515 > 0.257843: sad (3.0/1.0)
|   |   |   |   |   |   |   |   |   |   |   |   |   |   |   |   |   |   |   |   |   |   |   |   |   |   |   |   |   |   |   pixel569 > 0.664706: neutral (3.0)
|   |   |   |   |   |   |   |   |   |   |   |   |   |   |   |   |   |   |   |   |   |   |   |   |   |   |   |   |   |   pixel552 > 0.520588: neutral (5.0/1.0)
|   |   |   |   |   |   |   |   |   |   |   |   |   |   |   |   |   |   |   |   |   |   |   |   |   |   |   |   pixel119 > 0.138235
|   |   |   |   |   |   |   |   |   |   |   |   |   |   |   |   |   |   |   |   |   |   |   |   |   |   |   |   |   pixel401 <= 0.623529
|   |   |   |   |   |   |   |   |   |   |   |   |   |   |   |   |   |   |   |   |   |   |   |   |   |   |   |   |   |   pixel383 <= 0.604902
|   |   |   |   |   |   |   |   |   |   |   |   |   |   |   |   |   |   |   |   |   |   |   |   |   |   |   |   |   |   |   pixel492 <= 0.270588
|   |   |   |   |   |   |   |   |   |   |   |   |   |   |   |   |   |   |   |   |   |   |   |   |   |   |   |   |   |   |   |   pixel0 <= 0.106863
|   |   |   |   |   |   |   |   |   |   |   |   |   |   |   |   |   |   |   |   |   |   |   |   |   |   |   |   |   |   |   |   |   pixel204 <= 0.432353: sad (4.0)
|   |   |   |   |   |   |   |   |   |   |   |   |   |   |   |   |   |   |   |   |   |   |   |   |   |   |   |   |   |   |   |   |   pixel204 > 0.432353: fear (4.0/2.0)
|   |   |   |   |   |   |   |   |   |   |   |   |   |   |   |   |   |   |   |   |   |   |   |   |   |   |   |   |   |   |   |   pixel0 > 0.106863
|   |   |   |   |   |   |   |   |   |   |   |   |   |   |   |   |   |   |   |   |   |   |   |   |   |   |   |   |   |   |   |   |   pixel400 <= 0.463725
|   |   |   |   |   |   |   |   |   |   |   |   |   |   |   |   |   |   |   |   |   |   |   |   |   |   |   |   |   |   |   |   |   |   pixel37 <= 0.137255: neutral (3.0)
|   |   |   |   |   |   |   |   |   |   |   |   |   |   |   |   |   |   |   |   |   |   |   |   |   |   |   |   |   |   |   |   |   |   pixel37 > 0.137255
|   |   |   |   |   |   |   |   |   |   |   |   |   |   |   |   |   |   |   |   |   |   |   |   |   |   |   |   |   |   |   |   |   |   |   pixel466 <= 0.138235: angry (6.0)
|   |   |   |   |   |   |   |   |   |   |   |   |   |   |   |   |   |   |   |   |   |   |   |   |   |   |   |   |   |   |   |   |   |   |   pixel466 > 0.138235
|   |   |   |   |   |   |   |   |   |   |   |   |   |   |   |   |   |   |   |   |   |   |   |   |   |   |   |   |   |   |   |   |   |   |   |   pixel4 <= 0.441176
|   |   |   |   |   |   |   |   |   |   |   |   |   |   |   |   |   |   |   |   |   |   |   |   |   |   |   |   |   |   |   |   |   |   |   |   |   pixel415 <= 0.176471: angry (3.0)
|   |   |   |   |   |   |   |   |   |   |   |   |   |   |   |   |   |   |   |   |   |   |   |   |   |   |   |   |   |   |   |   |   |   |   |   |   pixel415 > 0.176471
|   |   |   |   |   |   |   |   |   |   |   |   |   |   |   |   |   |   |   |   |   |   |   |   |   |   |   |   |   |   |   |   |   |   |   |   |   |   pixel544 <= 0.430392
|   |   |   |   |   |   |   |   |   |   |   |   |   |   |   |   |   |   |   |   |   |   |   |   |   |   |   |   |   |   |   |   |   |   |   |   |   |   |   pixel416 <= 0.257843: happy (4.0)
|   |   |   |   |   |   |   |   |   |   |   |   |   |   |   |   |   |   |   |   |   |   |   |   |   |   |   |   |   |   |   |   |   |   |   |   |   |   |   pixel416 > 0.257843
|   |   |   |   |   |   |   |   |   |   |   |   |   |   |   |   |   |   |   |   |   |   |   |   |   |   |   |   |   |   |   |   |   |   |   |   |   |   |   |   pixel59 <= 0.257843: happy (4.0/1.0)
|   |   |   |   |   |   |   |   |   |   |   |   |   |   |   |   |   |   |   |   |   |   |   |   |   |   |   |   |   |   |   |   |   |   |   |   |   |   |   |   pixel59 > 0.257843
|   |   |   |   |   |   |   |   |   |   |   |   |   |   |   |   |   |   |   |   |   |   |   |   |   |   |   |   |   |   |   |   |   |   |   |   |   |   |   |   |   pixel547 <= 0.429412
|   |   |   |   |   |   |   |   |   |   |   |   |   |   |   |   |   |   |   |   |   |   |   |   |   |   |   |   |   |   |   |   |   |   |   |   |   |   |   |   |   |   pixel252 <= 0.386275: fear (9.0)
|   |   |   |   |   |   |   |   |   |   |   |   |   |   |   |   |   |   |   |   |   |   |   |   |   |   |   |   |   |   |   |   |   |   |   |   |   |   |   |   |   |   pixel252 > 0.386275
|   |   |   |   |   |   |   |   |   |   |   |   |   |   |   |   |   |   |   |   |   |   |   |   |   |   |   |   |   |   |   |   |   |   |   |   |   |   |   |   |   |   |   pixel356 <= 0.410784: neutral (4.0)
|   |   |   |   |   |   |   |   |   |   |   |   |   |   |   |   |   |   |   |   |   |   |   |   |   |   |   |   |   |   |   |   |   |   |   |   |   |   |   |   |   |   |   pixel356 > 0.410784
|   |   |   |   |   |   |   |   |   |   |   |   |   |   |   |   |   |   |   |   |   |   |   |   |   |   |   |   |   |   |   |   |   |   |   |   |   |   |   |   |   |   |   |   pixel0 <= 0.576471: fear (3.0/1.0)
|   |   |   |   |   |   |   |   |   |   |   |   |   |   |   |   |   |   |   |   |   |   |   |   |   |   |   |   |   |   |   |   |   |   |   |   |   |   |   |   |   |   |   |   pixel0 > 0.576471: angry (3.0/1.0)
|   |   |   |   |   |   |   |   |   |   |   |   |   |   |   |   |   |   |   |   |   |   |   |   |   |   |   |   |   |   |   |   |   |   |   |   |   |   |   |   |   pixel547 > 0.429412: neutral (4.0/2.0)
|   |   |   |   |   |   |   |   |   |   |   |   |   |   |   |   |   |   |   |   |   |   |   |   |   |   |   |   |   |   |   |   |   |   |   |   |   |   pixel544 > 0.430392
|   |   |   |   |   |   |   |   |   |   |   |   |   |   |   |   |   |   |   |   |   |   |   |   |   |   |   |   |   |   |   |   |   |   |   |   |   |   |   pixel547 <= 0.35098: sad (6.0/1.0)
|   |   |   |   |   |   |   |   |   |   |   |   |   |   |   |   |   |   |   |   |   |   |   |   |   |   |   |   |   |   |   |   |   |   |   |   |   |   |   pixel547 > 0.35098: happy (6.0/1.0)
|   |   |   |   |   |   |   |   |   |   |   |   |   |   |   |   |   |   |   |   |   |   |   |   |   |   |   |   |   |   |   |   |   |   |   |   pixel4 > 0.441176
|   |   |   |   |   |   |   |   |   |   |   |   |   |   |   |   |   |   |   |   |   |   |   |   |   |   |   |   |   |   |   |   |   |   |   |   |   pixel48 <= 0.843137
|   |   |   |   |   |   |   |   |   |   |   |   |   |   |   |   |   |   |   |   |   |   |   |   |   |   |   |   |   |   |   |   |   |   |   |   |   |   pixel22 <= 0.392157: sad (9.0)
|   |   |   |   |   |   |   |   |   |   |   |   |   |   |   |   |   |   |   |   |   |   |   |   |   |   |   |   |   |   |   |   |   |   |   |   |   |   pixel22 > 0.392157
|   |   |   |   |   |   |   |   |   |   |   |   |   |   |   |   |   |   |   |   |   |   |   |   |   |   |   |   |   |   |   |   |   |   |   |   |   |   |   pixel59 <= 0.393137: sad (3.0/1.0)
|   |   |   |   |   |   |   |   |   |   |   |   |   |   |   |   |   |   |   |   |   |   |   |   |   |   |   |   |   |   |   |   |   |   |   |   |   |   |   pixel59 > 0.393137: angry (5.0)
|   |   |   |   |   |   |   |   |   |   |   |   |   |   |   |   |   |   |   |   |   |   |   |   |   |   |   |   |   |   |   |   |   |   |   |   |   pixel48 > 0.843137: happy (4.0/1.0)
|   |   |   |   |   |   |   |   |   |   |   |   |   |   |   |   |   |   |   |   |   |   |   |   |   |   |   |   |   |   |   |   |   pixel400 > 0.463725
|   |   |   |   |   |   |   |   |   |   |   |   |   |   |   |   |   |   |   |   |   |   |   |   |   |   |   |   |   |   |   |   |   |   pixel173 <= 0.187255: neutral (3.0/1.0)
|   |   |   |   |   |   |   |   |   |   |   |   |   |   |   |   |   |   |   |   |   |   |   |   |   |   |   |   |   |   |   |   |   |   pixel173 > 0.187255
|   |   |   |   |   |   |   |   |   |   |   |   |   |   |   |   |   |   |   |   |   |   |   |   |   |   |   |   |   |   |   |   |   |   |   pixel155 <= 0.440196
|   |   |   |   |   |   |   |   |   |   |   |   |   |   |   |   |   |   |   |   |   |   |   |   |   |   |   |   |   |   |   |   |   |   |   |   pixel37 <= 0.459804: sad (3.0)
|   |   |   |   |   |   |   |   |   |   |   |   |   |   |   |   |   |   |   |   |   |   |   |   |   |   |   |   |   |   |   |   |   |   |   |   pixel37 > 0.459804: angry (3.0)
|   |   |   |   |   |   |   |   |   |   |   |   |   |   |   |   |   |   |   |   |   |   |   |   |   |   |   |   |   |   |   |   |   |   |   pixel155 > 0.440196: sad (11.0/1.0)
|   |   |   |   |   |   |   |   |   |   |   |   |   |   |   |   |   |   |   |   |   |   |   |   |   |   |   |   |   |   |   pixel492 > 0.270588
|   |   |   |   |   |   |   |   |   |   |   |   |   |   |   |   |   |   |   |   |   |   |   |   |   |   |   |   |   |   |   |   pixel481 <= 0.507843
|   |   |   |   |   |   |   |   |   |   |   |   |   |   |   |   |   |   |   |   |   |   |   |   |   |   |   |   |   |   |   |   |   pixel0 <= 0.473529: angry (10.0/1.0)
|   |   |   |   |   |   |   |   |   |   |   |   |   |   |   |   |   |   |   |   |   |   |   |   |   |   |   |   |   |   |   |   |   pixel0 > 0.473529: happy (3.0/1.0)
|   |   |   |   |   |   |   |   |   |   |   |   |   |   |   |   |   |   |   |   |   |   |   |   |   |   |   |   |   |   |   |   pixel481 > 0.507843: fear (5.0)
|   |   |   |   |   |   |   |   |   |   |   |   |   |   |   |   |   |   |   |   |   |   |   |   |   |   |   |   |   |   pixel383 > 0.604902
|   |   |   |   |   |   |   |   |   |   |   |   |   |   |   |   |   |   |   |   |   |   |   |   |   |   |   |   |   |   |   pixel47 <= 0.868627
|   |   |   |   |   |   |   |   |   |   |   |   |   |   |   |   |   |   |   |   |   |   |   |   |   |   |   |   |   |   |   |   pixel481 <= 0.273529: neutral (13.0/2.0)
|   |   |   |   |   |   |   |   |   |   |   |   |   |   |   |   |   |   |   |   |   |   |   |   |   |   |   |   |   |   |   |   pixel481 > 0.273529
|   |   |   |   |   |   |   |   |   |   |   |   |   |   |   |   |   |   |   |   |   |   |   |   |   |   |   |   |   |   |   |   |   pixel424 <= 0.246078: neutral (4.0/1.0)
|   |   |   |   |   |   |   |   |   |   |   |   |   |   |   |   |   |   |   |   |   |   |   |   |   |   |   |   |   |   |   |   |   pixel424 > 0.246078
|   |   |   |   |   |   |   |   |   |   |   |   |   |   |   |   |   |   |   |   |   |   |   |   |   |   |   |   |   |   |   |   |   |   pixel515 <= 0.141176: neutral (4.0/1.0)
|   |   |   |   |   |   |   |   |   |   |   |   |   |   |   |   |   |   |   |   |   |   |   |   |   |   |   |   |   |   |   |   |   |   pixel515 > 0.141176
|   |   |   |   |   |   |   |   |   |   |   |   |   |   |   |   |   |   |   |   |   |   |   |   |   |   |   |   |   |   |   |   |   |   |   pixel558 <= 0.303922
|   |   |   |   |   |   |   |   |   |   |   |   |   |   |   |   |   |   |   |   |   |   |   |   |   |   |   |   |   |   |   |   |   |   |   |   pixel192 <= 0.316667: sad (4.0)
|   |   |   |   |   |   |   |   |   |   |   |   |   |   |   |   |   |   |   |   |   |   |   |   |   |   |   |   |   |   |   |   |   |   |   |   pixel192 > 0.316667
|   |   |   |   |   |   |   |   |   |   |   |   |   |   |   |   |   |   |   |   |   |   |   |   |   |   |   |   |   |   |   |   |   |   |   |   |   pixel4 <= 0.460784: angry (4.0)
|   |   |   |   |   |   |   |   |   |   |   |   |   |   |   |   |   |   |   |   |   |   |   |   |   |   |   |   |   |   |   |   |   |   |   |   |   pixel4 > 0.460784: sad (3.0/1.0)
|   |   |   |   |   |   |   |   |   |   |   |   |   |   |   |   |   |   |   |   |   |   |   |   |   |   |   |   |   |   |   |   |   |   |   pixel558 > 0.303922
|   |   |   |   |   |   |   |   |   |   |   |   |   |   |   |   |   |   |   |   |   |   |   |   |   |   |   |   |   |   |   |   |   |   |   |   pixel71 <= 0.710784
|   |   |   |   |   |   |   |   |   |   |   |   |   |   |   |   |   |   |   |   |   |   |   |   |   |   |   |   |   |   |   |   |   |   |   |   |   pixel0 <= 0.506863: fear (3.0/1.0)
|   |   |   |   |   |   |   |   |   |   |   |   |   |   |   |   |   |   |   |   |   |   |   |   |   |   |   |   |   |   |   |   |   |   |   |   |   pixel0 > 0.506863: sad (4.0)
|   |   |   |   |   |   |   |   |   |   |   |   |   |   |   |   |   |   |   |   |   |   |   |   |   |   |   |   |   |   |   |   |   |   |   |   pixel71 > 0.710784: fear (3.0)
|   |   |   |   |   |   |   |   |   |   |   |   |   |   |   |   |   |   |   |   |   |   |   |   |   |   |   |   |   |   |   pixel47 > 0.868627
|   |   |   |   |   |   |   |   |   |   |   |   |   |   |   |   |   |   |   |   |   |   |   |   |   |   |   |   |   |   |   |   pixel37 <= 0.584314: sad (6.0)
|   |   |   |   |   |   |   |   |   |   |   |   |   |   |   |   |   |   |   |   |   |   |   |   |   |   |   |   |   |   |   |   pixel37 > 0.584314: happy (3.0/1.0)
|   |   |   |   |   |   |   |   |   |   |   |   |   |   |   |   |   |   |   |   |   |   |   |   |   |   |   |   |   pixel401 > 0.623529
|   |   |   |   |   |   |   |   |   |   |   |   |   |   |   |   |   |   |   |   |   |   |   |   |   |   |   |   |   |   pixel312 <= 0.221569: happy (3.0)
|   |   |   |   |   |   |   |   |   |   |   |   |   |   |   |   |   |   |   |   |   |   |   |   |   |   |   |   |   |   pixel312 > 0.221569: fear (3.0)
|   |   |   |   |   |   |   |   |   |   |   |   |   |   |   |   |   pixel24 > 0.916667
|   |   |   |   |   |   |   |   |   |   |   |   |   |   |   |   |   |   pixel204 <= 0.223529: neutral (4.0)
|   |   |   |   |   |   |   |   |   |   |   |   |   |   |   |   |   |   pixel204 > 0.223529
|   |   |   |   |   |   |   |   |   |   |   |   |   |   |   |   |   |   |   pixel119 <= 0.322549: angry (3.0)
|   |   |   |   |   |   |   |   |   |   |   |   |   |   |   |   |   |   |   pixel119 > 0.322549: suprise (3.0)
|   |   |   |   |   |   |   |   |   |   |   |   |   |   pixel227 > 0.610784
|   |   |   |   |   |   |   |   |   |   |   |   |   |   |   pixel37 <= 0.159804
|   |   |   |   |   |   |   |   |   |   |   |   |   |   |   |   pixel131 <= 0.604902: neutral (3.0/1.0)
|   |   |   |   |   |   |   |   |   |   |   |   |   |   |   |   pixel131 > 0.604902: happy (3.0)
|   |   |   |   |   |   |   |   |   |   |   |   |   |   |   pixel37 > 0.159804
|   |   |   |   |   |   |   |   |   |   |   |   |   |   |   |   pixel23 <= 0.914706
|   |   |   |   |   |   |   |   |   |   |   |   |   |   |   |   |   pixel493 <= 0.265686
|   |   |   |   |   |   |   |   |   |   |   |   |   |   |   |   |   |   pixel492 <= 0.105882: fear (4.0/1.0)
|   |   |   |   |   |   |   |   |   |   |   |   |   |   |   |   |   |   pixel492 > 0.105882
|   |   |   |   |   |   |   |   |   |   |   |   |   |   |   |   |   |   |   pixel317 <= 0.62549
|   |   |   |   |   |   |   |   |   |   |   |   |   |   |   |   |   |   |   |   pixel294 <= 0.262745: sad (7.0/1.0)
|   |   |   |   |   |   |   |   |   |   |   |   |   |   |   |   |   |   |   |   pixel294 > 0.262745
|   |   |   |   |   |   |   |   |   |   |   |   |   |   |   |   |   |   |   |   |   pixel547 <= 0.363725
|   |   |   |   |   |   |   |   |   |   |   |   |   |   |   |   |   |   |   |   |   |   pixel47 <= 0.304902
|   |   |   |   |   |   |   |   |   |   |   |   |   |   |   |   |   |   |   |   |   |   |   pixel1 <= 0.212745: angry (5.0/1.0)
|   |   |   |   |   |   |   |   |   |   |   |   |   |   |   |   |   |   |   |   |   |   |   pixel1 > 0.212745: sad (6.0)
|   |   |   |   |   |   |   |   |   |   |   |   |   |   |   |   |   |   |   |   |   |   pixel47 > 0.304902: angry (10.0/1.0)
|   |   |   |   |   |   |   |   |   |   |   |   |   |   |   |   |   |   |   |   |   pixel547 > 0.363725: sad (6.0/1.0)
|   |   |   |   |   |   |   |   |   |   |   |   |   |   |   |   |   |   |   pixel317 > 0.62549: angry (6.0/1.0)
|   |   |   |   |   |   |   |   |   |   |   |   |   |   |   |   |   pixel493 > 0.265686
|   |   |   |   |   |   |   |   |   |   |   |   |   |   |   |   |   |   pixel220 <= 0.177451
|   |   |   |   |   |   |   |   |   |   |   |   |   |   |   |   |   |   |   pixel22 <= 0.140196: happy (3.0/1.0)
|   |   |   |   |   |   |   |   |   |   |   |   |   |   |   |   |   |   |   pixel22 > 0.140196: fear (3.0)
|   |   |   |   |   |   |   |   |   |   |   |   |   |   |   |   |   |   pixel220 > 0.177451: sad (13.0/1.0)
|   |   |   |   |   |   |   |   |   |   |   |   |   |   |   |   pixel23 > 0.914706
|   |   |   |   |   |   |   |   |   |   |   |   |   |   |   |   |   pixel71 <= 0.906863: neutral (3.0)
|   |   |   |   |   |   |   |   |   |   |   |   |   |   |   |   |   pixel71 > 0.906863: sad (3.0/1.0)
|   |   |   |   |   |   |   |   |   |   |   |   |   pixel220 > 0.503922
|   |   |   |   |   |   |   |   |   |   |   |   |   |   pixel384 <= 0.846078
|   |   |   |   |   |   |   |   |   |   |   |   |   |   |   pixel181 <= 0.122549
|   |   |   |   |   |   |   |   |   |   |   |   |   |   |   |   pixel59 <= 0.316667: suprise (3.0)
|   |   |   |   |   |   |   |   |   |   |   |   |   |   |   |   pixel59 > 0.316667: angry (3.0/1.0)
|   |   |   |   |   |   |   |   |   |   |   |   |   |   |   pixel181 > 0.122549
|   |   |   |   |   |   |   |   |   |   |   |   |   |   |   |   pixel469 <= 0.090196
|   |   |   |   |   |   |   |   |   |   |   |   |   |   |   |   |   pixel192 <= 0.545098: neutral (3.0)
|   |   |   |   |   |   |   |   |   |   |   |   |   |   |   |   |   pixel192 > 0.545098: suprise (3.0/1.0)
|   |   |   |   |   |   |   |   |   |   |   |   |   |   |   |   pixel469 > 0.090196
|   |   |   |   |   |   |   |   |   |   |   |   |   |   |   |   |   pixel554 <= 0.022549
|   |   |   |   |   |   |   |   |   |   |   |   |   |   |   |   |   |   pixel320 <= 0.335294: sad (6.0)
|   |   |   |   |   |   |   |   |   |   |   |   |   |   |   |   |   |   pixel320 > 0.335294: angry (3.0/1.0)
|   |   |   |   |   |   |   |   |   |   |   |   |   |   |   |   |   pixel554 > 0.022549
|   |   |   |   |   |   |   |   |   |   |   |   |   |   |   |   |   |   pixel547 <= 0.032353
|   |   |   |   |   |   |   |   |   |   |   |   |   |   |   |   |   |   |   pixel37 <= 0.422549: suprise (3.0)
|   |   |   |   |   |   |   |   |   |   |   |   |   |   |   |   |   |   |   pixel37 > 0.422549: happy (4.0/2.0)
|   |   |   |   |   |   |   |   |   |   |   |   |   |   |   |   |   |   pixel547 > 0.032353
|   |   |   |   |   |   |   |   |   |   |   |   |   |   |   |   |   |   |   pixel59 <= 0.719608
|   |   |   |   |   |   |   |   |   |   |   |   |   |   |   |   |   |   |   |   pixel492 <= 0.111765
|   |   |   |   |   |   |   |   |   |   |   |   |   |   |   |   |   |   |   |   |   pixel131 <= 0.57451: fear (12.0/3.0)
|   |   |   |   |   |   |   |   |   |   |   |   |   |   |   |   |   |   |   |   |   pixel131 > 0.57451: sad (3.0)
|   |   |   |   |   |   |   |   |   |   |   |   |   |   |   |   |   |   |   |   pixel492 > 0.111765
|   |   |   |   |   |   |   |   |   |   |   |   |   |   |   |   |   |   |   |   |   pixel294 <= 0.246078
|   |   |   |   |   |   |   |   |   |   |   |   |   |   |   |   |   |   |   |   |   |   pixel4 <= 0.228431: fear (3.0/1.0)
|   |   |   |   |   |   |   |   |   |   |   |   |   |   |   |   |   |   |   |   |   |   pixel4 > 0.228431: sad (6.0)
|   |   |   |   |   |   |   |   |   |   |   |   |   |   |   |   |   |   |   |   |   pixel294 > 0.246078
|   |   |   |   |   |   |   |   |   |   |   |   |   |   |   |   |   |   |   |   |   |   pixel367 <= 0.285294
|   |   |   |   |   |   |   |   |   |   |   |   |   |   |   |   |   |   |   |   |   |   |   pixel1 <= 0.167647: angry (3.0)
|   |   |   |   |   |   |   |   |   |   |   |   |   |   |   |   |   |   |   |   |   |   |   pixel1 > 0.167647
|   |   |   |   |   |   |   |   |   |   |   |   |   |   |   |   |   |   |   |   |   |   |   |   pixel59 <= 0.598039
|   |   |   |   |   |   |   |   |   |   |   |   |   |   |   |   |   |   |   |   |   |   |   |   |   pixel173 <= 0.502941: happy (6.0)
|   |   |   |   |   |   |   |   |   |   |   |   |   |   |   |   |   |   |   |   |   |   |   |   |   pixel173 > 0.502941
|   |   |   |   |   |   |   |   |   |   |   |   |   |   |   |   |   |   |   |   |   |   |   |   |   |   pixel307 <= 0.354902: sad (4.0/2.0)
|   |   |   |   |   |   |   |   |   |   |   |   |   |   |   |   |   |   |   |   |   |   |   |   |   |   pixel307 > 0.354902: fear (4.0)
|   |   |   |   |   |   |   |   |   |   |   |   |   |   |   |   |   |   |   |   |   |   |   |   pixel59 > 0.598039: neutral (4.0/1.0)
|   |   |   |   |   |   |   |   |   |   |   |   |   |   |   |   |   |   |   |   |   |   pixel367 > 0.285294
|   |   |   |   |   |   |   |   |   |   |   |   |   |   |   |   |   |   |   |   |   |   |   pixel307 <= 0.187255
|   |   |   |   |   |   |   |   |   |   |   |   |   |   |   |   |   |   |   |   |   |   |   |   pixel492 <= 0.237255
|   |   |   |   |   |   |   |   |   |   |   |   |   |   |   |   |   |   |   |   |   |   |   |   |   pixel563 <= 0.229412: angry (7.0/2.0)
|   |   |   |   |   |   |   |   |   |   |   |   |   |   |   |   |   |   |   |   |   |   |   |   |   pixel563 > 0.229412: sad (8.0/1.0)
|   |   |   |   |   |   |   |   |   |   |   |   |   |   |   |   |   |   |   |   |   |   |   |   pixel492 > 0.237255: fear (5.0/3.0)
|   |   |   |   |   |   |   |   |   |   |   |   |   |   |   |   |   |   |   |   |   |   |   pixel307 > 0.187255
|   |   |   |   |   |   |   |   |   |   |   |   |   |   |   |   |   |   |   |   |   |   |   |   pixel401 <= 0.281373
|   |   |   |   |   |   |   |   |   |   |   |   |   |   |   |   |   |   |   |   |   |   |   |   |   pixel344 <= 0.312745
|   |   |   |   |   |   |   |   |   |   |   |   |   |   |   |   |   |   |   |   |   |   |   |   |   |   pixel252 <= 0.523529: fear (3.0/1.0)
|   |   |   |   |   |   |   |   |   |   |   |   |   |   |   |   |   |   |   |   |   |   |   |   |   |   pixel252 > 0.523529: angry (3.0)
|   |   |   |   |   |   |   |   |   |   |   |   |   |   |   |   |   |   |   |   |   |   |   |   |   pixel344 > 0.312745
|   |   |   |   |   |   |   |   |   |   |   |   |   |   |   |   |   |   |   |   |   |   |   |   |   |   pixel466 <= 0.328431
|   |   |   |   |   |   |   |   |   |   |   |   |   |   |   |   |   |   |   |   |   |   |   |   |   |   |   pixel292 <= 0.55098: sad (6.0)
|   |   |   |   |   |   |   |   |   |   |   |   |   |   |   |   |   |   |   |   |   |   |   |   |   |   |   pixel292 > 0.55098: fear (4.0/2.0)
|   |   |   |   |   |   |   |   |   |   |   |   |   |   |   |   |   |   |   |   |   |   |   |   |   |   pixel466 > 0.328431: neutral (7.0/1.0)
|   |   |   |   |   |   |   |   |   |   |   |   |   |   |   |   |   |   |   |   |   |   |   |   pixel401 > 0.281373
|   |   |   |   |   |   |   |   |   |   |   |   |   |   |   |   |   |   |   |   |   |   |   |   |   pixel344 <= 0.597059
|   |   |   |   |   |   |   |   |   |   |   |   |   |   |   |   |   |   |   |   |   |   |   |   |   |   pixel550 <= 0.691176
|   |   |   |   |   |   |   |   |   |   |   |   |   |   |   |   |   |   |   |   |   |   |   |   |   |   |   pixel344 <= 0.559804
|   |   |   |   |   |   |   |   |   |   |   |   |   |   |   |   |   |   |   |   |   |   |   |   |   |   |   |   pixel292 <= 0.378431: fear (3.0)
|   |   |   |   |   |   |   |   |   |   |   |   |   |   |   |   |   |   |   |   |   |   |   |   |   |   |   |   pixel292 > 0.378431
|   |   |   |   |   |   |   |   |   |   |   |   |   |   |   |   |   |   |   |   |   |   |   |   |   |   |   |   |   pixel307 <= 0.821569
|   |   |   |   |   |   |   |   |   |   |   |   |   |   |   |   |   |   |   |   |   |   |   |   |   |   |   |   |   |   pixel71 <= 0.119608
|   |   |   |   |   |   |   |   |   |   |   |   |   |   |   |   |   |   |   |   |   |   |   |   |   |   |   |   |   |   |   pixel444 <= 0.255882: angry (4.0/1.0)
|   |   |   |   |   |   |   |   |   |   |   |   |   |   |   |   |   |   |   |   |   |   |   |   |   |   |   |   |   |   |   pixel444 > 0.255882: sad (6.0)
|   |   |   |   |   |   |   |   |   |   |   |   |   |   |   |   |   |   |   |   |   |   |   |   |   |   |   |   |   |   pixel71 > 0.119608
|   |   |   |   |   |   |   |   |   |   |   |   |   |   |   |   |   |   |   |   |   |   |   |   |   |   |   |   |   |   |   pixel504 <= 0.331373: angry (14.0)
|   |   |   |   |   |   |   |   |   |   |   |   |   |   |   |   |   |   |   |   |   |   |   |   |   |   |   |   |   |   |   pixel504 > 0.331373
|   |   |   |   |   |   |   |   |   |   |   |   |   |   |   |   |   |   |   |   |   |   |   |   |   |   |   |   |   |   |   |   pixel467 <= 0.263725
|   |   |   |   |   |   |   |   |   |   |   |   |   |   |   |   |   |   |   |   |   |   |   |   |   |   |   |   |   |   |   |   |   pixel179 <= 0.615686: fear (7.0/1.0)
|   |   |   |   |   |   |   |   |   |   |   |   |   |   |   |   |   |   |   |   |   |   |   |   |   |   |   |   |   |   |   |   |   pixel179 > 0.615686: angry (3.0/1.0)
|   |   |   |   |   |   |   |   |   |   |   |   |   |   |   |   |   |   |   |   |   |   |   |   |   |   |   |   |   |   |   |   pixel467 > 0.263725
|   |   |   |   |   |   |   |   |   |   |   |   |   |   |   |   |   |   |   |   |   |   |   |   |   |   |   |   |   |   |   |   |   pixel220 <= 0.603922
|   |   |   |   |   |   |   |   |   |   |   |   |   |   |   |   |   |   |   |   |   |   |   |   |   |   |   |   |   |   |   |   |   |   pixel22 <= 0.504902: angry (3.0/1.0)
|   |   |   |   |   |   |   |   |   |   |   |   |   |   |   |   |   |   |   |   |   |   |   |   |   |   |   |   |   |   |   |   |   |   pixel22 > 0.504902: sad (4.0)
|   |   |   |   |   |   |   |   |   |   |   |   |   |   |   |   |   |   |   |   |   |   |   |   |   |   |   |   |   |   |   |   |   pixel220 > 0.603922: angry (9.0)
|   |   |   |   |   |   |   |   |   |   |   |   |   |   |   |   |   |   |   |   |   |   |   |   |   |   |   |   |   pixel307 > 0.821569: fear (3.0)
|   |   |   |   |   |   |   |   |   |   |   |   |   |   |   |   |   |   |   |   |   |   |   |   |   |   |   pixel344 > 0.559804
|   |   |   |   |   |   |   |   |   |   |   |   |   |   |   |   |   |   |   |   |   |   |   |   |   |   |   |   pixel22 <= 0.303922: fear (6.0)
|   |   |   |   |   |   |   |   |   |   |   |   |   |   |   |   |   |   |   |   |   |   |   |   |   |   |   |   pixel22 > 0.303922: angry (3.0/1.0)
|   |   |   |   |   |   |   |   |   |   |   |   |   |   |   |   |   |   |   |   |   |   |   |   |   |   pixel550 > 0.691176: fear (8.0/1.0)
|   |   |   |   |   |   |   |   |   |   |   |   |   |   |   |   |   |   |   |   |   |   |   |   |   pixel344 > 0.597059
|   |   |   |   |   |   |   |   |   |   |   |   |   |   |   |   |   |   |   |   |   |   |   |   |   |   pixel4 <= 0.496078: neutral (4.0/2.0)
|   |   |   |   |   |   |   |   |   |   |   |   |   |   |   |   |   |   |   |   |   |   |   |   |   |   pixel4 > 0.496078: angry (5.0)
|   |   |   |   |   |   |   |   |   |   |   |   |   |   |   |   |   |   |   pixel59 > 0.719608
|   |   |   |   |   |   |   |   |   |   |   |   |   |   |   |   |   |   |   |   pixel356 <= 0.405882
|   |   |   |   |   |   |   |   |   |   |   |   |   |   |   |   |   |   |   |   |   pixel292 <= 0.513725: happy (5.0/2.0)
|   |   |   |   |   |   |   |   |   |   |   |   |   |   |   |   |   |   |   |   |   pixel292 > 0.513725
|   |   |   |   |   |   |   |   |   |   |   |   |   |   |   |   |   |   |   |   |   |   pixel547 <= 0.17451: angry (5.0)
|   |   |   |   |   |   |   |   |   |   |   |   |   |   |   |   |   |   |   |   |   |   pixel547 > 0.17451: neutral (5.0)
|   |   |   |   |   |   |   |   |   |   |   |   |   |   |   |   |   |   |   |   pixel356 > 0.405882
|   |   |   |   |   |   |   |   |   |   |   |   |   |   |   |   |   |   |   |   |   pixel356 <= 0.65: happy (6.0)
|   |   |   |   |   |   |   |   |   |   |   |   |   |   |   |   |   |   |   |   |   pixel356 > 0.65: sad (3.0)
|   |   |   |   |   |   |   |   |   |   |   |   |   |   pixel384 > 0.846078
|   |   |   |   |   |   |   |   |   |   |   |   |   |   |   pixel547 <= 0.079412: happy (3.0/1.0)
|   |   |   |   |   |   |   |   |   |   |   |   |   |   |   pixel547 > 0.079412
|   |   |   |   |   |   |   |   |   |   |   |   |   |   |   |   pixel490 <= 0.190196: suprise (9.0/2.0)
|   |   |   |   |   |   |   |   |   |   |   |   |   |   |   |   pixel490 > 0.190196
|   |   |   |   |   |   |   |   |   |   |   |   |   |   |   |   |   pixel492 <= 0.210784
|   |   |   |   |   |   |   |   |   |   |   |   |   |   |   |   |   |   pixel180 <= 0.571569: neutral (4.0/1.0)
|   |   |   |   |   |   |   |   |   |   |   |   |   |   |   |   |   |   pixel180 > 0.571569: sad (6.0)
|   |   |   |   |   |   |   |   |   |   |   |   |   |   |   |   |   pixel492 > 0.210784: neutral (7.0/1.0)
|   |   |   |   |   |   |   |   |   |   |   pixel468 > 0.473529
|   |   |   |   |   |   |   |   |   |   |   |   pixel566 <= 0.419608
|   |   |   |   |   |   |   |   |   |   |   |   |   pixel131 <= 0.333333
|   |   |   |   |   |   |   |   |   |   |   |   |   |   pixel59 <= 0.340196: sad (5.0)
|   |   |   |   |   |   |   |   |   |   |   |   |   |   pixel59 > 0.340196: happy (4.0/1.0)
|   |   |   |   |   |   |   |   |   |   |   |   |   pixel131 > 0.333333
|   |   |   |   |   |   |   |   |   |   |   |   |   |   pixel515 <= 0.165686
|   |   |   |   |   |   |   |   |   |   |   |   |   |   |   pixel180 <= 0.366667
|   |   |   |   |   |   |   |   |   |   |   |   |   |   |   |   pixel1 <= 0.057843: sad (3.0/1.0)
|   |   |   |   |   |   |   |   |   |   |   |   |   |   |   |   pixel1 > 0.057843: neutral (3.0)
|   |   |   |   |   |   |   |   |   |   |   |   |   |   |   pixel180 > 0.366667: fear (6.0)
|   |   |   |   |   |   |   |   |   |   |   |   |   |   pixel515 > 0.165686
|   |   |   |   |   |   |   |   |   |   |   |   |   |   |   pixel515 <= 0.356863
|   |   |   |   |   |   |   |   |   |   |   |   |   |   |   |   pixel432 <= 0.466667: happy (11.0/2.0)
|   |   |   |   |   |   |   |   |   |   |   |   |   |   |   |   pixel432 > 0.466667: neutral (5.0/2.0)
|   |   |   |   |   |   |   |   |   |   |   |   |   |   |   pixel515 > 0.356863: neutral (13.0/1.0)
|   |   |   |   |   |   |   |   |   |   |   |   pixel566 > 0.419608
|   |   |   |   |   |   |   |   |   |   |   |   |   pixel22 <= 0.25098: happy (3.0)
|   |   |   |   |   |   |   |   |   |   |   |   |   pixel22 > 0.25098: disgust (4.0/2.0)
|   |   |   |   |   |   |   pixel292 > 0.848039
|   |   |   |   |   |   |   |   pixel535 <= 0.052941: disgust (3.0)
|   |   |   |   |   |   |   |   pixel535 > 0.052941
|   |   |   |   |   |   |   |   |   pixel384 <= 0.216667: suprise (7.0/2.0)
|   |   |   |   |   |   |   |   |   pixel384 > 0.216667
|   |   |   |   |   |   |   |   |   |   pixel23 <= 0.109804
|   |   |   |   |   |   |   |   |   |   |   pixel1 <= 0.263725: angry (3.0)
|   |   |   |   |   |   |   |   |   |   |   pixel1 > 0.263725: neutral (4.0/2.0)
|   |   |   |   |   |   |   |   |   |   pixel23 > 0.109804
|   |   |   |   |   |   |   |   |   |   |   pixel469 <= 0.232353: happy (8.0)
|   |   |   |   |   |   |   |   |   |   |   pixel469 > 0.232353: sad (5.0)
|   |   |   |   |   |   pixel552 > 0.937255
|   |   |   |   |   |   |   pixel515 <= 0.288235
|   |   |   |   |   |   |   |   pixel558 <= 0.926471
|   |   |   |   |   |   |   |   |   pixel200 <= 0.392157
|   |   |   |   |   |   |   |   |   |   pixel376 <= 0.223529: happy (5.0/2.0)
|   |   |   |   |   |   |   |   |   |   pixel376 > 0.223529: neutral (13.0)
|   |   |   |   |   |   |   |   |   pixel200 > 0.392157: fear (4.0/1.0)
|   |   |   |   |   |   |   |   pixel558 > 0.926471: happy (4.0/1.0)
|   |   |   |   |   |   |   pixel515 > 0.288235
|   |   |   |   |   |   |   |   pixel204 <= 0.447059: suprise (5.0/1.0)
|   |   |   |   |   |   |   |   pixel204 > 0.447059: disgust (4.0/2.0)
|   |   |   |   pixel563 > 0.321569
|   |   |   |   |   pixel180 <= 0.112745
|   |   |   |   |   |   pixel552 <= 0.662745: sad (15.0/1.0)
|   |   |   |   |   |   pixel552 > 0.662745: angry (5.0/2.0)
|   |   |   |   |   pixel180 > 0.112745
|   |   |   |   |   |   pixel317 <= 0.237255
|   |   |   |   |   |   |   pixel179 <= 0.143137
|   |   |   |   |   |   |   |   pixel225 <= 0.145098: angry (6.0)
|   |   |   |   |   |   |   |   pixel225 > 0.145098: fear (3.0/1.0)
|   |   |   |   |   |   |   pixel179 > 0.143137
|   |   |   |   |   |   |   |   pixel192 <= 0.722549
|   |   |   |   |   |   |   |   |   pixel490 <= 0.276471
|   |   |   |   |   |   |   |   |   |   pixel481 <= 0.735294
|   |   |   |   |   |   |   |   |   |   |   pixel244 <= 0.021569: neutral (3.0/1.0)
|   |   |   |   |   |   |   |   |   |   |   pixel244 > 0.021569
|   |   |   |   |   |   |   |   |   |   |   |   pixel71 <= 0.17451
|   |   |   |   |   |   |   |   |   |   |   |   |   pixel156 <= 0.398039: sad (13.0/1.0)
|   |   |   |   |   |   |   |   |   |   |   |   |   pixel156 > 0.398039
|   |   |   |   |   |   |   |   |   |   |   |   |   |   pixel0 <= 0.187255: sad (3.0/1.0)
|   |   |   |   |   |   |   |   |   |   |   |   |   |   pixel0 > 0.187255: neutral (3.0)
|   |   |   |   |   |   |   |   |   |   |   |   pixel71 > 0.17451
|   |   |   |   |   |   |   |   |   |   |   |   |   pixel179 <= 0.448039
|   |   |   |   |   |   |   |   |   |   |   |   |   |   pixel37 <= 0.248039: fear (4.0)
|   |   |   |   |   |   |   |   |   |   |   |   |   |   pixel37 > 0.248039: sad (6.0)
|   |   |   |   |   |   |   |   |   |   |   |   |   pixel179 > 0.448039: fear (6.0)
|   |   |   |   |   |   |   |   |   |   pixel481 > 0.735294: happy (5.0/3.0)
|   |   |   |   |   |   |   |   |   pixel490 > 0.276471
|   |   |   |   |   |   |   |   |   |   pixel558 <= 0.478431
|   |   |   |   |   |   |   |   |   |   |   pixel424 <= 0.405882: happy (10.0)
|   |   |   |   |   |   |   |   |   |   |   pixel424 > 0.405882: sad (3.0/1.0)
|   |   |   |   |   |   |   |   |   |   pixel558 > 0.478431: sad (7.0)
|   |   |   |   |   |   |   |   pixel192 > 0.722549: happy (5.0)
|   |   |   |   |   |   pixel317 > 0.237255
|   |   |   |   |   |   |   pixel1 <= 0.029412
|   |   |   |   |   |   |   |   pixel59 <= 0.173529: sad (5.0/2.0)
|   |   |   |   |   |   |   |   pixel59 > 0.173529
|   |   |   |   |   |   |   |   |   pixel535 <= 0.20098
|   |   |   |   |   |   |   |   |   |   pixel1 <= 0.007843: angry (3.0/1.0)
|   |   |   |   |   |   |   |   |   |   pixel1 > 0.007843: happy (6.0)
|   |   |   |   |   |   |   |   |   pixel535 > 0.20098
|   |   |   |   |   |   |   |   |   |   pixel424 <= 0.10098: sad (3.0)
|   |   |   |   |   |   |   |   |   |   pixel424 > 0.10098
|   |   |   |   |   |   |   |   |   |   |   pixel384 <= 0.180392: fear (25.0/5.0)
|   |   |   |   |   |   |   |   |   |   |   pixel384 > 0.180392
|   |   |   |   |   |   |   |   |   |   |   |   pixel203 <= 0.47549
|   |   |   |   |   |   |   |   |   |   |   |   |   pixel22 <= 0.135294: happy (3.0)
|   |   |   |   |   |   |   |   |   |   |   |   |   pixel22 > 0.135294: angry (5.0/1.0)
|   |   |   |   |   |   |   |   |   |   |   |   pixel203 > 0.47549: fear (4.0)
|   |   |   |   |   |   |   pixel1 > 0.029412
|   |   |   |   |   |   |   |   pixel567 <= 0.077451
|   |   |   |   |   |   |   |   |   pixel467 <= 0.157843: neutral (4.0/2.0)
|   |   |   |   |   |   |   |   |   pixel467 > 0.157843
|   |   |   |   |   |   |   |   |   |   pixel203 <= 0.598039
|   |   |   |   |   |   |   |   |   |   |   pixel467 <= 0.328431
|   |   |   |   |   |   |   |   |   |   |   |   pixel563 <= 0.510784
|   |   |   |   |   |   |   |   |   |   |   |   |   pixel444 <= 0.138235: angry (3.0/1.0)
|   |   |   |   |   |   |   |   |   |   |   |   |   pixel444 > 0.138235: sad (11.0/1.0)
|   |   |   |   |   |   |   |   |   |   |   |   pixel563 > 0.510784: angry (3.0)
|   |   |   |   |   |   |   |   |   |   |   pixel467 > 0.328431: angry (10.0/1.0)
|   |   |   |   |   |   |   |   |   |   pixel203 > 0.598039
|   |   |   |   |   |   |   |   |   |   |   pixel491 <= 0.414706: neutral (6.0/1.0)
|   |   |   |   |   |   |   |   |   |   |   pixel491 > 0.414706: angry (3.0/1.0)
|   |   |   |   |   |   |   |   pixel567 > 0.077451
|   |   |   |   |   |   |   |   |   pixel491 <= 0.126471
|   |   |   |   |   |   |   |   |   |   pixel522 <= 0.15
|   |   |   |   |   |   |   |   |   |   |   pixel383 <= 0.612745
|   |   |   |   |   |   |   |   |   |   |   |   pixel119 <= 0.183333
|   |   |   |   |   |   |   |   |   |   |   |   |   pixel220 <= 0.481373: angry (6.0)
|   |   |   |   |   |   |   |   |   |   |   |   |   pixel220 > 0.481373: suprise (4.0/2.0)
|   |   |   |   |   |   |   |   |   |   |   |   pixel119 > 0.183333
|   |   |   |   |   |   |   |   |   |   |   |   |   pixel4 <= 0.434314: angry (3.0/1.0)
|   |   |   |   |   |   |   |   |   |   |   |   |   pixel4 > 0.434314: neutral (5.0)
|   |   |   |   |   |   |   |   |   |   |   pixel383 > 0.612745: sad (3.0/1.0)
|   |   |   |   |   |   |   |   |   |   pixel522 > 0.15
|   |   |   |   |   |   |   |   |   |   |   pixel522 <= 0.689216
|   |   |   |   |   |   |   |   |   |   |   |   pixel444 <= 0.17549
|   |   |   |   |   |   |   |   |   |   |   |   |   pixel384 <= 0.587255
|   |   |   |   |   |   |   |   |   |   |   |   |   |   pixel569 <= 0.289216: angry (5.0)
|   |   |   |   |   |   |   |   |   |   |   |   |   |   pixel569 > 0.289216: fear (7.0/1.0)
|   |   |   |   |   |   |   |   |   |   |   |   |   pixel384 > 0.587255: sad (4.0/2.0)
|   |   |   |   |   |   |   |   |   |   |   |   pixel444 > 0.17549
|   |   |   |   |   |   |   |   |   |   |   |   |   pixel522 <= 0.242157: happy (7.0/1.0)
