J48 unpruned tree
------------------

pixel23 <= 0.964706
|   pixel492 <= 0.286275
|   |   pixel368 <= 0.631373
|   |   |   pixel424 <= 0.523529
|   |   |   |   pixel563 <= 0.321569
|   |   |   |   |   pixel468 <= 0.106863
|   |   |   |   |   |   pixel569 <= 0.234314
|   |   |   |   |   |   |   pixel554 <= 0.952941
|   |   |   |   |   |   |   |   pixel37 <= 0.594118
|   |   |   |   |   |   |   |   |   pixel294 <= 0.005882
|   |   |   |   |   |   |   |   |   |   pixel376 <= 0.485294: angry (15.0/5.0)
|   |   |   |   |   |   |   |   |   |   pixel376 > 0.485294: neutral (2.0)
|   |   |   |   |   |   |   |   |   pixel294 > 0.005882
|   |   |   |   |   |   |   |   |   |   pixel376 <= 0.378431
|   |   |   |   |   |   |   |   |   |   |   pixel384 <= 0.019608
|   |   |   |   |   |   |   |   |   |   |   |   pixel155 <= 0.534314
|   |   |   |   |   |   |   |   |   |   |   |   |   pixel455 <= 0.019608
|   |   |   |   |   |   |   |   |   |   |   |   |   |   pixel453 <= 0.002941: sad (4.0)
|   |   |   |   |   |   |   |   |   |   |   |   |   |   pixel453 > 0.002941: happy (3.0)
|   |   |   |   |   |   |   |   |   |   |   |   |   pixel455 > 0.019608: sad (10.0)
|   |   |   |   |   |   |   |   |   |   |   |   pixel155 > 0.534314: angry (2.0/1.0)
|   |   |   |   |   |   |   |   |   |   |   pixel384 > 0.019608
|   |   |   |   |   |   |   |   |   |   |   |   pixel47 <= 0.009804
|   |   |   |   |   |   |   |   |   |   |   |   |   pixel455 <= 0.003922: neutral (3.0/1.0)
|   |   |   |   |   |   |   |   |   |   |   |   |   pixel455 > 0.003922: angry (7.0/1.0)
|   |   |   |   |   |   |   |   |   |   |   |   pixel47 > 0.009804
|   |   |   |   |   |   |   |   |   |   |   |   |   pixel468 <= 0.017647
|   |   |   |   |   |   |   |   |   |   |   |   |   |   pixel383 <= 0.15: angry (6.0)
|   |   |   |   |   |   |   |   |   |   |   |   |   |   pixel383 > 0.15
|   |   |   |   |   |   |   |   |   |   |   |   |   |   |   pixel0 <= 0.157843: fear (2.0/1.0)
|   |   |   |   |   |   |   |   |   |   |   |   |   |   |   pixel0 > 0.157843: suprise (2.0)
|   |   |   |   |   |   |   |   |   |   |   |   |   pixel468 > 0.017647
|   |   |   |   |   |   |   |   |   |   |   |   |   |   pixel468 <= 0.102941
|   |   |   |   |   |   |   |   |   |   |   |   |   |   |   pixel567 <= 0.312745
|   |   |   |   |   |   |   |   |   |   |   |   |   |   |   |   pixel47 <= 0.107843
|   |   |   |   |   |   |   |   |   |   |   |   |   |   |   |   |   pixel466 <= 0.020588: fear (3.0/1.0)
|   |   |   |   |   |   |   |   |   |   |   |   |   |   |   |   |   pixel466 > 0.020588
|   |   |   |   |   |   |   |   |   |   |   |   |   |   |   |   |   |   pixel469 <= 0.041176: sad (10.0/1.0)
|   |   |   |   |   |   |   |   |   |   |   |   |   |   |   |   |   |   pixel469 > 0.041176
|   |   |   |   |   |   |   |   |   |   |   |   |   |   |   |   |   |   |   pixel37 <= 0.489216
|   |   |   |   |   |   |   |   |   |   |   |   |   |   |   |   |   |   |   |   pixel424 <= 0.129412
|   |   |   |   |   |   |   |   |   |   |   |   |   |   |   |   |   |   |   |   |   pixel383 <= 0.244118
|   |   |   |   |   |   |   |   |   |   |   |   |   |   |   |   |   |   |   |   |   |   pixel551 <= 0.002941: sad (2.0)
|   |   |   |   |   |   |   |   |   |   |   |   |   |   |   |   |   |   |   |   |   |   pixel551 > 0.002941: neutral (10.0)
|   |   |   |   |   |   |   |   |   |   |   |   |   |   |   |   |   |   |   |   |   pixel383 > 0.244118: sad (3.0)
|   |   |   |   |   |   |   |   |   |   |   |   |   |   |   |   |   |   |   |   pixel424 > 0.129412
|   |   |   |   |   |   |   |   |   |   |   |   |   |   |   |   |   |   |   |   |   pixel71 <= 0.128431
|   |   |   |   |   |   |   |   |   |   |   |   |   |   |   |   |   |   |   |   |   |   pixel566 <= 0.081373: happy (2.0)
|   |   |   |   |   |   |   |   |   |   |   |   |   |   |   |   |   |   |   |   |   |   pixel566 > 0.081373: sad (9.0)
|   |   |   |   |   |   |   |   |   |   |   |   |   |   |   |   |   |   |   |   |   pixel71 > 0.128431: fear (2.0/1.0)
|   |   |   |   |   |   |   |   |   |   |   |   |   |   |   |   |   |   |   pixel37 > 0.489216: fear (2.0)
|   |   |   |   |   |   |   |   |   |   |   |   |   |   |   |   pixel47 > 0.107843
|   |   |   |   |   |   |   |   |   |   |   |   |   |   |   |   |   pixel24 <= 0.74902
|   |   |   |   |   |   |   |   |   |   |   |   |   |   |   |   |   |   pixel467 <= 0.132353
|   |   |   |   |   |   |   |   |   |   |   |   |   |   |   |   |   |   |   pixel535 <= 0.419608
|   |   |   |   |   |   |   |   |   |   |   |   |   |   |   |   |   |   |   |   pixel468 <= 0.090196
|   |   |   |   |   |   |   |   |   |   |   |   |   |   |   |   |   |   |   |   |   pixel59 <= 0.063725: angry (3.0)
|   |   |   |   |   |   |   |   |   |   |   |   |   |   |   |   |   |   |   |   |   pixel59 > 0.063725
|   |   |   |   |   |   |   |   |   |   |   |   |   |   |   |   |   |   |   |   |   |   pixel24 <= 0.093137
|   |   |   |   |   |   |   |   |   |   |   |   |   |   |   |   |   |   |   |   |   |   |   pixel0 <= 0.066667: sad (3.0)
|   |   |   |   |   |   |   |   |   |   |   |   |   |   |   |   |   |   |   |   |   |   |   pixel0 > 0.066667: angry (3.0)
|   |   |   |   |   |   |   |   |   |   |   |   |   |   |   |   |   |   |   |   |   |   pixel24 > 0.093137
|   |   |   |   |   |   |   |   |   |   |   |   |   |   |   |   |   |   |   |   |   |   |   pixel416 <= 0.1: fear (5.0/1.0)
|   |   |   |   |   |   |   |   |   |   |   |   |   |   |   |   |   |   |   |   |   |   |   pixel416 > 0.1
|   |   |   |   |   |   |   |   |   |   |   |   |   |   |   |   |   |   |   |   |   |   |   |   pixel515 <= 0.222549: sad (13.0)
|   |   |   |   |   |   |   |   |   |   |   |   |   |   |   |   |   |   |   |   |   |   |   |   pixel515 > 0.222549: fear (2.0)
|   |   |   |   |   |   |   |   |   |   |   |   |   |   |   |   |   |   |   |   pixel468 > 0.090196
|   |   |   |   |   |   |   |   |   |   |   |   |   |   |   |   |   |   |   |   |   pixel468 <= 0.096078
|   |   |   |   |   |   |   |   |   |   |   |   |   |   |   |   |   |   |   |   |   |   pixel173 <= 0.169608: fear (2.0/1.0)
|   |   |   |   |   |   |   |   |   |   |   |   |   |   |   |   |   |   |   |   |   |   pixel173 > 0.169608: happy (3.0)
|   |   |   |   |   |   |   |   |   |   |   |   |   |   |   |   |   |   |   |   |   pixel468 > 0.096078: sad (6.0)
|   |   |   |   |   |   |   |   |   |   |   |   |   |   |   |   |   |   |   pixel535 > 0.419608
|   |   |   |   |   |   |   |   |   |   |   |   |   |   |   |   |   |   |   |   pixel0 <= 0.496078: happy (3.0/1.0)
|   |   |   |   |   |   |   |   |   |   |   |   |   |   |   |   |   |   |   |   pixel0 > 0.496078: angry (2.0)
|   |   |   |   |   |   |   |   |   |   |   |   |   |   |   |   |   |   pixel467 > 0.132353
|   |   |   |   |   |   |   |   |   |   |   |   |   |   |   |   |   |   |   pixel367 <= 0.22549: sad (4.0)
|   |   |   |   |   |   |   |   |   |   |   |   |   |   |   |   |   |   |   pixel367 > 0.22549: angry (8.0)
|   |   |   |   |   |   |   |   |   |   |   |   |   |   |   |   |   pixel24 > 0.74902
|   |   |   |   |   |   |   |   |   |   |   |   |   |   |   |   |   |   pixel228 <= 0.356863: sad (2.0)
|   |   |   |   |   |   |   |   |   |   |   |   |   |   |   |   |   |   pixel228 > 0.356863: happy (4.0)
|   |   |   |   |   |   |   |   |   |   |   |   |   |   |   pixel567 > 0.312745: disgust (2.0/1.0)
|   |   |   |   |   |   |   |   |   |   |   |   |   |   pixel468 > 0.102941
|   |   |   |   |   |   |   |   |   |   |   |   |   |   |   pixel47 <= 0.073529: happy (2.0/1.0)
|   |   |   |   |   |   |   |   |   |   |   |   |   |   |   pixel47 > 0.073529
|   |   |   |   |   |   |   |   |   |   |   |   |   |   |   |   pixel22 <= 0.408824: suprise (2.0)
|   |   |   |   |   |   |   |   |   |   |   |   |   |   |   |   pixel22 > 0.408824: angry (2.0/1.0)
|   |   |   |   |   |   |   |   |   |   pixel376 > 0.378431
|   |   |   |   |   |   |   |   |   |   |   pixel180 <= 0.17451
|   |   |   |   |   |   |   |   |   |   |   |   pixel307 <= 0.166667: sad (2.0/1.0)
|   |   |   |   |   |   |   |   |   |   |   |   pixel307 > 0.166667: neutral (4.0)
|   |   |   |   |   |   |   |   |   |   |   pixel180 > 0.17451
|   |   |   |   |   |   |   |   |   |   |   |   pixel155 <= 0.696078: sad (18.0)
|   |   |   |   |   |   |   |   |   |   |   |   pixel155 > 0.696078: fear (2.0/1.0)
|   |   |   |   |   |   |   |   pixel37 > 0.594118
|   |   |   |   |   |   |   |   |   pixel554 <= 0.013725: fear (7.0/1.0)
|   |   |   |   |   |   |   |   |   pixel554 > 0.013725
|   |   |   |   |   |   |   |   |   |   pixel119 <= 0.55098
|   |   |   |   |   |   |   |   |   |   |   pixel23 <= 0.038235
|   |   |   |   |   |   |   |   |   |   |   |   pixel4 <= 0.368627: sad (2.0)
|   |   |   |   |   |   |   |   |   |   |   |   pixel4 > 0.368627: fear (2.0)
|   |   |   |   |   |   |   |   |   |   |   pixel23 > 0.038235
|   |   |   |   |   |   |   |   |   |   |   |   pixel368 <= 0.381373: angry (14.0)
|   |   |   |   |   |   |   |   |   |   |   |   pixel368 > 0.381373
|   |   |   |   |   |   |   |   |   |   |   |   |   pixel59 <= 0.59902: fear (2.0)
|   |   |   |   |   |   |   |   |   |   |   |   |   pixel59 > 0.59902: angry (2.0)
|   |   |   |   |   |   |   |   |   |   pixel119 > 0.55098: sad (4.0/1.0)
|   |   |   |   |   |   |   pixel554 > 0.952941: angry (7.0)
|   |   |   |   |   |   pixel569 > 0.234314
|   |   |   |   |   |   |   pixel468 <= 0.005882
|   |   |   |   |   |   |   |   pixel490 <= 0.238235
|   |   |   |   |   |   |   |   |   pixel131 <= 0.338235: fear (4.0)
|   |   |   |   |   |   |   |   |   pixel131 > 0.338235: angry (12.0/1.0)
|   |   |   |   |   |   |   |   pixel490 > 0.238235: suprise (2.0)
|   |   |   |   |   |   |   pixel468 > 0.005882
|   |   |   |   |   |   |   |   pixel544 <= 0.163725
|   |   |   |   |   |   |   |   |   pixel244 <= 0.030392: sad (2.0)
|   |   |   |   |   |   |   |   |   pixel244 > 0.030392
|   |   |   |   |   |   |   |   |   |   pixel563 <= 0.205882
|   |   |   |   |   |   |   |   |   |   |   pixel490 <= 0.204902
|   |   |   |   |   |   |   |   |   |   |   |   pixel131 <= 0.251961: neutral (3.0)
|   |   |   |   |   |   |   |   |   |   |   |   pixel131 > 0.251961: angry (7.0/1.0)
|   |   |   |   |   |   |   |   |   |   |   pixel490 > 0.204902: happy (2.0)
|   |   |   |   |   |   |   |   |   |   pixel563 > 0.205882: fear (2.0)
|   |   |   |   |   |   |   |   pixel544 > 0.163725
|   |   |   |   |   |   |   |   |   pixel1 <= 0.688235
|   |   |   |   |   |   |   |   |   |   pixel383 <= 0.040196
|   |   |   |   |   |   |   |   |   |   |   pixel383 <= 0.028431: sad (5.0)
|   |   |   |   |   |   |   |   |   |   |   pixel383 > 0.028431: fear (2.0/1.0)
|   |   |   |   |   |   |   |   |   |   pixel383 > 0.040196
|   |   |   |   |   |   |   |   |   |   |   pixel468 <= 0.071569
|   |   |   |   |   |   |   |   |   |   |   |   pixel424 <= 0.132353: sad (5.0)
|   |   |   |   |   |   |   |   |   |   |   |   pixel424 > 0.132353
|   |   |   |   |   |   |   |   |   |   |   |   |   pixel569 <= 0.412745
|   |   |   |   |   |   |   |   |   |   |   |   |   |   pixel401 <= 0.418627
|   |   |   |   |   |   |   |   |   |   |   |   |   |   |   pixel552 <= 0.72451
|   |   |   |   |   |   |   |   |   |   |   |   |   |   |   |   pixel493 <= 0.253922
|   |   |   |   |   |   |   |   |   |   |   |   |   |   |   |   |   pixel22 <= 0.563725: suprise (14.0)
|   |   |   |   |   |   |   |   |   |   |   |   |   |   |   |   |   pixel22 > 0.563725: happy (2.0)
|   |   |   |   |   |   |   |   |   |   |   |   |   |   |   |   pixel493 > 0.253922: fear (2.0)
|   |   |   |   |   |   |   |   |   |   |   |   |   |   |   pixel552 > 0.72451
|   |   |   |   |   |   |   |   |   |   |   |   |   |   |   |   pixel22 <= 0.215686: fear (2.0)
|   |   |   |   |   |   |   |   |   |   |   |   |   |   |   |   pixel22 > 0.215686: happy (3.0)
|   |   |   |   |   |   |   |   |   |   |   |   |   |   pixel401 > 0.418627: sad (4.0/1.0)
|   |   |   |   |   |   |   |   |   |   |   |   |   pixel569 > 0.412745
|   |   |   |   |   |   |   |   |   |   |   |   |   |   pixel453 <= 0.6: fear (8.0/1.0)
|   |   |   |   |   |   |   |   |   |   |   |   |   |   pixel453 > 0.6: sad (4.0)
|   |   |   |   |   |   |   |   |   |   |   pixel468 > 0.071569
|   |   |   |   |   |   |   |   |   |   |   |   pixel294 <= 0.441176
|   |   |   |   |   |   |   |   |   |   |   |   |   pixel344 <= 0.093137: angry (2.0/1.0)
|   |   |   |   |   |   |   |   |   |   |   |   |   pixel344 > 0.093137
|   |   |   |   |   |   |   |   |   |   |   |   |   |   pixel192 <= 0.152941: fear (7.0/1.0)
|   |   |   |   |   |   |   |   |   |   |   |   |   |   pixel192 > 0.152941
|   |   |   |   |   |   |   |   |   |   |   |   |   |   |   pixel292 <= 0.285294
|   |   |   |   |   |   |   |   |   |   |   |   |   |   |   |   pixel344 <= 0.179412: fear (2.0/1.0)
|   |   |   |   |   |   |   |   |   |   |   |   |   |   |   |   pixel344 > 0.179412: happy (5.0)
|   |   |   |   |   |   |   |   |   |   |   |   |   |   |   pixel292 > 0.285294: sad (7.0)
|   |   |   |   |   |   |   |   |   |   |   |   pixel294 > 0.441176
|   |   |   |   |   |   |   |   |   |   |   |   |   pixel4 <= 0.537255
|   |   |   |   |   |   |   |   |   |   |   |   |   |   pixel535 <= 0.388235: angry (6.0)
|   |   |   |   |   |   |   |   |   |   |   |   |   |   pixel535 > 0.388235: fear (7.0/1.0)
|   |   |   |   |   |   |   |   |   |   |   |   |   pixel4 > 0.537255: happy (2.0/1.0)
|   |   |   |   |   |   |   |   |   pixel1 > 0.688235
|   |   |   |   |   |   |   |   |   |   pixel343 <= 0.343137: neutral (2.0/1.0)
|   |   |   |   |   |   |   |   |   |   pixel343 > 0.343137: suprise (9.0/1.0)
|   |   |   |   |   pixel468 > 0.106863
|   |   |   |   |   |   pixel552 <= 0.937255
|   |   |   |   |   |   |   pixel292 <= 0.848039
|   |   |   |   |   |   |   |   pixel400 <= 0.185294
|   |   |   |   |   |   |   |   |   pixel344 <= 0.688235
|   |   |   |   |   |   |   |   |   |   pixel466 <= 0.067647
|   |   |   |   |   |   |   |   |   |   |   pixel444 <= 0.097059: fear (2.0)
|   |   |   |   |   |   |   |   |   |   |   pixel444 > 0.097059
|   |   |   |   |   |   |   |   |   |   |   |   pixel491 <= 0.145098
|   |   |   |   |   |   |   |   |   |   |   |   |   pixel37 <= 0.209804: sad (5.0/1.0)
|   |   |   |   |   |   |   |   |   |   |   |   |   pixel37 > 0.209804: angry (4.0)
|   |   |   |   |   |   |   |   |   |   |   |   pixel491 > 0.145098: suprise (2.0)
|   |   |   |   |   |   |   |   |   |   pixel466 > 0.067647
|   |   |   |   |   |   |   |   |   |   |   pixel424 <= 0.008824
|   |   |   |   |   |   |   |   |   |   |   |   pixel220 <= 0.378431: sad (3.0)
|   |   |   |   |   |   |   |   |   |   |   |   pixel220 > 0.378431: neutral (6.0)
|   |   |   |   |   |   |   |   |   |   |   pixel424 > 0.008824
|   |   |   |   |   |   |   |   |   |   |   |   pixel453 <= 0.001961: angry (6.0/1.0)
|   |   |   |   |   |   |   |   |   |   |   |   pixel453 > 0.001961
|   |   |   |   |   |   |   |   |   |   |   |   |   pixel444 <= 0.05098: sad (7.0/1.0)
|   |   |   |   |   |   |   |   |   |   |   |   |   pixel444 > 0.05098
|   |   |   |   |   |   |   |   |   |   |   |   |   |   pixel415 <= 0.121569
|   |   |   |   |   |   |   |   |   |   |   |   |   |   |   pixel503 <= 0.011765: sad (3.0)
|   |   |   |   |   |   |   |   |   |   |   |   |   |   |   pixel503 > 0.011765
|   |   |   |   |   |   |   |   |   |   |   |   |   |   |   |   pixel220 <= 0.331373
|   |   |   |   |   |   |   |   |   |   |   |   |   |   |   |   |   pixel356 <= 0.445098
|   |   |   |   |   |   |   |   |   |   |   |   |   |   |   |   |   |   pixel344 <= 0.171569: happy (17.0/1.0)
|   |   |   |   |   |   |   |   |   |   |   |   |   |   |   |   |   |   pixel344 > 0.171569
|   |   |   |   |   |   |   |   |   |   |   |   |   |   |   |   |   |   |   pixel131 <= 0.201961: fear (3.0)
|   |   |   |   |   |   |   |   |   |   |   |   |   |   |   |   |   |   |   pixel131 > 0.201961: happy (4.0)
|   |   |   |   |   |   |   |   |   |   |   |   |   |   |   |   |   pixel356 > 0.445098: sad (3.0/1.0)
|   |   |   |   |   |   |   |   |   |   |   |   |   |   |   |   pixel220 > 0.331373
|   |   |   |   |   |   |   |   |   |   |   |   |   |   |   |   |   pixel252 <= 0.306863
|   |   |   |   |   |   |   |   |   |   |   |   |   |   |   |   |   |   pixel59 <= 0.285294: angry (2.0)
|   |   |   |   |   |   |   |   |   |   |   |   |   |   |   |   |   |   pixel59 > 0.285294: sad (2.0)
|   |   |   |   |   |   |   |   |   |   |   |   |   |   |   |   |   pixel252 > 0.306863: fear (3.0)
|   |   |   |   |   |   |   |   |   |   |   |   |   |   pixel415 > 0.121569
|   |   |   |   |   |   |   |   |   |   |   |   |   |   |   pixel356 <= 0.058824
|   |   |   |   |   |   |   |   |   |   |   |   |   |   |   |   pixel544 <= 0.10098
|   |   |   |   |   |   |   |   |   |   |   |   |   |   |   |   |   pixel467 <= 0.222549
|   |   |   |   |   |   |   |   |   |   |   |   |   |   |   |   |   |   pixel179 <= 0.252941: fear (5.0/1.0)
|   |   |   |   |   |   |   |   |   |   |   |   |   |   |   |   |   |   pixel179 > 0.252941: angry (4.0/1.0)
|   |   |   |   |   |   |   |   |   |   |   |   |   |   |   |   |   pixel467 > 0.222549: happy (6.0)
|   |   |   |   |   |   |   |   |   |   |   |   |   |   |   |   pixel544 > 0.10098: neutral (4.0/1.0)
|   |   |   |   |   |   |   |   |   |   |   |   |   |   |   pixel356 > 0.058824
|   |   |   |   |   |   |   |   |   |   |   |   |   |   |   |   pixel384 <= 0.05
|   |   |   |   |   |   |   |   |   |   |   |   |   |   |   |   |   pixel4 <= 0.07451
|   |   |   |   |   |   |   |   |   |   |   |   |   |   |   |   |   |   pixel0 <= 0.030392: happy (4.0)
|   |   |   |   |   |   |   |   |   |   |   |   |   |   |   |   |   |   pixel0 > 0.030392: neutral (2.0/1.0)
|   |   |   |   |   |   |   |   |   |   |   |   |   |   |   |   |   pixel4 > 0.07451
|   |   |   |   |   |   |   |   |   |   |   |   |   |   |   |   |   |   pixel343 <= 0.365686
|   |   |   |   |   |   |   |   |   |   |   |   |   |   |   |   |   |   |   pixel344 <= 0.268627: fear (5.0/1.0)
|   |   |   |   |   |   |   |   |   |   |   |   |   |   |   |   |   |   |   pixel344 > 0.268627: neutral (5.0)
|   |   |   |   |   |   |   |   |   |   |   |   |   |   |   |   |   |   pixel343 > 0.365686: angry (3.0/1.0)
|   |   |   |   |   |   |   |   |   |   |   |   |   |   |   |   pixel384 > 0.05
|   |   |   |   |   |   |   |   |   |   |   |   |   |   |   |   |   pixel468 <= 0.386275
|   |   |   |   |   |   |   |   |   |   |   |   |   |   |   |   |   |   pixel490 <= 0.118627
|   |   |   |   |   |   |   |   |   |   |   |   |   |   |   |   |   |   |   pixel544 <= 0.088235
|   |   |   |   |   |   |   |   |   |   |   |   |   |   |   |   |   |   |   |   pixel490 <= 0.082353: angry (2.0/1.0)
|   |   |   |   |   |   |   |   |   |   |   |   |   |   |   |   |   |   |   |   pixel490 > 0.082353: neutral (3.0)
|   |   |   |   |   |   |   |   |   |   |   |   |   |   |   |   |   |   |   pixel544 > 0.088235
|   |   |   |   |   |   |   |   |   |   |   |   |   |   |   |   |   |   |   |   pixel307 <= 0.101961: neutral (3.0/1.0)
|   |   |   |   |   |   |   |   |   |   |   |   |   |   |   |   |   |   |   |   pixel307 > 0.101961: sad (13.0)
|   |   |   |   |   |   |   |   |   |   |   |   |   |   |   |   |   |   pixel490 > 0.118627
|   |   |   |   |   |   |   |   |   |   |   |   |   |   |   |   |   |   |   pixel0 <= 0.85098
|   |   |   |   |   |   |   |   |   |   |   |   |   |   |   |   |   |   |   |   pixel492 <= 0.27549
|   |   |   |   |   |   |   |   |   |   |   |   |   |   |   |   |   |   |   |   |   pixel522 <= 0.060784
|   |   |   |   |   |   |   |   |   |   |   |   |   |   |   |   |   |   |   |   |   |   pixel558 <= 0.141176: sad (6.0/1.0)
|   |   |   |   |   |   |   |   |   |   |   |   |   |   |   |   |   |   |   |   |   |   pixel558 > 0.141176
|   |   |   |   |   |   |   |   |   |   |   |   |   |   |   |   |   |   |   |   |   |   |   pixel228 <= 0.362745: neutral (6.0)
|   |   |   |   |   |   |   |   |   |   |   |   |   |   |   |   |   |   |   |   |   |   |   pixel228 > 0.362745: sad (2.0/1.0)
|   |   |   |   |   |   |   |   |   |   |   |   |   |   |   |   |   |   |   |   |   pixel522 > 0.060784
|   |   |   |   |   |   |   |   |   |   |   |   |   |   |   |   |   |   |   |   |   |   pixel367 <= 0.483333
|   |   |   |   |   |   |   |   |   |   |   |   |   |   |   |   |   |   |   |   |   |   |   pixel467 <= 0.115686
|   |   |   |   |   |   |   |   |   |   |   |   |   |   |   |   |   |   |   |   |   |   |   |   pixel155 <= 0.207843: happy (3.0)
|   |   |   |   |   |   |   |   |   |   |   |   |   |   |   |   |   |   |   |   |   |   |   |   pixel155 > 0.207843: neutral (3.0/1.0)
|   |   |   |   |   |   |   |   |   |   |   |   |   |   |   |   |   |   |   |   |   |   |   pixel467 > 0.115686
|   |   |   |   |   |   |   |   |   |   |   |   |   |   |   |   |   |   |   |   |   |   |   |   pixel481 <= 0.933333
|   |   |   |   |   |   |   |   |   |   |   |   |   |   |   |   |   |   |   |   |   |   |   |   |   pixel401 <= 0.211765
|   |   |   |   |   |   |   |   |   |   |   |   |   |   |   |   |   |   |   |   |   |   |   |   |   |   pixel401 <= 0.170588
|   |   |   |   |   |   |   |   |   |   |   |   |   |   |   |   |   |   |   |   |   |   |   |   |   |   |   pixel444 <= 0.242157
|   |   |   |   |   |   |   |   |   |   |   |   |   |   |   |   |   |   |   |   |   |   |   |   |   |   |   |   pixel252 <= 0.190196
|   |   |   |   |   |   |   |   |   |   |   |   |   |   |   |   |   |   |   |   |   |   |   |   |   |   |   |   |   pixel22 <= 0.110784: neutral (5.0/2.0)
|   |   |   |   |   |   |   |   |   |   |   |   |   |   |   |   |   |   |   |   |   |   |   |   |   |   |   |   |   pixel22 > 0.110784: happy (10.0/1.0)
|   |   |   |   |   |   |   |   |   |   |   |   |   |   |   |   |   |   |   |   |   |   |   |   |   |   |   |   pixel252 > 0.190196
|   |   |   |   |   |   |   |   |   |   |   |   |   |   |   |   |   |   |   |   |   |   |   |   |   |   |   |   |   pixel544 <= 0.42451
|   |   |   |   |   |   |   |   |   |   |   |   |   |   |   |   |   |   |   |   |   |   |   |   |   |   |   |   |   |   pixel307 <= 0.154902
|   |   |   |   |   |   |   |   |   |   |   |   |   |   |   |   |   |   |   |   |   |   |   |   |   |   |   |   |   |   |   pixel179 <= 0.272549: sad (5.0)
|   |   |   |   |   |   |   |   |   |   |   |   |   |   |   |   |   |   |   |   |   |   |   |   |   |   |   |   |   |   |   pixel179 > 0.272549: happy (3.0)
|   |   |   |   |   |   |   |   |   |   |   |   |   |   |   |   |   |   |   |   |   |   |   |   |   |   |   |   |   |   pixel307 > 0.154902
|   |   |   |   |   |   |   |   |   |   |   |   |   |   |   |   |   |   |   |   |   |   |   |   |   |   |   |   |   |   |   pixel220 <= 0.130392: happy (2.0)
|   |   |   |   |   |   |   |   |   |   |   |   |   |   |   |   |   |   |   |   |   |   |   |   |   |   |   |   |   |   |   pixel220 > 0.130392
|   |   |   |   |   |   |   |   |   |   |   |   |   |   |   |   |   |   |   |   |   |   |   |   |   |   |   |   |   |   |   |   pixel351 <= 0.198039: angry (11.0)
|   |   |   |   |   |   |   |   |   |   |   |   |   |   |   |   |   |   |   |   |   |   |   |   |   |   |   |   |   |   |   |   pixel351 > 0.198039
|   |   |   |   |   |   |   |   |   |   |   |   |   |   |   |   |   |   |   |   |   |   |   |   |   |   |   |   |   |   |   |   |   pixel317 <= 0.418627: sad (7.0/1.0)
|   |   |   |   |   |   |   |   |   |   |   |   |   |   |   |   |   |   |   |   |   |   |   |   |   |   |   |   |   |   |   |   |   pixel317 > 0.418627: angry (4.0)
|   |   |   |   |   |   |   |   |   |   |   |   |   |   |   |   |   |   |   |   |   |   |   |   |   |   |   |   |   pixel544 > 0.42451: happy (5.0)
|   |   |   |   |   |   |   |   |   |   |   |   |   |   |   |   |   |   |   |   |   |   |   |   |   |   |   pixel444 > 0.242157
|   |   |   |   |   |   |   |   |   |   |   |   |   |   |   |   |   |   |   |   |   |   |   |   |   |   |   |   pixel351 <= 0.357843
|   |   |   |   |   |   |   |   |   |   |   |   |   |   |   |   |   |   |   |   |   |   |   |   |   |   |   |   |   pixel225 <= 0.363725: happy (11.0/1.0)
|   |   |   |   |   |   |   |   |   |   |   |   |   |   |   |   |   |   |   |   |   |   |   |   |   |   |   |   |   pixel225 > 0.363725: neutral (7.0/1.0)
|   |   |   |   |   |   |   |   |   |   |   |   |   |   |   |   |   |   |   |   |   |   |   |   |   |   |   |   pixel351 > 0.357843: sad (2.0)
|   |   |   |   |   |   |   |   |   |   |   |   |   |   |   |   |   |   |   |   |   |   |   |   |   |   pixel401 > 0.170588
|   |   |   |   |   |   |   |   |   |   |   |   |   |   |   |   |   |   |   |   |   |   |   |   |   |   |   pixel550 <= 0.316667
|   |   |   |   |   |   |   |   |   |   |   |   |   |   |   |   |   |   |   |   |   |   |   |   |   |   |   |   pixel292 <= 0.384314: sad (10.0/1.0)
|   |   |   |   |   |   |   |   |   |   |   |   |   |   |   |   |   |   |   |   |   |   |   |   |   |   |   |   pixel292 > 0.384314: neutral (4.0)
|   |   |   |   |   |   |   |   |   |   |   |   |   |   |   |   |   |   |   |   |   |   |   |   |   |   |   pixel550 > 0.316667
|   |   |   |   |   |   |   |   |   |   |   |   |   |   |   |   |   |   |   |   |   |   |   |   |   |   |   |   pixel181 <= 0.344118: happy (11.0/2.0)
|   |   |   |   |   |   |   |   |   |   |   |   |   |   |   |   |   |   |   |   |   |   |   |   |   |   |   |   pixel181 > 0.344118: sad (4.0/1.0)
|   |   |   |   |   |   |   |   |   |   |   |   |   |   |   |   |   |   |   |   |   |   |   |   |   pixel401 > 0.211765
|   |   |   |   |   |   |   |   |   |   |   |   |   |   |   |   |   |   |   |   |   |   |   |   |   |   pixel203 <= 0.365686
|   |   |   |   |   |   |   |   |   |   |   |   |   |   |   |   |   |   |   |   |   |   |   |   |   |   |   pixel468 <= 0.157843: angry (4.0)
|   |   |   |   |   |   |   |   |   |   |   |   |   |   |   |   |   |   |   |   |   |   |   |   |   |   |   pixel468 > 0.157843
|   |   |   |   |   |   |   |   |   |   |   |   |   |   |   |   |   |   |   |   |   |   |   |   |   |   |   |   pixel493 <= 0.164706
|   |   |   |   |   |   |   |   |   |   |   |   |   |   |   |   |   |   |   |   |   |   |   |   |   |   |   |   |   pixel59 <= 0.230392: fear (3.0/1.0)
|   |   |   |   |   |   |   |   |   |   |   |   |   |   |   |   |   |   |   |   |   |   |   |   |   |   |   |   |   pixel59 > 0.230392: neutral (6.0/1.0)
|   |   |   |   |   |   |   |   |   |   |   |   |   |   |   |   |   |   |   |   |   |   |   |   |   |   |   |   pixel493 > 0.164706
|   |   |   |   |   |   |   |   |   |   |   |   |   |   |   |   |   |   |   |   |   |   |   |   |   |   |   |   |   pixel131 <= 0.340196: happy (3.0)
|   |   |   |   |   |   |   |   |   |   |   |   |   |   |   |   |   |   |   |   |   |   |   |   |   |   |   |   |   pixel131 > 0.340196: angry (2.0/1.0)
|   |   |   |   |   |   |   |   |   |   |   |   |   |   |   |   |   |   |   |   |   |   |   |   |   |   pixel203 > 0.365686
|   |   |   |   |   |   |   |   |   |   |   |   |   |   |   |   |   |   |   |   |   |   |   |   |   |   |   pixel552 <= 0.285294: sad (5.0/1.0)
|   |   |   |   |   |   |   |   |   |   |   |   |   |   |   |   |   |   |   |   |   |   |   |   |   |   |   pixel552 > 0.285294: angry (6.0)
|   |   |   |   |   |   |   |   |   |   |   |   |   |   |   |   |   |   |   |   |   |   |   |   pixel481 > 0.933333: fear (2.0)
|   |   |   |   |   |   |   |   |   |   |   |   |   |   |   |   |   |   |   |   |   |   pixel367 > 0.483333
|   |   |   |   |   |   |   |   |   |   |   |   |   |   |   |   |   |   |   |   |   |   |   pixel368 <= 0.597059
|   |   |   |   |   |   |   |   |   |   |   |   |   |   |   |   |   |   |   |   |   |   |   |   pixel481 <= 0.305882: neutral (4.0/1.0)
|   |   |   |   |   |   |   |   |   |   |   |   |   |   |   |   |   |   |   |   |   |   |   |   pixel481 > 0.305882: sad (10.0)
|   |   |   |   |   |   |   |   |   |   |   |   |   |   |   |   |   |   |   |   |   |   |   pixel368 > 0.597059: angry (2.0/1.0)
|   |   |   |   |   |   |   |   |   |   |   |   |   |   |   |   |   |   |   |   pixel492 > 0.27549
|   |   |   |   |   |   |   |   |   |   |   |   |   |   |   |   |   |   |   |   |   pixel320 <= 0.304902: sad (4.0)
|   |   |   |   |   |   |   |   |   |   |   |   |   |   |   |   |   |   |   |   |   pixel320 > 0.304902
|   |   |   |   |   |   |   |   |   |   |   |   |   |   |   |   |   |   |   |   |   |   pixel492 <= 0.280392: fear (2.0)
|   |   |   |   |   |   |   |   |   |   |   |   |   |   |   |   |   |   |   |   |   |   pixel492 > 0.280392: neutral (3.0/1.0)
|   |   |   |   |   |   |   |   |   |   |   |   |   |   |   |   |   |   |   pixel0 > 0.85098
|   |   |   |   |   |   |   |   |   |   |   |   |   |   |   |   |   |   |   |   pixel503 <= 0.222549: angry (4.0)
|   |   |   |   |   |   |   |   |   |   |   |   |   |   |   |   |   |   |   |   pixel503 > 0.222549: happy (8.0)
|   |   |   |   |   |   |   |   |   |   |   |   |   |   |   |   |   pixel468 > 0.386275
|   |   |   |   |   |   |   |   |   |   |   |   |   |   |   |   |   |   pixel563 <= 0.078431: fear (2.0/1.0)
|   |   |   |   |   |   |   |   |   |   |   |   |   |   |   |   |   |   pixel563 > 0.078431
|   |   |   |   |   |   |   |   |   |   |   |   |   |   |   |   |   |   |   pixel400 <= 0.154902
|   |   |   |   |   |   |   |   |   |   |   |   |   |   |   |   |   |   |   |   pixel307 <= 0.201961: happy (4.0)
|   |   |   |   |   |   |   |   |   |   |   |   |   |   |   |   |   |   |   |   pixel307 > 0.201961: angry (13.0/2.0)
|   |   |   |   |   |   |   |   |   |   |   |   |   |   |   |   |   |   |   pixel400 > 0.154902: happy (6.0/1.0)
|   |   |   |   |   |   |   |   |   pixel344 > 0.688235
|   |   |   |   |   |   |   |   |   |   pixel0 <= 0.507843: fear (2.0/1.0)
|   |   |   |   |   |   |   |   |   |   pixel0 > 0.507843: sad (5.0/1.0)
|   |   |   |   |   |   |   |   pixel400 > 0.185294
|   |   |   |   |   |   |   |   |   pixel566 <= 0.036275
|   |   |   |   |   |   |   |   |   |   pixel292 <= 0.729412
|   |   |   |   |   |   |   |   |   |   |   pixel244 <= 0.058824
|   |   |   |   |   |   |   |   |   |   |   |   pixel560 <= 0.002941: fear (2.0/1.0)
|   |   |   |   |   |   |   |   |   |   |   |   pixel560 > 0.002941: happy (4.0)
|   |   |   |   |   |   |   |   |   |   |   pixel244 > 0.058824
|   |   |   |   |   |   |   |   |   |   |   |   pixel356 <= 0.227451
|   |   |   |   |   |   |   |   |   |   |   |   |   pixel383 <= 0.378431
|   |   |   |   |   |   |   |   |   |   |   |   |   |   pixel351 <= 0.220588: angry (3.0/1.0)
|   |   |   |   |   |   |   |   |   |   |   |   |   |   pixel351 > 0.220588: sad (13.0)
|   |   |   |   |   |   |   |   |   |   |   |   |   pixel383 > 0.378431: angry (2.0)
|   |   |   |   |   |   |   |   |   |   |   |   pixel356 > 0.227451
|   |   |   |   |   |   |   |   |   |   |   |   |   pixel37 <= 0.048039: suprise (2.0)
|   |   |   |   |   |   |   |   |   |   |   |   |   pixel37 > 0.048039
|   |   |   |   |   |   |   |   |   |   |   |   |   |   pixel515 <= 0.008824: angry (3.0/1.0)
|   |   |   |   |   |   |   |   |   |   |   |   |   |   pixel515 > 0.008824
|   |   |   |   |   |   |   |   |   |   |   |   |   |   |   pixel192 <= 0.152941: fear (8.0)
|   |   |   |   |   |   |   |   |   |   |   |   |   |   |   pixel192 > 0.152941
|   |   |   |   |   |   |   |   |   |   |   |   |   |   |   |   pixel569 <= 0.005882: angry (2.0)
|   |   |   |   |   |   |   |   |   |   |   |   |   |   |   |   pixel569 > 0.005882
|   |   |   |   |   |   |   |   |   |   |   |   |   |   |   |   |   pixel515 <= 0.035294: fear (5.0/1.0)
|   |   |   |   |   |   |   |   |   |   |   |   |   |   |   |   |   pixel515 > 0.035294: sad (8.0/1.0)
|   |   |   |   |   |   |   |   |   |   pixel292 > 0.729412: happy (3.0/1.0)
|   |   |   |   |   |   |   |   |   pixel566 > 0.036275
|   |   |   |   |   |   |   |   |   |   pixel444 <= 0.070588
|   |   |   |   |   |   |   |   |   |   |   pixel491 <= 0.201961
|   |   |   |   |   |   |   |   |   |   |   |   pixel71 <= 0.25
|   |   |   |   |   |   |   |   |   |   |   |   |   pixel1 <= 0.010784: angry (3.0)
|   |   |   |   |   |   |   |   |   |   |   |   |   pixel1 > 0.010784: sad (7.0/1.0)
|   |   |   |   |   |   |   |   |   |   |   |   pixel71 > 0.25
|   |   |   |   |   |   |   |   |   |   |   |   |   pixel515 <= 0.104902: fear (4.0/1.0)
|   |   |   |   |   |   |   |   |   |   |   |   |   pixel515 > 0.104902: angry (5.0)
|   |   |   |   |   |   |   |   |   |   |   pixel491 > 0.201961
|   |   |   |   |   |   |   |   |   |   |   |   pixel294 <= 0.423529: suprise (4.0)
|   |   |   |   |   |   |   |   |   |   |   |   pixel294 > 0.423529: angry (2.0/1.0)
|   |   |   |   |   |   |   |   |   |   pixel444 > 0.070588
|   |   |   |   |   |   |   |   |   |   |   pixel468 <= 0.473529
|   |   |   |   |   |   |   |   |   |   |   |   pixel401 <= 0.162745
|   |   |   |   |   |   |   |   |   |   |   |   |   pixel551 <= 0.729412
|   |   |   |   |   |   |   |   |   |   |   |   |   |   pixel424 <= 0.393137
|   |   |   |   |   |   |   |   |   |   |   |   |   |   |   pixel400 <= 0.258824
|   |   |   |   |   |   |   |   |   |   |   |   |   |   |   |   pixel468 <= 0.131373: fear (3.0)
|   |   |   |   |   |   |   |   |   |   |   |   |   |   |   |   pixel468 > 0.131373
|   |   |   |   |   |   |   |   |   |   |   |   |   |   |   |   |   pixel4 <= 0.123529
|   |   |   |   |   |   |   |   |   |   |   |   |   |   |   |   |   |   pixel312 <= 0.143137: angry (3.0)
|   |   |   |   |   |   |   |   |   |   |   |   |   |   |   |   |   |   pixel312 > 0.143137: fear (3.0)
|   |   |   |   |   |   |   |   |   |   |   |   |   |   |   |   |   pixel4 > 0.123529
|   |   |   |   |   |   |   |   |   |   |   |   |   |   |   |   |   |   pixel119 <= 0.242157
|   |   |   |   |   |   |   |   |   |   |   |   |   |   |   |   |   |   |   pixel225 <= 0.364706: angry (8.0/1.0)
|   |   |   |   |   |   |   |   |   |   |   |   |   |   |   |   |   |   |   pixel225 > 0.364706: sad (4.0/1.0)
|   |   |   |   |   |   |   |   |   |   |   |   |   |   |   |   |   |   pixel119 > 0.242157
|   |   |   |   |   |   |   |   |   |   |   |   |   |   |   |   |   |   |   pixel383 <= 0.381373: happy (6.0/1.0)
|   |   |   |   |   |   |   |   |   |   |   |   |   |   |   |   |   |   |   pixel383 > 0.381373: sad (5.0)
|   |   |   |   |   |   |   |   |   |   |   |   |   |   |   pixel400 > 0.258824: sad (15.0/1.0)
|   |   |   |   |   |   |   |   |   |   |   |   |   |   pixel424 > 0.393137: fear (2.0/1.0)
|   |   |   |   |   |   |   |   |   |   |   |   |   pixel551 > 0.729412: happy (4.0/1.0)
|   |   |   |   |   |   |   |   |   |   |   |   pixel401 > 0.162745
|   |   |   |   |   |   |   |   |   |   |   |   |   pixel220 <= 0.503922
|   |   |   |   |   |   |   |   |   |   |   |   |   |   pixel227 <= 0.610784
|   |   |   |   |   |   |   |   |   |   |   |   |   |   |   pixel569 <= 0.285294
|   |   |   |   |   |   |   |   |   |   |   |   |   |   |   |   pixel131 <= 0.252941
|   |   |   |   |   |   |   |   |   |   |   |   |   |   |   |   |   pixel192 <= 0: fear (3.0)
|   |   |   |   |   |   |   |   |   |   |   |   |   |   |   |   |   pixel192 > 0
|   |   |   |   |   |   |   |   |   |   |   |   |   |   |   |   |   |   pixel252 <= 0.212745
|   |   |   |   |   |   |   |   |   |   |   |   |   |   |   |   |   |   |   pixel312 <= 0.352941
|   |   |   |   |   |   |   |   |   |   |   |   |   |   |   |   |   |   |   |   pixel515 <= 0.25098: sad (16.0/1.0)
|   |   |   |   |   |   |   |   |   |   |   |   |   |   |   |   |   |   |   |   pixel515 > 0.25098: suprise (3.0)
|   |   |   |   |   |   |   |   |   |   |   |   |   |   |   |   |   |   |   pixel312 > 0.352941
|   |   |   |   |   |   |   |   |   |   |   |   |   |   |   |   |   |   |   |   pixel200 <= 0.153922: happy (4.0)
|   |   |   |   |   |   |   |   |   |   |   |   |   |   |   |   |   |   |   |   pixel200 > 0.153922
|   |   |   |   |   |   |   |   |   |   |   |   |   |   |   |   |   |   |   |   |   pixel22 <= 0.336275: sad (2.0)
|   |   |   |   |   |   |   |   |   |   |   |   |   |   |   |   |   |   |   |   |   pixel22 > 0.336275: fear (2.0)
|   |   |   |   |   |   |   |   |   |   |   |   |   |   |   |   |   |   pixel252 > 0.212745
|   |   |   |   |   |   |   |   |   |   |   |   |   |   |   |   |   |   |   pixel560 <= 0.664706
|   |   |   |   |   |   |   |   |   |   |   |   |   |   |   |   |   |   |   |   pixel544 <= 0.023529
|   |   |   |   |   |   |   |   |   |   |   |   |   |   |   |   |   |   |   |   |   pixel368 <= 0.347059: neutral (3.0)
|   |   |   |   |   |   |   |   |   |   |   |   |   |   |   |   |   |   |   |   |   pixel368 > 0.347059: fear (2.0/1.0)
|   |   |   |   |   |   |   |   |   |   |   |   |   |   |   |   |   |   |   |   pixel544 > 0.023529
|   |   |   |   |   |   |   |   |   |   |   |   |   |   |   |   |   |   |   |   |   pixel22 <= 0.40098
|   |   |   |   |   |   |   |   |   |   |   |   |   |   |   |   |   |   |   |   |   |   pixel467 <= 0.1: happy (2.0/1.0)
|   |   |   |   |   |   |   |   |   |   |   |   |   |   |   |   |   |   |   |   |   |   pixel467 > 0.1
|   |   |   |   |   |   |   |   |   |   |   |   |   |   |   |   |   |   |   |   |   |   |   pixel204 <= 0.25
|   |   |   |   |   |   |   |   |   |   |   |   |   |   |   |   |   |   |   |   |   |   |   |   pixel481 <= 0.314706
|   |   |   |   |   |   |   |   |   |   |   |   |   |   |   |   |   |   |   |   |   |   |   |   |   pixel490 <= 0.241176
|   |   |   |   |   |   |   |   |   |   |   |   |   |   |   |   |   |   |   |   |   |   |   |   |   |   pixel481 <= 0.283333
|   |   |   |   |   |   |   |   |   |   |   |   |   |   |   |   |   |   |   |   |   |   |   |   |   |   |   pixel384 <= 0.255882
|   |   |   |   |   |   |   |   |   |   |   |   |   |   |   |   |   |   |   |   |   |   |   |   |   |   |   |   pixel560 <= 0.182353: neutral (7.0)
|   |   |   |   |   |   |   |   |   |   |   |   |   |   |   |   |   |   |   |   |   |   |   |   |   |   |   |   pixel560 > 0.182353
|   |   |   |   |   |   |   |   |   |   |   |   |   |   |   |   |   |   |   |   |   |   |   |   |   |   |   |   |   pixel4 <= 0.095098: angry (3.0)
|   |   |   |   |   |   |   |   |   |   |   |   |   |   |   |   |   |   |   |   |   |   |   |   |   |   |   |   |   pixel4 > 0.095098: neutral (2.0/1.0)
|   |   |   |   |   |   |   |   |   |   |   |   |   |   |   |   |   |   |   |   |   |   |   |   |   |   |   pixel384 > 0.255882: angry (6.0/1.0)
|   |   |   |   |   |   |   |   |   |   |   |   |   |   |   |   |   |   |   |   |   |   |   |   |   |   pixel481 > 0.283333: sad (2.0)
|   |   |   |   |   |   |   |   |   |   |   |   |   |   |   |   |   |   |   |   |   |   |   |   |   pixel490 > 0.241176: sad (6.0)
|   |   |   |   |   |   |   |   |   |   |   |   |   |   |   |   |   |   |   |   |   |   |   |   pixel481 > 0.314706
|   |   |   |   |   |   |   |   |   |   |   |   |   |   |   |   |   |   |   |   |   |   |   |   |   pixel307 <= 0.183333: happy (3.0)
|   |   |   |   |   |   |   |   |   |   |   |   |   |   |   |   |   |   |   |   |   |   |   |   |   pixel307 > 0.183333: neutral (5.0/1.0)
|   |   |   |   |   |   |   |   |   |   |   |   |   |   |   |   |   |   |   |   |   |   |   pixel204 > 0.25
|   |   |   |   |   |   |   |   |   |   |   |   |   |   |   |   |   |   |   |   |   |   |   |   pixel455 <= 0.022549: happy (2.0/1.0)
|   |   |   |   |   |   |   |   |   |   |   |   |   |   |   |   |   |   |   |   |   |   |   |   pixel455 > 0.022549
|   |   |   |   |   |   |   |   |   |   |   |   |   |   |   |   |   |   |   |   |   |   |   |   |   pixel180 <= 0.237255: sad (9.0)
|   |   |   |   |   |   |   |   |   |   |   |   |   |   |   |   |   |   |   |   |   |   |   |   |   pixel180 > 0.237255
|   |   |   |   |   |   |   |   |   |   |   |   |   |   |   |   |   |   |   |   |   |   |   |   |   |   pixel320 <= 0.15098: happy (3.0/1.0)
|   |   |   |   |   |   |   |   |   |   |   |   |   |   |   |   |   |   |   |   |   |   |   |   |   |   pixel320 > 0.15098
|   |   |   |   |   |   |   |   |   |   |   |   |   |   |   |   |   |   |   |   |   |   |   |   |   |   |   pixel481 <= 0.492157
|   |   |   |   |   |   |   |   |   |   |   |   |   |   |   |   |   |   |   |   |   |   |   |   |   |   |   |   pixel0 <= 0.261765: sad (7.0)
|   |   |   |   |   |   |   |   |   |   |   |   |   |   |   |   |   |   |   |   |   |   |   |   |   |   |   |   pixel0 > 0.261765
|   |   |   |   |   |   |   |   |   |   |   |   |   |   |   |   |   |   |   |   |   |   |   |   |   |   |   |   |   pixel0 <= 0.501961: angry (4.0)
|   |   |   |   |   |   |   |   |   |   |   |   |   |   |   |   |   |   |   |   |   |   |   |   |   |   |   |   |   pixel0 > 0.501961: sad (2.0)
|   |   |   |   |   |   |   |   |   |   |   |   |   |   |   |   |   |   |   |   |   |   |   |   |   |   |   pixel481 > 0.492157: angry (6.0)
|   |   |   |   |   |   |   |   |   |   |   |   |   |   |   |   |   |   |   |   |   pixel22 > 0.40098
|   |   |   |   |   |   |   |   |   |   |   |   |   |   |   |   |   |   |   |   |   |   pixel343 <= 0.281373
|   |   |   |   |   |   |   |   |   |   |   |   |   |   |   |   |   |   |   |   |   |   |   pixel181 <= 0.254902: happy (6.0)
|   |   |   |   |   |   |   |   |   |   |   |   |   |   |   |   |   |   |   |   |   |   |   pixel181 > 0.254902: neutral (2.0)
|   |   |   |   |   |   |   |   |   |   |   |   |   |   |   |   |   |   |   |   |   |   pixel343 > 0.281373
|   |   |   |   |   |   |   |   |   |   |   |   |   |   |   |   |   |   |   |   |   |   |   pixel432 <= 0.547059: sad (4.0)
|   |   |   |   |   |   |   |   |   |   |   |   |   |   |   |   |   |   |   |   |   |   |   pixel432 > 0.547059: suprise (3.0/1.0)
|   |   |   |   |   |   |   |   |   |   |   |   |   |   |   |   |   |   |   pixel560 > 0.664706: fear (2.0)
|   |   |   |   |   |   |   |   |   |   |   |   |   |   |   |   pixel131 > 0.252941
|   |   |   |   |   |   |   |   |   |   |   |   |   |   |   |   |   pixel432 <= 0.318627
|   |   |   |   |   |   |   |   |   |   |   |   |   |   |   |   |   |   pixel37 <= 0.082353: neutral (15.0/1.0)
|   |   |   |   |   |   |   |   |   |   |   |   |   |   |   |   |   |   pixel37 > 0.082353
|   |   |   |   |   |   |   |   |   |   |   |   |   |   |   |   |   |   |   pixel344 <= 0.614706
|   |   |   |   |   |   |   |   |   |   |   |   |   |   |   |   |   |   |   |   pixel244 <= 0.467647
|   |   |   |   |   |   |   |   |   |   |   |   |   |   |   |   |   |   |   |   |   pixel490 <= 0.357843
|   |   |   |   |   |   |   |   |   |   |   |   |   |   |   |   |   |   |   |   |   |   pixel515 <= 0.313725
|   |   |   |   |   |   |   |   |   |   |   |   |   |   |   |   |   |   |   |   |   |   |   pixel0 <= 0.573529
|   |   |   |   |   |   |   |   |   |   |   |   |   |   |   |   |   |   |   |   |   |   |   |   pixel4 <= 0.57549
|   |   |   |   |   |   |   |   |   |   |   |   |   |   |   |   |   |   |   |   |   |   |   |   |   pixel469 <= 0.407843
|   |   |   |   |   |   |   |   |   |   |   |   |   |   |   |   |   |   |   |   |   |   |   |   |   |   pixel192 <= 0.417647
|   |   |   |   |   |   |   |   |   |   |   |   |   |   |   |   |   |   |   |   |   |   |   |   |   |   |   pixel547 <= 0.37549
|   |   |   |   |   |   |   |   |   |   |   |   |   |   |   |   |   |   |   |   |   |   |   |   |   |   |   |   pixel4 <= 0.219608
|   |   |   |   |   |   |   |   |   |   |   |   |   |   |   |   |   |   |   |   |   |   |   |   |   |   |   |   |   pixel244 <= 0.27549
|   |   |   |   |   |   |   |   |   |   |   |   |   |   |   |   |   |   |   |   |   |   |   |   |   |   |   |   |   |   pixel567 <= 0.122549
|   |   |   |   |   |   |   |   |   |   |   |   |   |   |   |   |   |   |   |   |   |   |   |   |   |   |   |   |   |   |   pixel192 <= 0.030392: happy (2.0)
|   |   |   |   |   |   |   |   |   |   |   |   |   |   |   |   |   |   |   |   |   |   |   |   |   |   |   |   |   |   |   pixel192 > 0.030392
|   |   |   |   |   |   |   |   |   |   |   |   |   |   |   |   |   |   |   |   |   |   |   |   |   |   |   |   |   |   |   |   pixel4 <= 0.055882: neutral (6.0/1.0)
|   |   |   |   |   |   |   |   |   |   |   |   |   |   |   |   |   |   |   |   |   |   |   |   |   |   |   |   |   |   |   |   pixel4 > 0.055882: sad (6.0/1.0)
|   |   |   |   |   |   |   |   |   |   |   |   |   |   |   |   |   |   |   |   |   |   |   |   |   |   |   |   |   |   pixel567 > 0.122549
|   |   |   |   |   |   |   |   |   |   |   |   |   |   |   |   |   |   |   |   |   |   |   |   |   |   |   |   |   |   |   pixel47 <= 0.452941
|   |   |   |   |   |   |   |   |   |   |   |   |   |   |   |   |   |   |   |   |   |   |   |   |   |   |   |   |   |   |   |   pixel228 <= 0.241176
|   |   |   |   |   |   |   |   |   |   |   |   |   |   |   |   |   |   |   |   |   |   |   |   |   |   |   |   |   |   |   |   |   pixel23 <= 0.102941: sad (6.0)
|   |   |   |   |   |   |   |   |   |   |   |   |   |   |   |   |   |   |   |   |   |   |   |   |   |   |   |   |   |   |   |   |   pixel23 > 0.102941: suprise (5.0)
|   |   |   |   |   |   |   |   |   |   |   |   |   |   |   |   |   |   |   |   |   |   |   |   |   |   |   |   |   |   |   |   pixel228 > 0.241176
|   |   |   |   |   |   |   |   |   |   |   |   |   |   |   |   |   |   |   |   |   |   |   |   |   |   |   |   |   |   |   |   |   pixel490 <= 0.310784
|   |   |   |   |   |   |   |   |   |   |   |   |   |   |   |   |   |   |   |   |   |   |   |   |   |   |   |   |   |   |   |   |   |   pixel173 <= 0.203922
|   |   |   |   |   |   |   |   |   |   |   |   |   |   |   |   |   |   |   |   |   |   |   |   |   |   |   |   |   |   |   |   |   |   |   pixel455 <= 0.182353: sad (12.0)
|   |   |   |   |   |   |   |   |   |   |   |   |   |   |   |   |   |   |   |   |   |   |   |   |   |   |   |   |   |   |   |   |   |   |   pixel455 > 0.182353
|   |   |   |   |   |   |   |   |   |   |   |   |   |   |   |   |   |   |   |   |   |   |   |   |   |   |   |   |   |   |   |   |   |   |   |   pixel4 <= 0.173529: fear (5.0/1.0)
|   |   |   |   |   |   |   |   |   |   |   |   |   |   |   |   |   |   |   |   |   |   |   |   |   |   |   |   |   |   |   |   |   |   |   |   pixel4 > 0.173529: sad (4.0)
|   |   |   |   |   |   |   |   |   |   |   |   |   |   |   |   |   |   |   |   |   |   |   |   |   |   |   |   |   |   |   |   |   |   pixel173 > 0.203922
|   |   |   |   |   |   |   |   |   |   |   |   |   |   |   |   |   |   |   |   |   |   |   |   |   |   |   |   |   |   |   |   |   |   |   pixel227 <= 0.357843
|   |   |   |   |   |   |   |   |   |   |   |   |   |   |   |   |   |   |   |   |   |   |   |   |   |   |   |   |   |   |   |   |   |   |   |   pixel492 <= 0.235294
|   |   |   |   |   |   |   |   |   |   |   |   |   |   |   |   |   |   |   |   |   |   |   |   |   |   |   |   |   |   |   |   |   |   |   |   |   pixel4 <= 0.073529: sad (3.0)
|   |   |   |   |   |   |   |   |   |   |   |   |   |   |   |   |   |   |   |   |   |   |   |   |   |   |   |   |   |   |   |   |   |   |   |   |   pixel4 > 0.073529: neutral (5.0)
|   |   |   |   |   |   |   |   |   |   |   |   |   |   |   |   |   |   |   |   |   |   |   |   |   |   |   |   |   |   |   |   |   |   |   |   pixel492 > 0.235294: fear (2.0)
|   |   |   |   |   |   |   |   |   |   |   |   |   |   |   |   |   |   |   |   |   |   |   |   |   |   |   |   |   |   |   |   |   |   |   pixel227 > 0.357843: angry (2.0)
|   |   |   |   |   |   |   |   |   |   |   |   |   |   |   |   |   |   |   |   |   |   |   |   |   |   |   |   |   |   |   |   |   pixel490 > 0.310784: suprise (2.0)
|   |   |   |   |   |   |   |   |   |   |   |   |   |   |   |   |   |   |   |   |   |   |   |   |   |   |   |   |   |   |   pixel47 > 0.452941: angry (4.0/1.0)
|   |   |   |   |   |   |   |   |   |   |   |   |   |   |   |   |   |   |   |   |   |   |   |   |   |   |   |   |   pixel244 > 0.27549
|   |   |   |   |   |   |   |   |   |   |   |   |   |   |   |   |   |   |   |   |   |   |   |   |   |   |   |   |   |   pixel424 <= 0.277451
|   |   |   |   |   |   |   |   |   |   |   |   |   |   |   |   |   |   |   |   |   |   |   |   |   |   |   |   |   |   |   pixel192 <= 0.197059: fear (4.0)
|   |   |   |   |   |   |   |   |   |   |   |   |   |   |   |   |   |   |   |   |   |   |   |   |   |   |   |   |   |   |   pixel192 > 0.197059: happy (2.0/1.0)
|   |   |   |   |   |   |   |   |   |   |   |   |   |   |   |   |   |   |   |   |   |   |   |   |   |   |   |   |   |   pixel424 > 0.277451
|   |   |   |   |   |   |   |   |   |   |   |   |   |   |   |   |   |   |   |   |   |   |   |   |   |   |   |   |   |   |   pixel173 <= 0.243137
|   |   |   |   |   |   |   |   |   |   |   |   |   |   |   |   |   |   |   |   |   |   |   |   |   |   |   |   |   |   |   |   pixel22 <= 0.070588: neutral (2.0/1.0)
|   |   |   |   |   |   |   |   |   |   |   |   |   |   |   |   |   |   |   |   |   |   |   |   |   |   |   |   |   |   |   |   pixel22 > 0.070588: happy (2.0)
|   |   |   |   |   |   |   |   |   |   |   |   |   |   |   |   |   |   |   |   |   |   |   |   |   |   |   |   |   |   |   pixel173 > 0.243137
|   |   |   |   |   |   |   |   |   |   |   |   |   |   |   |   |   |   |   |   |   |   |   |   |   |   |   |   |   |   |   |   pixel368 <= 0.40098: angry (4.0/1.0)
|   |   |   |   |   |   |   |   |   |   |   |   |   |   |   |   |   |   |   |   |   |   |   |   |   |   |   |   |   |   |   |   pixel368 > 0.40098: neutral (3.0)
|   |   |   |   |   |   |   |   |   |   |   |   |   |   |   |   |   |   |   |   |   |   |   |   |   |   |   |   pixel4 > 0.219608
|   |   |   |   |   |   |   |   |   |   |   |   |   |   |   |   |   |   |   |   |   |   |   |   |   |   |   |   |   pixel22 <= 0.580392
|   |   |   |   |   |   |   |   |   |   |   |   |   |   |   |   |   |   |   |   |   |   |   |   |   |   |   |   |   |   pixel204 <= 0.45098
|   |   |   |   |   |   |   |   |   |   |   |   |   |   |   |   |   |   |   |   |   |   |   |   |   |   |   |   |   |   |   pixel376 <= 0.310784
|   |   |   |   |   |   |   |   |   |   |   |   |   |   |   |   |   |   |   |   |   |   |   |   |   |   |   |   |   |   |   |   pixel400 <= 0.277451
|   |   |   |   |   |   |   |   |   |   |   |   |   |   |   |   |   |   |   |   |   |   |   |   |   |   |   |   |   |   |   |   |   pixel384 <= 0.090196: neutral (2.0)
|   |   |   |   |   |   |   |   |   |   |   |   |   |   |   |   |   |   |   |   |   |   |   |   |   |   |   |   |   |   |   |   |   pixel384 > 0.090196: sad (8.0)
|   |   |   |   |   |   |   |   |   |   |   |   |   |   |   |   |   |   |   |   |   |   |   |   |   |   |   |   |   |   |   |   pixel400 > 0.277451
|   |   |   |   |   |   |   |   |   |   |   |   |   |   |   |   |   |   |   |   |   |   |   |   |   |   |   |   |   |   |   |   |   pixel551 <= 0.071569: angry (2.0/1.0)
|   |   |   |   |   |   |   |   |   |   |   |   |   |   |   |   |   |   |   |   |   |   |   |   |   |   |   |   |   |   |   |   |   pixel551 > 0.071569: happy (4.0)
|   |   |   |   |   |   |   |   |   |   |   |   |   |   |   |   |   |   |   |   |   |   |   |   |   |   |   |   |   |   |   pixel376 > 0.310784
|   |   |   |   |   |   |   |   |   |   |   |   |   |   |   |   |   |   |   |   |   |   |   |   |   |   |   |   |   |   |   |   pixel22 <= 0.188235: sad (3.0/1.0)
|   |   |   |   |   |   |   |   |   |   |   |   |   |   |   |   |   |   |   |   |   |   |   |   |   |   |   |   |   |   |   |   pixel22 > 0.188235: angry (8.0)
|   |   |   |   |   |   |   |   |   |   |   |   |   |   |   |   |   |   |   |   |   |   |   |   |   |   |   |   |   |   pixel204 > 0.45098
|   |   |   |   |   |   |   |   |   |   |   |   |   |   |   |   |   |   |   |   |   |   |   |   |   |   |   |   |   |   |   pixel4 <= 0.407843: happy (4.0)
|   |   |   |   |   |   |   |   |   |   |   |   |   |   |   |   |   |   |   |   |   |   |   |   |   |   |   |   |   |   |   pixel4 > 0.407843: neutral (4.0/1.0)
|   |   |   |   |   |   |   |   |   |   |   |   |   |   |   |   |   |   |   |   |   |   |   |   |   |   |   |   |   pixel22 > 0.580392: sad (8.0)
|   |   |   |   |   |   |   |   |   |   |   |   |   |   |   |   |   |   |   |   |   |   |   |   |   |   |   pixel547 > 0.37549
|   |   |   |   |   |   |   |   |   |   |   |   |   |   |   |   |   |   |   |   |   |   |   |   |   |   |   |   pixel491 <= 0.211765: neutral (4.0)
|   |   |   |   |   |   |   |   |   |   |   |   |   |   |   |   |   |   |   |   |   |   |   |   |   |   |   |   pixel491 > 0.211765: happy (4.0)
|   |   |   |   |   |   |   |   |   |   |   |   |   |   |   |   |   |   |   |   |   |   |   |   |   |   pixel192 > 0.417647
|   |   |   |   |   |   |   |   |   |   |   |   |   |   |   |   |   |   |   |   |   |   |   |   |   |   |   pixel22 <= 0.336275: fear (3.0/1.0)
|   |   |   |   |   |   |   |   |   |   |   |   |   |   |   |   |   |   |   |   |   |   |   |   |   |   |   pixel22 > 0.336275: sad (10.0)
|   |   |   |   |   |   |   |   |   |   |   |   |   |   |   |   |   |   |   |   |   |   |   |   |   pixel469 > 0.407843
|   |   |   |   |   |   |   |   |   |   |   |   |   |   |   |   |   |   |   |   |   |   |   |   |   |   pixel384 <= 0.133333: neutral (5.0)
|   |   |   |   |   |   |   |   |   |   |   |   |   |   |   |   |   |   |   |   |   |   |   |   |   |   pixel384 > 0.133333: angry (2.0/1.0)
|   |   |   |   |   |   |   |   |   |   |   |   |   |   |   |   |   |   |   |   |   |   |   |   pixel4 > 0.57549: fear (4.0)
|   |   |   |   |   |   |   |   |   |   |   |   |   |   |   |   |   |   |   |   |   |   |   pixel0 > 0.573529
|   |   |   |   |   |   |   |   |   |   |   |   |   |   |   |   |   |   |   |   |   |   |   |   pixel227 <= 0.297059: neutral (13.0/1.0)
|   |   |   |   |   |   |   |   |   |   |   |   |   |   |   |   |   |   |   |   |   |   |   |   pixel227 > 0.297059
|   |   |   |   |   |   |   |   |   |   |   |   |   |   |   |   |   |   |   |   |   |   |   |   |   pixel401 <= 0.287255: happy (6.0/1.0)
|   |   |   |   |   |   |   |   |   |   |   |   |   |   |   |   |   |   |   |   |   |   |   |   |   pixel401 > 0.287255: sad (4.0)
|   |   |   |   |   |   |   |   |   |   |   |   |   |   |   |   |   |   |   |   |   |   pixel515 > 0.313725
|   |   |   |   |   |   |   |   |   |   |   |   |   |   |   |   |   |   |   |   |   |   |   pixel37 <= 0.235294: happy (4.0/1.0)
|   |   |   |   |   |   |   |   |   |   |   |   |   |   |   |   |   |   |   |   |   |   |   pixel37 > 0.235294
|   |   |   |   |   |   |   |   |   |   |   |   |   |   |   |   |   |   |   |   |   |   |   |   pixel466 <= 0.177451: sad (5.0)
|   |   |   |   |   |   |   |   |   |   |   |   |   |   |   |   |   |   |   |   |   |   |   |   pixel466 > 0.177451
|   |   |   |   |   |   |   |   |   |   |   |   |   |   |   |   |   |   |   |   |   |   |   |   |   pixel37 <= 0.670588
|   |   |   |   |   |   |   |   |   |   |   |   |   |   |   |   |   |   |   |   |   |   |   |   |   |   pixel200 <= 0.110784: sad (4.0/1.0)
|   |   |   |   |   |   |   |   |   |   |   |   |   |   |   |   |   |   |   |   |   |   |   |   |   |   pixel200 > 0.110784
|   |   |   |   |   |   |   |   |   |   |   |   |   |   |   |   |   |   |   |   |   |   |   |   |   |   |   pixel400 <= 0.487255: neutral (28.0/1.0)
|   |   |   |   |   |   |   |   |   |   |   |   |   |   |   |   |   |   |   |   |   |   |   |   |   |   |   pixel400 > 0.487255: fear (2.0/1.0)
|   |   |   |   |   |   |   |   |   |   |   |   |   |   |   |   |   |   |   |   |   |   |   |   |   pixel37 > 0.670588: sad (3.0/1.0)
|   |   |   |   |   |   |   |   |   |   |   |   |   |   |   |   |   |   |   |   |   pixel490 > 0.357843
|   |   |   |   |   |   |   |   |   |   |   |   |   |   |   |   |   |   |   |   |   |   pixel554 <= 0.170588: disgust (3.0/1.0)
|   |   |   |   |   |   |   |   |   |   |   |   |   |   |   |   |   |   |   |   |   |   pixel554 > 0.170588: neutral (4.0/1.0)
|   |   |   |   |   |   |   |   |   |   |   |   |   |   |   |   |   |   |   |   pixel244 > 0.467647
|   |   |   |   |   |   |   |   |   |   |   |   |   |   |   |   |   |   |   |   |   pixel312 <= 0.467647
|   |   |   |   |   |   |   |   |   |   |   |   |   |   |   |   |   |   |   |   |   |   pixel131 <= 0.369608: angry (3.0/1.0)
|   |   |   |   |   |   |   |   |   |   |   |   |   |   |   |   |   |   |   |   |   |   pixel131 > 0.369608
|   |   |   |   |   |   |   |   |   |   |   |   |   |   |   |   |   |   |   |   |   |   |   pixel244 <= 0.489216: angry (3.0/1.0)
|   |   |   |   |   |   |   |   |   |   |   |   |   |   |   |   |   |   |   |   |   |   |   pixel244 > 0.489216: sad (9.0)
|   |   |   |   |   |   |   |   |   |   |   |   |   |   |   |   |   |   |   |   |   pixel312 > 0.467647
|   |   |   |   |   |   |   |   |   |   |   |   |   |   |   |   |   |   |   |   |   |   pixel22 <= 0.605882: fear (3.0)
|   |   |   |   |   |   |   |   |   |   |   |   |   |   |   |   |   |   |   |   |   |   pixel22 > 0.605882: angry (2.0/1.0)
|   |   |   |   |   |   |   |   |   |   |   |   |   |   |   |   |   |   |   pixel344 > 0.614706: sad (10.0)
|   |   |   |   |   |   |   |   |   |   |   |   |   |   |   |   |   pixel432 > 0.318627
|   |   |   |   |   |   |   |   |   |   |   |   |   |   |   |   |   |   pixel490 <= 0.459804
|   |   |   |   |   |   |   |   |   |   |   |   |   |   |   |   |   |   |   pixel351 <= 0.610784
|   |   |   |   |   |   |   |   |   |   |   |   |   |   |   |   |   |   |   |   pixel481 <= 0.915686
|   |   |   |   |   |   |   |   |   |   |   |   |   |   |   |   |   |   |   |   |   pixel307 <= 0.559804
|   |   |   |   |   |   |   |   |   |   |   |   |   |   |   |   |   |   |   |   |   |   pixel455 <= 0.152941
|   |   |   |   |   |   |   |   |   |   |   |   |   |   |   |   |   |   |   |   |   |   |   pixel493 <= 0.255882
|   |   |   |   |   |   |   |   |   |   |   |   |   |   |   |   |   |   |   |   |   |   |   |   pixel467 <= 0.167647: happy (3.0/1.0)
|   |   |   |   |   |   |   |   |   |   |   |   |   |   |   |   |   |   |   |   |   |   |   |   pixel467 > 0.167647
|   |   |   |   |   |   |   |   |   |   |   |   |   |   |   |   |   |   |   |   |   |   |   |   |   pixel312 <= 0.62549
|   |   |   |   |   |   |   |   |   |   |   |   |   |   |   |   |   |   |   |   |   |   |   |   |   |   pixel244 <= 0.383333
|   |   |   |   |   |   |   |   |   |   |   |   |   |   |   |   |   |   |   |   |   |   |   |   |   |   |   pixel173 <= 0.255882: neutral (2.0)
|   |   |   |   |   |   |   |   |   |   |   |   |   |   |   |   |   |   |   |   |   |   |   |   |   |   |   pixel173 > 0.255882: sad (4.0)
|   |   |   |   |   |   |   |   |   |   |   |   |   |   |   |   |   |   |   |   |   |   |   |   |   |   pixel244 > 0.383333: neutral (8.0)
|   |   |   |   |   |   |   |   |   |   |   |   |   |   |   |   |   |   |   |   |   |   |   |   |   pixel312 > 0.62549: sad (5.0)
|   |   |   |   |   |   |   |   |   |   |   |   |   |   |   |   |   |   |   |   |   |   |   pixel493 > 0.255882
|   |   |   |   |   |   |   |   |   |   |   |   |   |   |   |   |   |   |   |   |   |   |   |   pixel203 <= 0.388235: suprise (3.0/1.0)
|   |   |   |   |   |   |   |   |   |   |   |   |   |   |   |   |   |   |   |   |   |   |   |   pixel203 > 0.388235: angry (3.0/2.0)
|   |   |   |   |   |   |   |   |   |   |   |   |   |   |   |   |   |   |   |   |   |   pixel455 > 0.152941
|   |   |   |   |   |   |   |   |   |   |   |   |   |   |   |   |   |   |   |   |   |   |   pixel391 <= 0.180392
|   |   |   |   |   |   |   |   |   |   |   |   |   |   |   |   |   |   |   |   |   |   |   |   pixel312 <= 0.538235
|   |   |   |   |   |   |   |   |   |   |   |   |   |   |   |   |   |   |   |   |   |   |   |   |   pixel383 <= 0.393137
|   |   |   |   |   |   |   |   |   |   |   |   |   |   |   |   |   |   |   |   |   |   |   |   |   |   pixel24 <= 0.385294: happy (3.0)
|   |   |   |   |   |   |   |   |   |   |   |   |   |   |   |   |   |   |   |   |   |   |   |   |   |   pixel24 > 0.385294: angry (3.0)
|   |   |   |   |   |   |   |   |   |   |   |   |   |   |   |   |   |   |   |   |   |   |   |   |   pixel383 > 0.393137: neutral (5.0/1.0)
|   |   |   |   |   |   |   |   |   |   |   |   |   |   |   |   |   |   |   |   |   |   |   |   pixel312 > 0.538235: fear (2.0/1.0)
|   |   |   |   |   |   |   |   |   |   |   |   |   |   |   |   |   |   |   |   |   |   |   pixel391 > 0.180392
|   |   |   |   |   |   |   |   |   |   |   |   |   |   |   |   |   |   |   |   |   |   |   |   pixel344 <= 0.60098
|   |   |   |   |   |   |   |   |   |   |   |   |   |   |   |   |   |   |   |   |   |   |   |   |   pixel515 <= 0.307843
|   |   |   |   |   |   |   |   |   |   |   |   |   |   |   |   |   |   |   |   |   |   |   |   |   |   pixel292 <= 0.338235
|   |   |   |   |   |   |   |   |   |   |   |   |   |   |   |   |   |   |   |   |   |   |   |   |   |   |   pixel343 <= 0.118627: angry (2.0)
|   |   |   |   |   |   |   |   |   |   |   |   |   |   |   |   |   |   |   |   |   |   |   |   |   |   |   pixel343 > 0.118627
|   |   |   |   |   |   |   |   |   |   |   |   |   |   |   |   |   |   |   |   |   |   |   |   |   |   |   |   pixel225 <= 0.122549
|   |   |   |   |   |   |   |   |   |   |   |   |   |   |   |   |   |   |   |   |   |   |   |   |   |   |   |   |   pixel0 <= 0.478431: neutral (3.0)
|   |   |   |   |   |   |   |   |   |   |   |   |   |   |   |   |   |   |   |   |   |   |   |   |   |   |   |   |   pixel0 > 0.478431: disgust (2.0)
|   |   |   |   |   |   |   |   |   |   |   |   |   |   |   |   |   |   |   |   |   |   |   |   |   |   |   |   pixel225 > 0.122549
|   |   |   |   |   |   |   |   |   |   |   |   |   |   |   |   |   |   |   |   |   |   |   |   |   |   |   |   |   pixel4 <= 0.25: neutral (29.0)
|   |   |   |   |   |   |   |   |   |   |   |   |   |   |   |   |   |   |   |   |   |   |   |   |   |   |   |   |   pixel4 > 0.25
|   |   |   |   |   |   |   |   |   |   |   |   |   |   |   |   |   |   |   |   |   |   |   |   |   |   |   |   |   |   pixel294 <= 0.276471: angry (4.0/1.0)
|   |   |   |   |   |   |   |   |   |   |   |   |   |   |   |   |   |   |   |   |   |   |   |   |   |   |   |   |   |   pixel294 > 0.276471: neutral (7.0)
|   |   |   |   |   |   |   |   |   |   |   |   |   |   |   |   |   |   |   |   |   |   |   |   |   |   pixel292 > 0.338235
|   |   |   |   |   |   |   |   |   |   |   |   |   |   |   |   |   |   |   |   |   |   |   |   |   |   |   pixel343 <= 0.233333: happy (3.0/1.0)
|   |   |   |   |   |   |   |   |   |   |   |   |   |   |   |   |   |   |   |   |   |   |   |   |   |   |   pixel343 > 0.233333
|   |   |   |   |   |   |   |   |   |   |   |   |   |   |   |   |   |   |   |   |   |   |   |   |   |   |   |   pixel59 <= 0.192157: angry (4.0)
|   |   |   |   |   |   |   |   |   |   |   |   |   |   |   |   |   |   |   |   |   |   |   |   |   |   |   |   pixel59 > 0.192157
|   |   |   |   |   |   |   |   |   |   |   |   |   |   |   |   |   |   |   |   |   |   |   |   |   |   |   |   |   pixel23 <= 0.168627: sad (6.0/1.0)
|   |   |   |   |   |   |   |   |   |   |   |   |   |   |   |   |   |   |   |   |   |   |   |   |   |   |   |   |   pixel23 > 0.168627
|   |   |   |   |   |   |   |   |   |   |   |   |   |   |   |   |   |   |   |   |   |   |   |   |   |   |   |   |   |   pixel444 <= 0.341176
|   |   |   |   |   |   |   |   |   |   |   |   |   |   |   |   |   |   |   |   |   |   |   |   |   |   |   |   |   |   |   pixel416 <= 0.296078
|   |   |   |   |   |   |   |   |   |   |   |   |   |   |   |   |   |   |   |   |   |   |   |   |   |   |   |   |   |   |   |   pixel225 <= 0.181373: angry (3.0)
|   |   |   |   |   |   |   |   |   |   |   |   |   |   |   |   |   |   |   |   |   |   |   |   |   |   |   |   |   |   |   |   pixel225 > 0.181373: neutral (4.0/1.0)
|   |   |   |   |   |   |   |   |   |   |   |   |   |   |   |   |   |   |   |   |   |   |   |   |   |   |   |   |   |   |   pixel416 > 0.296078
|   |   |   |   |   |   |   |   |   |   |   |   |   |   |   |   |   |   |   |   |   |   |   |   |   |   |   |   |   |   |   |   pixel566 <= 0.293137: neutral (16.0)
|   |   |   |   |   |   |   |   |   |   |   |   |   |   |   |   |   |   |   |   |   |   |   |   |   |   |   |   |   |   |   |   pixel566 > 0.293137: sad (3.0/1.0)
|   |   |   |   |   |   |   |   |   |   |   |   |   |   |   |   |   |   |   |   |   |   |   |   |   |   |   |   |   |   pixel444 > 0.341176: angry (4.0/1.0)
|   |   |   |   |   |   |   |   |   |   |   |   |   |   |   |   |   |   |   |   |   |   |   |   |   pixel515 > 0.307843
|   |   |   |   |   |   |   |   |   |   |   |   |   |   |   |   |   |   |   |   |   |   |   |   |   |   pixel535 <= 0.378431: neutral (39.0/1.0)
|   |   |   |   |   |   |   |   |   |   |   |   |   |   |   |   |   |   |   |   |   |   |   |   |   |   pixel535 > 0.378431: disgust (2.0/1.0)
|   |   |   |   |   |   |   |   |   |   |   |   |   |   |   |   |   |   |   |   |   |   |   |   pixel344 > 0.60098: sad (3.0/1.0)
|   |   |   |   |   |   |   |   |   |   |   |   |   |   |   |   |   |   |   |   |   pixel307 > 0.559804
|   |   |   |   |   |   |   |   |   |   |   |   |   |   |   |   |   |   |   |   |   |   pixel550 <= 0.470588
|   |   |   |   |   |   |   |   |   |   |   |   |   |   |   |   |   |   |   |   |   |   |   pixel468 <= 0.266667
|   |   |   |   |   |   |   |   |   |   |   |   |   |   |   |   |   |   |   |   |   |   |   |   pixel48 <= 0.314706: happy (2.0)
|   |   |   |   |   |   |   |   |   |   |   |   |   |   |   |   |   |   |   |   |   |   |   |   pixel48 > 0.314706: fear (4.0)
|   |   |   |   |   |   |   |   |   |   |   |   |   |   |   |   |   |   |   |   |   |   |   pixel468 > 0.266667: sad (3.0)
|   |   |   |   |   |   |   |   |   |   |   |   |   |   |   |   |   |   |   |   |   |   pixel550 > 0.470588
|   |   |   |   |   |   |   |   |   |   |   |   |   |   |   |   |   |   |   |   |   |   |   pixel0 <= 0.534314: neutral (3.0)
|   |   |   |   |   |   |   |   |   |   |   |   |   |   |   |   |   |   |   |   |   |   |   pixel0 > 0.534314: angry (3.0)
|   |   |   |   |   |   |   |   |   |   |   |   |   |   |   |   |   |   |   |   pixel481 > 0.915686
|   |   |   |   |   |   |   |   |   |   |   |   |   |   |   |   |   |   |   |   |   pixel252 <= 0.412745: angry (5.0/1.0)
|   |   |   |   |   |   |   |   |   |   |   |   |   |   |   |   |   |   |   |   |   pixel252 > 0.412745: sad (3.0)
|   |   |   |   |   |   |   |   |   |   |   |   |   |   |   |   |   |   |   pixel351 > 0.610784
|   |   |   |   |   |   |   |   |   |   |   |   |   |   |   |   |   |   |   |   pixel351 <= 0.72549
|   |   |   |   |   |   |   |   |   |   |   |   |   |   |   |   |   |   |   |   |   pixel155 <= 0.576471: suprise (4.0/1.0)
|   |   |   |   |   |   |   |   |   |   |   |   |   |   |   |   |   |   |   |   |   pixel155 > 0.576471: fear (2.0/1.0)
|   |   |   |   |   |   |   |   |   |   |   |   |   |   |   |   |   |   |   |   pixel351 > 0.72549: sad (2.0)
|   |   |   |   |   |   |   |   |   |   |   |   |   |   |   |   |   |   pixel490 > 0.459804: happy (5.0/1.0)
|   |   |   |   |   |   |   |   |   |   |   |   |   |   |   pixel569 > 0.285294
|   |   |   |   |   |   |   |   |   |   |   |   |   |   |   |   pixel292 <= 0.077451
|   |   |   |   |   |   |   |   |   |   |   |   |   |   |   |   |   pixel490 <= 0.203922
|   |   |   |   |   |   |   |   |   |   |   |   |   |   |   |   |   |   pixel522 <= 0.406863: angry (3.0/1.0)
|   |   |   |   |   |   |   |   |   |   |   |   |   |   |   |   |   |   pixel522 > 0.406863: neutral (5.0)
|   |   |   |   |   |   |   |   |   |   |   |   |   |   |   |   |   pixel490 > 0.203922: disgust (5.0/1.0)
|   |   |   |   |   |   |   |   |   |   |   |   |   |   |   |   pixel292 > 0.077451
|   |   |   |   |   |   |   |   |   |   |   |   |   |   |   |   |   pixel24 <= 0.916667
|   |   |   |   |   |   |   |   |   |   |   |   |   |   |   |   |   |   pixel179 <= 0.127451
|   |   |   |   |   |   |   |   |   |   |   |   |   |   |   |   |   |   |   pixel192 <= 0.489216: sad (12.0/2.0)
|   |   |   |   |   |   |   |   |   |   |   |   |   |   |   |   |   |   |   pixel192 > 0.489216: neutral (2.0)
|   |   |   |   |   |   |   |   |   |   |   |   |   |   |   |   |   |   pixel179 > 0.127451
|   |   |   |   |   |   |   |   |   |   |   |   |   |   |   |   |   |   |   pixel244 <= 0.064706
|   |   |   |   |   |   |   |   |   |   |   |   |   |   |   |   |   |   |   |   pixel179 <= 0.329412
|   |   |   |   |   |   |   |   |   |   |   |   |   |   |   |   |   |   |   |   |   pixel351 <= 0.423529: fear (3.0)
|   |   |   |   |   |   |   |   |   |   |   |   |   |   |   |   |   |   |   |   |   pixel351 > 0.423529: neutral (5.0)
|   |   |   |   |   |   |   |   |   |   |   |   |   |   |   |   |   |   |   |   pixel179 > 0.329412: angry (5.0)
|   |   |   |   |   |   |   |   |   |   |   |   |   |   |   |   |   |   |   pixel244 > 0.064706
|   |   |   |   |   |   |   |   |   |   |   |   |   |   |   |   |   |   |   |   pixel225 <= 0.107843
|   |   |   |   |   |   |   |   |   |   |   |   |   |   |   |   |   |   |   |   |   pixel0 <= 0.24902
|   |   |   |   |   |   |   |   |   |   |   |   |   |   |   |   |   |   |   |   |   |   pixel294 <= 0.42549: sad (9.0/1.0)
|   |   |   |   |   |   |   |   |   |   |   |   |   |   |   |   |   |   |   |   |   |   pixel294 > 0.42549: angry (2.0)
|   |   |   |   |   |   |   |   |   |   |   |   |   |   |   |   |   |   |   |   |   pixel0 > 0.24902
|   |   |   |   |   |   |   |   |   |   |   |   |   |   |   |   |   |   |   |   |   |   pixel131 <= 0.431373: angry (4.0)
|   |   |   |   |   |   |   |   |   |   |   |   |   |   |   |   |   |   |   |   |   |   pixel131 > 0.431373: disgust (2.0/1.0)
|   |   |   |   |   |   |   |   |   |   |   |   |   |   |   |   |   |   |   |   pixel225 > 0.107843
|   |   |   |   |   |   |   |   |   |   |   |   |   |   |   |   |   |   |   |   |   pixel200 <= 0.098039
|   |   |   |   |   |   |   |   |   |   |   |   |   |   |   |   |   |   |   |   |   |   pixel356 <= 0.287255: fear (5.0/1.0)
|   |   |   |   |   |   |   |   |   |   |   |   |   |   |   |   |   |   |   |   |   |   pixel356 > 0.287255: sad (11.0/1.0)
|   |   |   |   |   |   |   |   |   |   |   |   |   |   |   |   |   |   |   |   |   pixel200 > 0.098039
|   |   |   |   |   |   |   |   |   |   |   |   |   |   |   |   |   |   |   |   |   |   pixel400 <= 0.222549
|   |   |   |   |   |   |   |   |   |   |   |   |   |   |   |   |   |   |   |   |   |   |   pixel200 <= 0.290196: happy (7.0/1.0)
|   |   |   |   |   |   |   |   |   |   |   |   |   |   |   |   |   |   |   |   |   |   |   pixel200 > 0.290196: angry (4.0)
|   |   |   |   |   |   |   |   |   |   |   |   |   |   |   |   |   |   |   |   |   |   pixel400 > 0.222549
|   |   |   |   |   |   |   |   |   |   |   |   |   |   |   |   |   |   |   |   |   |   |   pixel490 <= 0.046078: happy (4.0/1.0)
|   |   |   |   |   |   |   |   |   |   |   |   |   |   |   |   |   |   |   |   |   |   |   pixel490 > 0.046078
|   |   |   |   |   |   |   |   |   |   |   |   |   |   |   |   |   |   |   |   |   |   |   |   pixel432 <= 0.035294
|   |   |   |   |   |   |   |   |   |   |   |   |   |   |   |   |   |   |   |   |   |   |   |   |   pixel515 <= 0.252941
|   |   |   |   |   |   |   |   |   |   |   |   |   |   |   |   |   |   |   |   |   |   |   |   |   |   pixel558 <= 0.15098: angry (8.0)
|   |   |   |   |   |   |   |   |   |   |   |   |   |   |   |   |   |   |   |   |   |   |   |   |   |   pixel558 > 0.15098: sad (3.0)
|   |   |   |   |   |   |   |   |   |   |   |   |   |   |   |   |   |   |   |   |   |   |   |   |   pixel515 > 0.252941
|   |   |   |   |   |   |   |   |   |   |   |   |   |   |   |   |   |   |   |   |   |   |   |   |   |   pixel0 <= 0.179412: disgust (2.0/1.0)
|   |   |   |   |   |   |   |   |   |   |   |   |   |   |   |   |   |   |   |   |   |   |   |   |   |   pixel0 > 0.179412: happy (2.0)
|   |   |   |   |   |   |   |   |   |   |   |   |   |   |   |   |   |   |   |   |   |   |   |   pixel432 > 0.035294
|   |   |   |   |   |   |   |   |   |   |   |   |   |   |   |   |   |   |   |   |   |   |   |   |   pixel467 <= 0.120588
|   |   |   |   |   |   |   |   |   |   |   |   |   |   |   |   |   |   |   |   |   |   |   |   |   |   pixel343 <= 0.193137: sad (2.0)
|   |   |   |   |   |   |   |   |   |   |   |   |   |   |   |   |   |   |   |   |   |   |   |   |   |   pixel343 > 0.193137
|   |   |   |   |   |   |   |   |   |   |   |   |   |   |   |   |   |   |   |   |   |   |   |   |   |   |   pixel544 <= 0.315686: happy (3.0/1.0)
|   |   |   |   |   |   |   |   |   |   |   |   |   |   |   |   |   |   |   |   |   |   |   |   |   |   |   pixel544 > 0.315686: fear (8.0)
|   |   |   |   |   |   |   |   |   |   |   |   |   |   |   |   |   |   |   |   |   |   |   |   |   pixel467 > 0.120588
|   |   |   |   |   |   |   |   |   |   |   |   |   |   |   |   |   |   |   |   |   |   |   |   |   |   pixel367 <= 0.140196
|   |   |   |   |   |   |   |   |   |   |   |   |   |   |   |   |   |   |   |   |   |   |   |   |   |   |   pixel493 <= 0.22549: suprise (2.0)
|   |   |   |   |   |   |   |   |   |   |   |   |   |   |   |   |   |   |   |   |   |   |   |   |   |   |   pixel493 > 0.22549
|   |   |   |   |   |   |   |   |   |   |   |   |   |   |   |   |   |   |   |   |   |   |   |   |   |   |   |   pixel4 <= 0.255882: angry (2.0)
|   |   |   |   |   |   |   |   |   |   |   |   |   |   |   |   |   |   |   |   |   |   |   |   |   |   |   |   pixel4 > 0.255882: happy (3.0)
|   |   |   |   |   |   |   |   |   |   |   |   |   |   |   |   |   |   |   |   |   |   |   |   |   |   pixel367 > 0.140196
|   |   |   |   |   |   |   |   |   |   |   |   |   |   |   |   |   |   |   |   |   |   |   |   |   |   |   pixel294 <= 0.17549
|   |   |   |   |   |   |   |   |   |   |   |   |   |   |   |   |   |   |   |   |   |   |   |   |   |   |   |   pixel569 <= 0.411765: fear (7.0)
|   |   |   |   |   |   |   |   |   |   |   |   |   |   |   |   |   |   |   |   |   |   |   |   |   |   |   |   pixel569 > 0.411765
|   |   |   |   |   |   |   |   |   |   |   |   |   |   |   |   |   |   |   |   |   |   |   |   |   |   |   |   |   pixel292 <= 0.151961: happy (2.0/1.0)
|   |   |   |   |   |   |   |   |   |   |   |   |   |   |   |   |   |   |   |   |   |   |   |   |   |   |   |   |   pixel292 > 0.151961: neutral (5.0)
|   |   |   |   |   |   |   |   |   |   |   |   |   |   |   |   |   |   |   |   |   |   |   |   |   |   |   pixel294 > 0.17549
|   |   |   |   |   |   |   |   |   |   |   |   |   |   |   |   |   |   |   |   |   |   |   |   |   |   |   |   pixel119 <= 0.138235
|   |   |   |   |   |   |   |   |   |   |   |   |   |   |   |   |   |   |   |   |   |   |   |   |   |   |   |   |   pixel312 <= 0.09902: happy (4.0)
|   |   |   |   |   |   |   |   |   |   |   |   |   |   |   |   |   |   |   |   |   |   |   |   |   |   |   |   |   pixel312 > 0.09902
|   |   |   |   |   |   |   |   |   |   |   |   |   |   |   |   |   |   |   |   |   |   |   |   |   |   |   |   |   |   pixel552 <= 0.520588
|   |   |   |   |   |   |   |   |   |   |   |   |   |   |   |   |   |   |   |   |   |   |   |   |   |   |   |   |   |   |   pixel569 <= 0.664706
|   |   |   |   |   |   |   |   |   |   |   |   |   |   |   |   |   |   |   |   |   |   |   |   |   |   |   |   |   |   |   |   pixel493 <= 0.297059
|   |   |   |   |   |   |   |   |   |   |   |   |   |   |   |   |   |   |   |   |   |   |   |   |   |   |   |   |   |   |   |   |   pixel71 <= 0.112745: sad (13.0/1.0)
|   |   |   |   |   |   |   |   |   |   |   |   |   |   |   |   |   |   |   |   |   |   |   |   |   |   |   |   |   |   |   |   |   pixel71 > 0.112745
|   |   |   |   |   |   |   |   |   |   |   |   |   |   |   |   |   |   |   |   |   |   |   |   |   |   |   |   |   |   |   |   |   |   pixel22 <= 0.2: suprise (5.0)
|   |   |   |   |   |   |   |   |   |   |   |   |   |   |   |   |   |   |   |   |   |   |   |   |   |   |   |   |   |   |   |   |   |   pixel22 > 0.2: sad (2.0)
|   |   |   |   |   |   |   |   |   |   |   |   |   |   |   |   |   |   |   |   |   |   |   |   |   |   |   |   |   |   |   |   pixel493 > 0.297059: angry (2.0/1.0)
|   |   |   |   |   |   |   |   |   |   |   |   |   |   |   |   |   |   |   |   |   |   |   |   |   |   |   |   |   |   |   pixel569 > 0.664706: neutral (3.0)
|   |   |   |   |   |   |   |   |   |   |   |   |   |   |   |   |   |   |   |   |   |   |   |   |   |   |   |   |   |   pixel552 > 0.520588: neutral (5.0/1.0)
|   |   |   |   |   |   |   |   |   |   |   |   |   |   |   |   |   |   |   |   |   |   |   |   |   |   |   |   pixel119 > 0.138235
|   |   |   |   |   |   |   |   |   |   |   |   |   |   |   |   |   |   |   |   |   |   |   |   |   |   |   |   |   pixel401 <= 0.623529
|   |   |   |   |   |   |   |   |   |   |   |   |   |   |   |   |   |   |   |   |   |   |   |   |   |   |   |   |   |   pixel383 <= 0.604902
|   |   |   |   |   |   |   |   |   |   |   |   |   |   |   |   |   |   |   |   |   |   |   |   |   |   |   |   |   |   |   pixel492 <= 0.270588
|   |   |   |   |   |   |   |   |   |   |   |   |   |   |   |   |   |   |   |   |   |   |   |   |   |   |   |   |   |   |   |   pixel0 <= 0.106863
|   |   |   |   |   |   |   |   |   |   |   |   |   |   |   |   |   |   |   |   |   |   |   |   |   |   |   |   |   |   |   |   |   pixel204 <= 0.432353: sad (4.0)
|   |   |   |   |   |   |   |   |   |   |   |   |   |   |   |   |   |   |   |   |   |   |   |   |   |   |   |   |   |   |   |   |   pixel204 > 0.432353
|   |   |   |   |   |   |   |   |   |   |   |   |   |   |   |   |   |   |   |   |   |   |   |   |   |   |   |   |   |   |   |   |   |   pixel4 <= 0.269608: fear (2.0)
|   |   |   |   |   |   |   |   |   |   |   |   |   |   |   |   |   |   |   |   |   |   |   |   |   |   |   |   |   |   |   |   |   |   pixel4 > 0.269608: suprise (2.0)
|   |   |   |   |   |   |   |   |   |   |   |   |   |   |   |   |   |   |   |   |   |   |   |   |   |   |   |   |   |   |   |   pixel0 > 0.106863
|   |   |   |   |   |   |   |   |   |   |   |   |   |   |   |   |   |   |   |   |   |   |   |   |   |   |   |   |   |   |   |   |   pixel400 <= 0.463725
|   |   |   |   |   |   |   |   |   |   |   |   |   |   |   |   |   |   |   |   |   |   |   |   |   |   |   |   |   |   |   |   |   |   pixel37 <= 0.137255: neutral (3.0)
|   |   |   |   |   |   |   |   |   |   |   |   |   |   |   |   |   |   |   |   |   |   |   |   |   |   |   |   |   |   |   |   |   |   pixel37 > 0.137255
|   |   |   |   |   |   |   |   |   |   |   |   |   |   |   |   |   |   |   |   |   |   |   |   |   |   |   |   |   |   |   |   |   |   |   pixel466 <= 0.138235: angry (6.0)
|   |   |   |   |   |   |   |   |   |   |   |   |   |   |   |   |   |   |   |   |   |   |   |   |   |   |   |   |   |   |   |   |   |   |   pixel466 > 0.138235
|   |   |   |   |   |   |   |   |   |   |   |   |   |   |   |   |   |   |   |   |   |   |   |   |   |   |   |   |   |   |   |   |   |   |   |   pixel4 <= 0.441176
|   |   |   |   |   |   |   |   |   |   |   |   |   |   |   |   |   |   |   |   |   |   |   |   |   |   |   |   |   |   |   |   |   |   |   |   |   pixel424 <= 0.25098: happy (8.0/1.0)
|   |   |   |   |   |   |   |   |   |   |   |   |   |   |   |   |   |   |   |   |   |   |   |   |   |   |   |   |   |   |   |   |   |   |   |   |   pixel424 > 0.25098
|   |   |   |   |   |   |   |   |   |   |   |   |   |   |   |   |   |   |   |   |   |   |   |   |   |   |   |   |   |   |   |   |   |   |   |   |   |   pixel544 <= 0.430392
|   |   |   |   |   |   |   |   |   |   |   |   |   |   |   |   |   |   |   |   |   |   |   |   |   |   |   |   |   |   |   |   |   |   |   |   |   |   |   pixel535 <= 0.164706: happy (3.0/1.0)
|   |   |   |   |   |   |   |   |   |   |   |   |   |   |   |   |   |   |   |   |   |   |   |   |   |   |   |   |   |   |   |   |   |   |   |   |   |   |   pixel535 > 0.164706
|   |   |   |   |   |   |   |   |   |   |   |   |   |   |   |   |   |   |   |   |   |   |   |   |   |   |   |   |   |   |   |   |   |   |   |   |   |   |   |   pixel252 <= 0.385294: fear (9.0/1.0)
|   |   |   |   |   |   |   |   |   |   |   |   |   |   |   |   |   |   |   |   |   |   |   |   |   |   |   |   |   |   |   |   |   |   |   |   |   |   |   |   pixel252 > 0.385294
|   |   |   |   |   |   |   |   |   |   |   |   |   |   |   |   |   |   |   |   |   |   |   |   |   |   |   |   |   |   |   |   |   |   |   |   |   |   |   |   |   pixel424 <= 0.397059
|   |   |   |   |   |   |   |   |   |   |   |   |   |   |   |   |   |   |   |   |   |   |   |   |   |   |   |   |   |   |   |   |   |   |   |   |   |   |   |   |   |   pixel22 <= 0.206863: angry (2.0)
|   |   |   |   |   |   |   |   |   |   |   |   |   |   |   |   |   |   |   |   |   |   |   |   |   |   |   |   |   |   |   |   |   |   |   |   |   |   |   |   |   |   pixel22 > 0.206863: neutral (7.0/1.0)
|   |   |   |   |   |   |   |   |   |   |   |   |   |   |   |   |   |   |   |   |   |   |   |   |   |   |   |   |   |   |   |   |   |   |   |   |   |   |   |   |   pixel424 > 0.397059
|   |   |   |   |   |   |   |   |   |   |   |   |   |   |   |   |   |   |   |   |   |   |   |   |   |   |   |   |   |   |   |   |   |   |   |   |   |   |   |   |   |   pixel294 <= 0.385294: angry (3.0/1.0)
|   |   |   |   |   |   |   |   |   |   |   |   |   |   |   |   |   |   |   |   |   |   |   |   |   |   |   |   |   |   |   |   |   |   |   |   |   |   |   |   |   |   pixel294 > 0.385294: fear (3.0)
|   |   |   |   |   |   |   |   |   |   |   |   |   |   |   |   |   |   |   |   |   |   |   |   |   |   |   |   |   |   |   |   |   |   |   |   |   |   pixel544 > 0.430392
|   |   |   |   |   |   |   |   |   |   |   |   |   |   |   |   |   |   |   |   |   |   |   |   |   |   |   |   |   |   |   |   |   |   |   |   |   |   |   pixel307 <= 0.555882
|   |   |   |   |   |   |   |   |   |   |   |   |   |   |   |   |   |   |   |   |   |   |   |   |   |   |   |   |   |   |   |   |   |   |   |   |   |   |   |   pixel292 <= 0.322549: angry (2.0)
|   |   |   |   |   |   |   |   |   |   |   |   |   |   |   |   |   |   |   |   |   |   |   |   |   |   |   |   |   |   |   |   |   |   |   |   |   |   |   |   pixel292 > 0.322549: sad (5.0)
|   |   |   |   |   |   |   |   |   |   |   |   |   |   |   |   |   |   |   |   |   |   |   |   |   |   |   |   |   |   |   |   |   |   |   |   |   |   |   pixel307 > 0.555882: happy (4.0)
|   |   |   |   |   |   |   |   |   |   |   |   |   |   |   |   |   |   |   |   |   |   |   |   |   |   |   |   |   |   |   |   |   |   |   |   pixel4 > 0.441176
|   |   |   |   |   |   |   |   |   |   |   |   |   |   |   |   |   |   |   |   |   |   |   |   |   |   |   |   |   |   |   |   |   |   |   |   |   pixel48 <= 0.843137
|   |   |   |   |   |   |   |   |   |   |   |   |   |   |   |   |   |   |   |   |   |   |   |   |   |   |   |   |   |   |   |   |   |   |   |   |   |   pixel22 <= 0.392157: sad (9.0)
|   |   |   |   |   |   |   |   |   |   |   |   |   |   |   |   |   |   |   |   |   |   |   |   |   |   |   |   |   |   |   |   |   |   |   |   |   |   pixel22 > 0.392157
|   |   |   |   |   |   |   |   |   |   |   |   |   |   |   |   |   |   |   |   |   |   |   |   |   |   |   |   |   |   |   |   |   |   |   |   |   |   |   pixel59 <= 0.319608: sad (2.0)
|   |   |   |   |   |   |   |   |   |   |   |   |   |   |   |   |   |   |   |   |   |   |   |   |   |   |   |   |   |   |   |   |   |   |   |   |   |   |   pixel59 > 0.319608: angry (6.0)
|   |   |   |   |   |   |   |   |   |   |   |   |   |   |   |   |   |   |   |   |   |   |   |   |   |   |   |   |   |   |   |   |   |   |   |   |   pixel48 > 0.843137: happy (4.0/1.0)
|   |   |   |   |   |   |   |   |   |   |   |   |   |   |   |   |   |   |   |   |   |   |   |   |   |   |   |   |   |   |   |   |   pixel400 > 0.463725
|   |   |   |   |   |   |   |   |   |   |   |   |   |   |   |   |   |   |   |   |   |   |   |   |   |   |   |   |   |   |   |   |   |   pixel173 <= 0.179412: neutral (2.0)
|   |   |   |   |   |   |   |   |   |   |   |   |   |   |   |   |   |   |   |   |   |   |   |   |   |   |   |   |   |   |   |   |   |   pixel173 > 0.179412
|   |   |   |   |   |   |   |   |   |   |   |   |   |   |   |   |   |   |   |   |   |   |   |   |   |   |   |   |   |   |   |   |   |   |   pixel504 <= 0.742157
|   |   |   |   |   |   |   |   |   |   |   |   |   |   |   |   |   |   |   |   |   |   |   |   |   |   |   |   |   |   |   |   |   |   |   |   pixel179 <= 0.298039
|   |   |   |   |   |   |   |   |   |   |   |   |   |   |   |   |   |   |   |   |   |   |   |   |   |   |   |   |   |   |   |   |   |   |   |   |   pixel4 <= 0.441176: angry (3.0)
|   |   |   |   |   |   |   |   |   |   |   |   |   |   |   |   |   |   |   |   |   |   |   |   |   |   |   |   |   |   |   |   |   |   |   |   |   pixel4 > 0.441176: sad (2.0)
|   |   |   |   |   |   |   |   |   |   |   |   |   |   |   |   |   |   |   |   |   |   |   |   |   |   |   |   |   |   |   |   |   |   |   |   pixel179 > 0.298039: sad (11.0)
|   |   |   |   |   |   |   |   |   |   |   |   |   |   |   |   |   |   |   |   |   |   |   |   |   |   |   |   |   |   |   |   |   |   |   pixel504 > 0.742157: angry (2.0/1.0)
|   |   |   |   |   |   |   |   |   |   |   |   |   |   |   |   |   |   |   |   |   |   |   |   |   |   |   |   |   |   |   pixel492 > 0.270588
|   |   |   |   |   |   |   |   |   |   |   |   |   |   |   |   |   |   |   |   |   |   |   |   |   |   |   |   |   |   |   |   pixel481 <= 0.507843
|   |   |   |   |   |   |   |   |   |   |   |   |   |   |   |   |   |   |   |   |   |   |   |   |   |   |   |   |   |   |   |   |   pixel0 <= 0.473529: angry (10.0/1.0)
|   |   |   |   |   |   |   |   |   |   |   |   |   |   |   |   |   |   |   |   |   |   |   |   |   |   |   |   |   |   |   |   |   pixel0 > 0.473529: happy (3.0/1.0)
|   |   |   |   |   |   |   |   |   |   |   |   |   |   |   |   |   |   |   |   |   |   |   |   |   |   |   |   |   |   |   |   pixel481 > 0.507843: fear (5.0)
|   |   |   |   |   |   |   |   |   |   |   |   |   |   |   |   |   |   |   |   |   |   |   |   |   |   |   |   |   |   pixel383 > 0.604902
|   |   |   |   |   |   |   |   |   |   |   |   |   |   |   |   |   |   |   |   |   |   |   |   |   |   |   |   |   |   |   pixel47 <= 0.868627
|   |   |   |   |   |   |   |   |   |   |   |   |   |   |   |   |   |   |   |   |   |   |   |   |   |   |   |   |   |   |   |   pixel481 <= 0.273529
|   |   |   |   |   |   |   |   |   |   |   |   |   |   |   |   |   |   |   |   |   |   |   |   |   |   |   |   |   |   |   |   |   pixel535 <= 0.166667: sad (2.0/1.0)
|   |   |   |   |   |   |   |   |   |   |   |   |   |   |   |   |   |   |   |   |   |   |   |   |   |   |   |   |   |   |   |   |   pixel535 > 0.166667: neutral (11.0)
|   |   |   |   |   |   |   |   |   |   |   |   |   |   |   |   |   |   |   |   |   |   |   |   |   |   |   |   |   |   |   |   pixel481 > 0.273529
|   |   |   |   |   |   |   |   |   |   |   |   |   |   |   |   |   |   |   |   |   |   |   |   |   |   |   |   |   |   |   |   |   pixel424 <= 0.246078: neutral (4.0/1.0)
|   |   |   |   |   |   |   |   |   |   |   |   |   |   |   |   |   |   |   |   |   |   |   |   |   |   |   |   |   |   |   |   |   pixel424 > 0.246078
|   |   |   |   |   |   |   |   |   |   |   |   |   |   |   |   |   |   |   |   |   |   |   |   |   |   |   |   |   |   |   |   |   |   pixel515 <= 0.141176: neutral (4.0/1.0)
|   |   |   |   |   |   |   |   |   |   |   |   |   |   |   |   |   |   |   |   |   |   |   |   |   |   |   |   |   |   |   |   |   |   pixel515 > 0.141176
|   |   |   |   |   |   |   |   |   |   |   |   |   |   |   |   |   |   |   |   |   |   |   |   |   |   |   |   |   |   |   |   |   |   |   pixel558 <= 0.303922
|   |   |   |   |   |   |   |   |   |   |   |   |   |   |   |   |   |   |   |   |   |   |   |   |   |   |   |   |   |   |   |   |   |   |   |   pixel492 <= 0.232353
|   |   |   |   |   |   |   |   |   |   |   |   |   |   |   |   |   |   |   |   |   |   |   |   |   |   |   |   |   |   |   |   |   |   |   |   |   pixel466 <= 0.238235: angry (5.0)
|   |   |   |   |   |   |   |   |   |   |   |   |   |   |   |   |   |   |   |   |   |   |   |   |   |   |   |   |   |   |   |   |   |   |   |   |   pixel466 > 0.238235: sad (2.0)
|   |   |   |   |   |   |   |   |   |   |   |   |   |   |   |   |   |   |   |   |   |   |   |   |   |   |   |   |   |   |   |   |   |   |   |   pixel492 > 0.232353: sad (4.0)
|   |   |   |   |   |   |   |   |   |   |   |   |   |   |   |   |   |   |   |   |   |   |   |   |   |   |   |   |   |   |   |   |   |   |   pixel558 > 0.303922
|   |   |   |   |   |   |   |   |   |   |   |   |   |   |   |   |   |   |   |   |   |   |   |   |   |   |   |   |   |   |   |   |   |   |   |   pixel71 <= 0.710784
|   |   |   |   |   |   |   |   |   |   |   |   |   |   |   |   |   |   |   |   |   |   |   |   |   |   |   |   |   |   |   |   |   |   |   |   |   pixel181 <= 0.45: sad (5.0)
|   |   |   |   |   |   |   |   |   |   |   |   |   |   |   |   |   |   |   |   |   |   |   |   |   |   |   |   |   |   |   |   |   |   |   |   |   pixel181 > 0.45: fear (2.0)
|   |   |   |   |   |   |   |   |   |   |   |   |   |   |   |   |   |   |   |   |   |   |   |   |   |   |   |   |   |   |   |   |   |   |   |   pixel71 > 0.710784: fear (3.0)
|   |   |   |   |   |   |   |   |   |   |   |   |   |   |   |   |   |   |   |   |   |   |   |   |   |   |   |   |   |   |   pixel47 > 0.868627
|   |   |   |   |   |   |   |   |   |   |   |   |   |   |   |   |   |   |   |   |   |   |   |   |   |   |   |   |   |   |   |   pixel37 <= 0.584314: sad (6.0)
|   |   |   |   |   |   |   |   |   |   |   |   |   |   |   |   |   |   |   |   |   |   |   |   |   |   |   |   |   |   |   |   pixel37 > 0.584314: happy (3.0/1.0)
|   |   |   |   |   |   |   |   |   |   |   |   |   |   |   |   |   |   |   |   |   |   |   |   |   |   |   |   |   pixel401 > 0.623529
|   |   |   |   |   |   |   |   |   |   |   |   |   |   |   |   |   |   |   |   |   |   |   |   |   |   |   |   |   |   pixel312 <= 0.221569: happy (3.0)
|   |   |   |   |   |   |   |   |   |   |   |   |   |   |   |   |   |   |   |   |   |   |   |   |   |   |   |   |   |   pixel312 > 0.221569: fear (3.0)
|   |   |   |   |   |   |   |   |   |   |   |   |   |   |   |   |   pixel24 > 0.916667
|   |   |   |   |   |   |   |   |   |   |   |   |   |   |   |   |   |   pixel204 <= 0.223529: neutral (4.0)
|   |   |   |   |   |   |   |   |   |   |   |   |   |   |   |   |   |   pixel204 > 0.223529
|   |   |   |   |   |   |   |   |   |   |   |   |   |   |   |   |   |   |   pixel119 <= 0.322549: angry (3.0)
|   |   |   |   |   |   |   |   |   |   |   |   |   |   |   |   |   |   |   pixel119 > 0.322549: suprise (3.0)
|   |   |   |   |   |   |   |   |   |   |   |   |   |   pixel227 > 0.610784
|   |   |   |   |   |   |   |   |   |   |   |   |   |   |   pixel227 <= 0.898039
|   |   |   |   |   |   |   |   |   |   |   |   |   |   |   |   pixel37 <= 0.159804
|   |   |   |   |   |   |   |   |   |   |   |   |   |   |   |   |   pixel344 <= 0.541176: happy (4.0)
|   |   |   |   |   |   |   |   |   |   |   |   |   |   |   |   |   pixel344 > 0.541176: neutral (2.0)
|   |   |   |   |   |   |   |   |   |   |   |   |   |   |   |   pixel37 > 0.159804
|   |   |   |   |   |   |   |   |   |   |   |   |   |   |   |   |   pixel22 <= 0.773529
|   |   |   |   |   |   |   |   |   |   |   |   |   |   |   |   |   |   pixel493 <= 0.265686
|   |   |   |   |   |   |   |   |   |   |   |   |   |   |   |   |   |   |   pixel384 <= 0.829412
|   |   |   |   |   |   |   |   |   |   |   |   |   |   |   |   |   |   |   |   pixel294 <= 0.797059
|   |   |   |   |   |   |   |   |   |   |   |   |   |   |   |   |   |   |   |   |   pixel155 <= 0.157843: fear (3.0/2.0)
|   |   |   |   |   |   |   |   |   |   |   |   |   |   |   |   |   |   |   |   |   pixel155 > 0.157843
|   |   |   |   |   |   |   |   |   |   |   |   |   |   |   |   |   |   |   |   |   |   pixel59 <= 0.545098
|   |   |   |   |   |   |   |   |   |   |   |   |   |   |   |   |   |   |   |   |   |   |   pixel320 <= 0.191176: angry (2.0)
|   |   |   |   |   |   |   |   |   |   |   |   |   |   |   |   |   |   |   |   |   |   |   pixel320 > 0.191176: sad (13.0/1.0)
|   |   |   |   |   |   |   |   |   |   |   |   |   |   |   |   |   |   |   |   |   |   pixel59 > 0.545098
|   |   |   |   |   |   |   |   |   |   |   |   |   |   |   |   |   |   |   |   |   |   |   pixel401 <= 0.528431
|   |   |   |   |   |   |   |   |   |   |   |   |   |   |   |   |   |   |   |   |   |   |   |   pixel535 <= 0.491176: angry (16.0)
|   |   |   |   |   |   |   |   |   |   |   |   |   |   |   |   |   |   |   |   |   |   |   |   pixel535 > 0.491176: sad (2.0)
|   |   |   |   |   |   |   |   |   |   |   |   |   |   |   |   |   |   |   |   |   |   |   pixel401 > 0.528431: sad (4.0)
|   |   |   |   |   |   |   |   |   |   |   |   |   |   |   |   |   |   |   |   pixel294 > 0.797059: fear (2.0)
|   |   |   |   |   |   |   |   |   |   |   |   |   |   |   |   |   |   |   pixel384 > 0.829412: happy (2.0/1.0)
|   |   |   |   |   |   |   |   |   |   |   |   |   |   |   |   |   |   pixel493 > 0.265686
|   |   |   |   |   |   |   |   |   |   |   |   |   |   |   |   |   |   |   pixel220 <= 0.177451
|   |   |   |   |   |   |   |   |   |   |   |   |   |   |   |   |   |   |   |   pixel22 <= 0.140196: happy (3.0/1.0)
|   |   |   |   |   |   |   |   |   |   |   |   |   |   |   |   |   |   |   |   pixel22 > 0.140196: fear (3.0)
|   |   |   |   |   |   |   |   |   |   |   |   |   |   |   |   |   |   |   pixel220 > 0.177451: sad (11.0)
|   |   |   |   |   |   |   |   |   |   |   |   |   |   |   |   |   pixel22 > 0.773529
|   |   |   |   |   |   |   |   |   |   |   |   |   |   |   |   |   |   pixel71 <= 0.90098: neutral (3.0)
|   |   |   |   |   |   |   |   |   |   |   |   |   |   |   |   |   |   pixel71 > 0.90098: sad (3.0/1.0)
|   |   |   |   |   |   |   |   |   |   |   |   |   |   |   pixel227 > 0.898039: disgust (2.0)
|   |   |   |   |   |   |   |   |   |   |   |   |   pixel220 > 0.503922
|   |   |   |   |   |   |   |   |   |   |   |   |   |   pixel384 <= 0.846078
|   |   |   |   |   |   |   |   |   |   |   |   |   |   |   pixel181 <= 0.122549
|   |   |   |   |   |   |   |   |   |   |   |   |   |   |   |   pixel292 <= 0.686275: suprise (4.0/1.0)
|   |   |   |   |   |   |   |   |   |   |   |   |   |   |   |   pixel292 > 0.686275: angry (2.0)
|   |   |   |   |   |   |   |   |   |   |   |   |   |   |   pixel181 > 0.122549
|   |   |   |   |   |   |   |   |   |   |   |   |   |   |   |   pixel469 <= 0.090196
|   |   |   |   |   |   |   |   |   |   |   |   |   |   |   |   |   pixel522 <= 0.42451: neutral (3.0)
|   |   |   |   |   |   |   |   |   |   |   |   |   |   |   |   |   pixel522 > 0.42451: suprise (3.0/1.0)
|   |   |   |   |   |   |   |   |   |   |   |   |   |   |   |   pixel469 > 0.090196
|   |   |   |   |   |   |   |   |   |   |   |   |   |   |   |   |   pixel554 <= 0.022549
|   |   |   |   |   |   |   |   |   |   |   |   |   |   |   |   |   |   pixel220 <= 0.694118: sad (6.0)
|   |   |   |   |   |   |   |   |   |   |   |   |   |   |   |   |   |   pixel220 > 0.694118: angry (3.0/1.0)
|   |   |   |   |   |   |   |   |   |   |   |   |   |   |   |   |   pixel554 > 0.022549
|   |   |   |   |   |   |   |   |   |   |   |   |   |   |   |   |   |   pixel547 <= 0.032353
|   |   |   |   |   |   |   |   |   |   |   |   |   |   |   |   |   |   |   pixel552 <= 0.089216: happy (2.0)
|   |   |   |   |   |   |   |   |   |   |   |   |   |   |   |   |   |   |   pixel552 > 0.089216
|   |   |   |   |   |   |   |   |   |   |   |   |   |   |   |   |   |   |   |   pixel4 <= 0.318627: suprise (3.0)
|   |   |   |   |   |   |   |   |   |   |   |   |   |   |   |   |   |   |   |   pixel4 > 0.318627: sad (2.0)
|   |   |   |   |   |   |   |   |   |   |   |   |   |   |   |   |   |   pixel547 > 0.032353
|   |   |   |   |   |   |   |   |   |   |   |   |   |   |   |   |   |   |   pixel59 <= 0.719608
|   |   |   |   |   |   |   |   |   |   |   |   |   |   |   |   |   |   |   |   pixel492 <= 0.111765
|   |   |   |   |   |   |   |   |   |   |   |   |   |   |   |   |   |   |   |   |   pixel131 <= 0.57451: fear (12.0/3.0)
|   |   |   |   |   |   |   |   |   |   |   |   |   |   |   |   |   |   |   |   |   pixel131 > 0.57451: sad (3.0)
|   |   |   |   |   |   |   |   |   |   |   |   |   |   |   |   |   |   |   |   pixel492 > 0.111765
|   |   |   |   |   |   |   |   |   |   |   |   |   |   |   |   |   |   |   |   |   pixel294 <= 0.246078
|   |   |   |   |   |   |   |   |   |   |   |   |   |   |   |   |   |   |   |   |   |   pixel491 <= 0.132353: fear (2.0)
|   |   |   |   |   |   |   |   |   |   |   |   |   |   |   |   |   |   |   |   |   |   pixel491 > 0.132353: sad (7.0)
|   |   |   |   |   |   |   |   |   |   |   |   |   |   |   |   |   |   |   |   |   pixel294 > 0.246078
|   |   |   |   |   |   |   |   |   |   |   |   |   |   |   |   |   |   |   |   |   |   pixel367 <= 0.285294
|   |   |   |   |   |   |   |   |   |   |   |   |   |   |   |   |   |   |   |   |   |   |   pixel1 <= 0.167647: angry (3.0)
|   |   |   |   |   |   |   |   |   |   |   |   |   |   |   |   |   |   |   |   |   |   |   pixel1 > 0.167647
|   |   |   |   |   |   |   |   |   |   |   |   |   |   |   |   |   |   |   |   |   |   |   |   pixel59 <= 0.598039
|   |   |   |   |   |   |   |   |   |   |   |   |   |   |   |   |   |   |   |   |   |   |   |   |   pixel173 <= 0.502941: happy (6.0)
|   |   |   |   |   |   |   |   |   |   |   |   |   |   |   |   |   |   |   |   |   |   |   |   |   pixel173 > 0.502941
|   |   |   |   |   |   |   |   |   |   |   |   |   |   |   |   |   |   |   |   |   |   |   |   |   |   pixel356 <= 0.292157: sad (2.0)
|   |   |   |   |   |   |   |   |   |   |   |   |   |   |   |   |   |   |   |   |   |   |   |   |   |   pixel356 > 0.292157: fear (6.0/1.0)
|   |   |   |   |   |   |   |   |   |   |   |   |   |   |   |   |   |   |   |   |   |   |   |   pixel59 > 0.598039: neutral (4.0/1.0)
|   |   |   |   |   |   |   |   |   |   |   |   |   |   |   |   |   |   |   |   |   |   pixel367 > 0.285294
|   |   |   |   |   |   |   |   |   |   |   |   |   |   |   |   |   |   |   |   |   |   |   pixel307 <= 0.187255
|   |   |   |   |   |   |   |   |   |   |   |   |   |   |   |   |   |   |   |   |   |   |   |   pixel558 <= 0.068627: fear (2.0)
|   |   |   |   |   |   |   |   |   |   |   |   |   |   |   |   |   |   |   |   |   |   |   |   pixel558 > 0.068627
|   |   |   |   |   |   |   |   |   |   |   |   |   |   |   |   |   |   |   |   |   |   |   |   |   pixel391 <= 0.29902: happy (3.0)
|   |   |   |   |   |   |   |   |   |   |   |   |   |   |   |   |   |   |   |   |   |   |   |   |   pixel391 > 0.29902
|   |   |   |   |   |   |   |   |   |   |   |   |   |   |   |   |   |   |   |   |   |   |   |   |   |   pixel563 <= 0.229412
|   |   |   |   |   |   |   |   |   |   |   |   |   |   |   |   |   |   |   |   |   |   |   |   |   |   |   pixel0 <= 0.638235: angry (5.0)
|   |   |   |   |   |   |   |   |   |   |   |   |   |   |   |   |   |   |   |   |   |   |   |   |   |   |   pixel0 > 0.638235: happy (2.0/1.0)
|   |   |   |   |   |   |   |   |   |   |   |   |   |   |   |   |   |   |   |   |   |   |   |   |   |   pixel563 > 0.229412: sad (8.0/1.0)
|   |   |   |   |   |   |   |   |   |   |   |   |   |   |   |   |   |   |   |   |   |   |   pixel307 > 0.187255
|   |   |   |   |   |   |   |   |   |   |   |   |   |   |   |   |   |   |   |   |   |   |   |   pixel401 <= 0.281373
|   |   |   |   |   |   |   |   |   |   |   |   |   |   |   |   |   |   |   |   |   |   |   |   |   pixel344 <= 0.312745
|   |   |   |   |   |   |   |   |   |   |   |   |   |   |   |   |   |   |   |   |   |   |   |   |   |   pixel252 <= 0.523529: fear (3.0/1.0)
|   |   |   |   |   |   |   |   |   |   |   |   |   |   |   |   |   |   |   |   |   |   |   |   |   |   pixel252 > 0.523529: angry (3.0)
|   |   |   |   |   |   |   |   |   |   |   |   |   |   |   |   |   |   |   |   |   |   |   |   |   pixel344 > 0.312745
|   |   |   |   |   |   |   |   |   |   |   |   |   |   |   |   |   |   |   |   |   |   |   |   |   |   pixel466 <= 0.328431
|   |   |   |   |   |   |   |   |   |   |   |   |   |   |   |   |   |   |   |   |   |   |   |   |   |   |   pixel356 <= 0.241176: fear (2.0)
|   |   |   |   |   |   |   |   |   |   |   |   |   |   |   |   |   |   |   |   |   |   |   |   |   |   |   pixel356 > 0.241176: sad (8.0/1.0)
|   |   |   |   |   |   |   |   |   |   |   |   |   |   |   |   |   |   |   |   |   |   |   |   |   |   pixel466 > 0.328431: neutral (7.0/1.0)
|   |   |   |   |   |   |   |   |   |   |   |   |   |   |   |   |   |   |   |   |   |   |   |   pixel401 > 0.281373
|   |   |   |   |   |   |   |   |   |   |   |   |   |   |   |   |   |   |   |   |   |   |   |   |   pixel344 <= 0.597059
|   |   |   |   |   |   |   |   |   |   |   |   |   |   |   |   |   |   |   |   |   |   |   |   |   |   pixel550 <= 0.691176
|   |   |   |   |   |   |   |   |   |   |   |   |   |   |   |   |   |   |   |   |   |   |   |   |   |   |   pixel344 <= 0.559804
